~o
<STREAMINFO> 1 25
<VECSIZE> 25<NULLD><MFCC_D_N_Z_0><DIAGC>
~s "silst"
<MEAN> 25
 -3.522486e+000 1.023769e+000 -4.523226e-001 -6.249545e-001 1.050490e+000 3.216423e+000 3.493582e+000 1.029882e+000 1.178417e+000 3.815789e+000 -2.248017e+000 4.391580e-001 9.995571e-001 -8.487633e-001 4.547450e-001 -1.058471e+000 3.840724e-001 -1.813626e+000 2.563926e-001 -3.753421e-002 -3.522004e-001 -3.502795e-001 -1.401230e-001 -6.517926e-001 2.701583e+000
<VARIANCE> 25
 4.028336e+001 7.845741e+001 5.920413e+001 8.192525e+001 4.993334e+001 6.099202e+001 4.213503e+001 3.782164e+001 3.025067e+001 3.168588e+001 2.167335e+001 2.307208e+001 6.402452e+000 1.442177e+001 5.420124e+000 8.244116e+000 4.612124e+000 5.502110e+000 5.727461e+000 5.944836e+000 3.895526e+000 3.552359e+000 3.535923e+000 2.265529e+000 1.302985e+001
<GCONST> 1.133296e+002
~h "a"
<BEGINHMM>
<NUMSTATES> 5
<STATE> 2
<MEAN> 25
 3.816956e+000 -5.060465e+000 -2.709663e+000 -6.041371e+000 -5.699596e+000 -3.607398e+000 4.308455e+000 6.726514e-001 2.504697e+000 -1.790376e+000 4.783692e+000 4.067505e+000 2.295184e-001 -7.792678e-001 -4.303889e-001 -5.264600e-001 -8.908020e-001 5.050227e-001 2.865288e-001 4.026469e-001 7.226220e-001 -1.105275e-001 9.632576e-001 1.137111e-001 4.081421e-001
<VARIANCE> 25
 8.729119e+000 3.585772e+001 2.517731e+001 2.762486e+001 2.998660e+001 2.407031e+001 4.552309e+001 2.400119e+001 3.358335e+001 2.564165e+001 2.692458e+001 1.553090e+001 6.636980e-001 1.694381e+000 1.331349e+000 3.023812e+000 4.267778e+000 2.870671e+000 3.058426e+000 2.554052e+000 2.157818e+000 2.108458e+000 4.047097e+000 1.914124e+000 1.807306e+000
<GCONST> 9.483546e+001
<STATE> 3
<MEAN> 25
 5.413968e+000 -4.986703e+000 -6.449307e+000 -5.050991e+000 -5.430872e+000 -2.303561e+000 3.905019e+000 -2.294640e-001 2.477161e+000 -2.225638e-001 6.730718e+000 3.096392e+000 -2.692081e-002 4.026651e-001 -1.553000e-001 6.936341e-001 8.502851e-001 1.470029e-001 -4.919690e-001 -3.467147e-002 -4.041372e-001 6.869821e-002 -5.845348e-002 5.605318e-002 -5.766259e-001
<VARIANCE> 25
 9.061134e+000 2.329601e+001 2.122966e+001 2.459235e+001 3.223597e+001 3.257196e+001 4.748951e+001 3.474921e+001 2.578983e+001 3.710358e+001 2.071177e+001 1.398347e+001 5.208645e-001 1.094257e+000 1.490486e+000 2.133780e+000 2.029922e+000 3.004433e+000 3.122384e+000 9.770018e-001 1.360303e+000 1.673778e+000 1.424799e+000 1.563106e+000 8.351012e-001
<GCONST> 8.941603e+001
<STATE> 4
<MEAN> 25
 2.596183e+000 8.111117e-001 -6.477272e+000 2.625906e-001 1.468795e+000 2.135670e+000 4.230606e-002 4.738394e-003 7.796357e-001 1.978694e+000 2.728335e+000 3.720038e+000 -1.195929e-001 5.898851e-001 -1.696362e-001 4.138457e-001 5.624611e-001 6.860008e-002 -1.076682e-001 1.520990e-001 -3.130026e-001 -1.576774e-002 -3.028363e-001 -1.095867e-001 -6.370629e-001
<VARIANCE> 25
 1.416548e+001 7.283655e+001 2.561403e+001 3.394348e+001 4.447630e+001 4.342051e+001 5.059651e+001 3.587507e+001 1.615194e+001 2.298195e+001 3.589412e+001 1.323780e+001 5.480571e-001 1.432629e+000 1.712816e+000 1.951081e+000 1.675349e+000 1.840955e+000 1.655821e+000 1.578797e+000 1.589661e+000 1.588908e+000 2.311676e+000 1.122308e+000 5.769626e-001
<GCONST> 9.118587e+001
<TRANSP> 5
 0.000000e+000 1.000000e+000 0.000000e+000 0.000000e+000 0.000000e+000
 0.000000e+000 7.147569e-001 2.852431e-001 0.000000e+000 0.000000e+000
 0.000000e+000 0.000000e+000 6.315252e-001 3.684748e-001 0.000000e+000
 0.000000e+000 0.000000e+000 0.000000e+000 6.711815e-001 3.288185e-001
 0.000000e+000 0.000000e+000 0.000000e+000 0.000000e+000 0.000000e+000
<ENDHMM>
~h "d"
<BEGINHMM>
<NUMSTATES> 5
<STATE> 2
<MEAN> 25
 3.162012e+000 6.775768e-001 -2.835752e+000 6.871127e+000 9.627625e+000 -6.458824e+000 5.418049e+000 1.829023e+000 -4.616029e+000 -2.394729e+000 -9.331788e-001 -8.874320e-001 1.169458e+000 -2.099808e+000 -8.589132e-001 -1.820934e+000 3.783978e-001 -4.121572e+000 -2.032229e+000 -1.002545e+000 -1.812449e+000 -2.446128e+000 1.613312e+000 2.987328e-001 3.550854e+000
<VARIANCE> 25
 1.889455e+001 4.380105e+001 2.029367e+001 2.354205e+001 4.867173e+001 9.682095e+001 5.957085e+001 4.175961e+001 2.292315e+001 3.406544e+001 2.225489e+001 1.697787e+000 4.360782e-001 4.575287e+000 3.190225e+000 3.841018e-001 6.715428e+000 9.158029e+000 8.217928e+000 6.299339e+000 2.533013e+000 1.285167e+000 2.868869e+000 8.995901e-001 4.369540e+000
<GCONST> 9.796677e+001
<STATE> 3
<MEAN> 25
 7.120430e+000 -6.187825e+000 -9.323768e-001 -2.680304e+000 -1.408553e+000 -7.173132e+000 -5.947236e+000 -3.108139e+000 -2.372900e+000 -7.088234e+000 6.202707e+000 -2.652466e-001 4.829304e-001 -4.845155e-001 -7.812994e-001 -1.053915e+000 -2.095053e+000 8.042299e-001 -1.988866e-001 -1.828597e-002 9.229286e-001 4.947411e-001 1.024109e+000 5.659257e-001 -8.106515e-002
<VARIANCE> 25
 1.242391e+001 1.169841e+001 1.082421e+001 8.498415e+000 2.793904e+001 1.177883e+001 3.749215e+000 1.870132e+001 6.352289e+000 8.269088e+000 2.817999e+001 7.836106e+000 1.491227e-001 9.973209e-001 6.940605e-001 1.928192e+000 2.759857e+000 1.645065e+000 3.246977e+000 1.375584e+000 7.401417e-001 8.687542e-001 1.281954e+000 7.452698e-001 2.317080e-001
<GCONST> 7.429860e+001
<STATE> 4
<MEAN> 25
 6.049372e+000 -8.519911e-001 -7.432741e+000 -5.008786e+000 -5.903980e+000 -7.151375e+000 -2.524612e+000 3.318889e-001 -3.747958e-001 -2.606179e+000 7.433940e+000 5.503998e+000 -6.967502e-001 1.285964e+000 -2.770104e-001 -1.779993e-001 -5.530460e-001 8.435237e-001 6.476371e-001 1.315344e+000 5.224671e-001 1.354426e+000 9.553316e-002 6.357451e-001 -2.010601e+000
<VARIANCE> 25
 1.019951e+001 2.020080e+001 1.268929e+001 9.460289e+000 1.754160e+001 2.954741e+001 3.433307e+001 2.718741e+001 7.589559e+000 2.067763e+001 1.769073e+001 1.262408e+001 1.791708e+000 5.551958e-001 2.232279e+000 9.961060e-001 2.379603e+000 4.721138e+000 3.908937e+000 2.550310e+000 1.209829e+000 1.063699e+000 1.839663e+000 2.108674e+000 1.619399e+000
<GCONST> 8.721900e+001
<TRANSP> 5
 0.000000e+000 1.000000e+000 0.000000e+000 0.000000e+000 0.000000e+000
 0.000000e+000 6.985676e-001 3.014324e-001 0.000000e+000 0.000000e+000
 0.000000e+000 0.000000e+000 7.762488e-001 2.237512e-001 0.000000e+000
 0.000000e+000 0.000000e+000 0.000000e+000 8.673950e-001 1.326050e-001
 0.000000e+000 0.000000e+000 0.000000e+000 0.000000e+000 0.000000e+000
<ENDHMM>
~h "e"
<BEGINHMM>
<NUMSTATES> 5
<STATE> 2
<MEAN> 25
 3.975267e+000 -2.164671e+000 7.630009e-001 -1.671525e+000 -2.036659e+000 -1.568235e+000 -3.179140e-001 -3.492009e+000 -3.951977e+000 -1.252956e+000 6.614352e+000 1.666928e-001 -4.264877e-001 1.391778e-001 -1.712720e-002 -2.550674e-001 -2.741735e-001 2.671294e-001 4.951827e-001 4.128385e-001 2.050269e-001 -1.928238e-001 -4.446449e-001 3.497454e-001 -4.482390e-001
<VARIANCE> 25
 4.433028e+001 3.794414e+001 9.372549e+001 3.546019e+001 1.910434e+001 6.826396e+001 4.059221e+001 2.194280e+001 2.732419e+001 3.294222e+001 2.950067e+001 2.354667e+001 1.838356e+000 1.100132e+000 1.933002e+000 2.416424e+000 2.622316e+000 2.810911e+000 4.194653e+000 3.794439e+000 9.426299e-001 4.008049e+000 1.331012e+000 1.648871e+000 6.139103e-001
<GCONST> 9.743266e+001
<STATE> 3
<MEAN> 25
 2.079437e+000 -2.100647e+000 1.761306e+000 -9.363785e-001 -2.914956e+000 -1.317009e+000 2.110597e-001 -2.696836e+000 -3.298972e+000 -2.056526e+000 4.549159e+000 7.786504e-001 -6.332227e-001 -2.399822e-001 1.349515e-001 -2.468054e-001 1.870825e-001 4.981461e-001 4.616988e-001 8.858299e-001 4.195364e-001 -2.011005e-001 -1.159522e+000 2.063275e-001 -4.144260e-001
<VARIANCE> 25
 6.428928e+001 3.569430e+001 8.616613e+001 4.840426e+001 2.094551e+001 4.853326e+001 3.556622e+001 1.951579e+001 2.276943e+001 3.297568e+001 3.880808e+001 1.919761e+001 1.204087e+000 1.270598e+000 2.203336e+000 2.274341e+000 1.853854e+000 2.660681e+000 4.568259e+000 3.244766e+000 1.307235e+000 3.642034e+000 9.604035e-001 1.613327e+000 9.473600e-001
<GCONST> 9.699575e+001
<STATE> 4
<MEAN> 25
 2.090360e+000 -4.607146e+000 1.050877e+000 -2.545358e+000 -1.232679e+000 7.454959e-001 1.430301e+000 -1.307065e+000 -8.156085e-001 -1.979405e+000 2.631857e+000 1.099865e+000 -8.517296e-001 -7.792884e-001 7.331874e-001 -9.317390e-001 2.489202e-001 6.602761e-001 5.283881e-001 9.973694e-001 1.039719e+000 8.076316e-002 -1.851520e+000 5.545742e-002 -3.012055e-002
<VARIANCE> 25
 6.318158e+001 6.057300e+001 6.921143e+001 4.181733e+001 2.097629e+001 4.117760e+001 2.599436e+001 2.272277e+001 2.635118e+001 3.222157e+001 3.215185e+001 2.982375e+001 2.585368e+000 3.251871e+000 5.262278e+000 5.336368e+000 1.361929e+000 6.534702e+000 2.759893e+000 4.268984e+000 2.378680e+000 3.333658e+000 2.152644e+000 1.636862e+000 1.340069e+000
<GCONST> 1.026593e+002
<TRANSP> 5
 0.000000e+000 1.000000e+000 0.000000e+000 0.000000e+000 0.000000e+000
 0.000000e+000 1.180355e-001 8.819644e-001 0.000000e+000 0.000000e+000
 0.000000e+000 0.000000e+000 2.117082e-001 7.882918e-001 0.000000e+000
 0.000000e+000 0.000000e+000 0.000000e+000 3.379834e-001 6.620166e-001
 0.000000e+000 0.000000e+000 0.000000e+000 0.000000e+000 0.000000e+000
<ENDHMM>
~h "g"
<BEGINHMM>
<NUMSTATES> 5
<STATE> 2
<MEAN> 25
 2.719207e-001 4.470338e+000 8.346045e+000 6.272532e+000 6.288287e+000 -1.293788e+000 -1.600121e+000 -1.580471e+000 2.555081e+000 1.615447e+000 -4.371269e+000 -6.331747e+000 7.487838e-001 -4.888483e-001 -9.462185e-002 4.358644e-001 1.320253e+000 -1.462614e+000 -1.200937e+000 -1.311413e+000 -6.653445e-001 -6.271276e-001 7.155942e-001 -3.580315e-001 1.602491e+000
<VARIANCE> 25
 1.099243e+001 1.248989e+002 3.368628e+001 4.201545e+001 3.230044e+001 3.799219e+001 4.742071e+001 6.652586e+001 2.165117e+001 2.283245e+001 2.190526e+001 1.421693e+001 1.756903e+000 1.579533e+001 5.565931e+000 6.663763e+000 2.890542e+000 3.741514e+000 4.378541e+000 1.065997e+001 2.769499e+000 2.178311e+000 2.671819e+000 3.321348e+000 4.346520e+000
<GCONST> 1.061508e+002
<STATE> 3
<MEAN> 25
 4.038525e+000 -4.650302e+000 2.796403e+000 5.911802e+000 6.610565e+000 -8.395820e+000 -1.048962e+001 -8.532918e+000 -3.068859e+000 -3.024300e+000 3.962075e+000 -3.738586e+000 5.667291e-001 -1.700285e-001 -5.087491e-001 -1.839326e-001 -1.441402e+000 5.918725e-001 -8.669964e-001 -2.653880e-001 -5.225464e-002 2.785921e-001 1.396129e+000 6.653938e-001 -3.683315e-001
<VARIANCE> 25
 1.048968e+001 1.176058e+001 2.284707e+001 2.143059e+001 2.333718e+001 1.893276e+001 1.267388e+001 4.234768e+001 1.361468e+001 1.525630e+001 2.849519e+001 1.084239e+001 5.756165e-001 7.222584e-001 1.899536e+000 7.461534e-001 1.470475e+000 2.175168e+000 3.218791e+000 1.728408e+000 1.606794e+000 1.323182e+000 2.175126e+000 1.186426e+000 2.873218e-001
<GCONST> 8.320661e+001
<STATE> 4
<MEAN> 25
 1.435792e-001 -5.399667e+000 1.027187e+001 6.326681e-001 2.571277e-001 3.242436e+000 -7.079082e+000 -4.738278e+000 -1.144605e+000 2.034435e+000 6.118950e+000 -4.177020e+000 -2.559978e+000 -1.260307e+000 3.126040e+000 -3.026727e+000 -1.665076e+000 2.715864e+000 1.416622e+000 2.501133e+000 -1.290392e-001 8.192669e-001 3.321217e-001 -4.034466e-001 -8.445753e-001
<VARIANCE> 25
 6.509889e+001 1.450123e+001 1.199200e+002 3.794004e+001 9.323286e+000 5.299179e+001 1.538519e+001 3.926933e+001 9.146556e+000 2.129451e+001 1.463622e+001 1.336722e+001 5.599215e+000 2.445947e+000 5.001204e+000 5.645676e+000 1.487545e+000 3.454093e+000 2.712787e+000 4.028706e+000 7.631879e-001 1.415483e+000 1.200376e+000 4.533820e-001 4.744715e-001
<GCONST> 9.308355e+001
<TRANSP> 5
 0.000000e+000 1.000000e+000 0.000000e+000 0.000000e+000 0.000000e+000
 0.000000e+000 8.505282e-001 1.494718e-001 0.000000e+000 0.000000e+000
 0.000000e+000 0.000000e+000 8.230428e-001 1.769572e-001 0.000000e+000
 0.000000e+000 0.000000e+000 0.000000e+000 5.053076e-001 4.946924e-001
 0.000000e+000 0.000000e+000 0.000000e+000 0.000000e+000 0.000000e+000
<ENDHMM>
~h "i"
<BEGINHMM>
<NUMSTATES> 5
<STATE> 2
<MEAN> 25
 3.235928e+000 -1.304394e+000 3.383433e+000 9.822182e+000 7.859700e+000 -8.060577e+000 -9.286252e+000 2.230920e-002 -5.069735e+000 -2.759721e+000 3.403980e+000 -9.180331e+000 -3.755089e-001 1.122913e-001 2.749691e-001 8.400508e-001 -2.645797e-001 -1.082391e-001 -7.007958e-002 1.345439e-001 8.434903e-003 2.086926e-001 -5.294548e-001 -2.932727e-001 -6.728212e-001
<VARIANCE> 25
 6.846958e+000 1.587688e+001 2.601139e+001 4.423439e+001 3.276997e+001 4.181004e+001 2.861086e+001 3.784807e+001 2.184761e+001 2.030635e+001 3.171621e+001 3.178874e+001 5.570689e-001 1.167256e+000 1.481568e+000 2.997838e+000 2.664806e+000 4.040501e+000 3.041641e+000 1.859149e+000 1.517115e+000 1.572468e+000 1.691069e+000 1.936972e+000 7.521936e-001
<GCONST> 9.184539e+001
<STATE> 3
<MEAN> 25
 8.144176e-001 2.558879e+000 4.651876e+000 1.266194e+001 5.116969e+000 -3.009653e+000 -4.286057e+000 2.219495e+000 7.205116e-001 -4.365791e-001 -1.762598e+000 -3.013945e+000 -3.814445e-001 4.954868e-001 -5.748845e-001 -2.431844e-001 -1.878402e-001 8.001377e-001 7.927306e-001 5.695099e-001 7.333860e-001 5.980586e-001 -2.530760e-001 7.311768e-001 -9.332533e-001
<VARIANCE> 25
 1.150548e+001 4.747681e+001 3.513735e+001 2.559935e+001 1.982569e+001 3.623561e+001 2.811422e+001 6.659668e+001 2.477731e+001 3.366232e+001 2.596236e+001 2.424896e+001 5.499116e-001 1.337927e+000 1.209477e+000 2.394923e+000 1.497787e+000 3.155107e+000 2.983392e+000 1.726065e+000 1.137668e+000 8.004457e-001 1.117902e+000 1.577042e+000 6.282752e-001
<GCONST> 9.029230e+001
<STATE> 4
<MEAN> 25
 -5.638459e+000 2.126234e+000 -2.399275e+000 4.286148e+000 1.056182e+000 1.899593e+000 -4.801136e-001 6.590649e-001 2.570796e+000 2.751544e+000 -3.612896e+000 1.661249e+000 -1.504547e-001 -3.029259e-002 -1.528428e-001 -3.296116e-001 -1.152283e-001 1.881627e-001 8.514700e-003 -9.428591e-002 4.936105e-002 6.543362e-002 2.782052e-002 6.112373e-002 -1.334313e-001
<VARIANCE> 25
 1.133877e+001 3.179851e+001 1.125615e+001 2.062222e+001 1.811070e+001 3.923785e+001 2.662438e+001 1.857606e+001 1.767497e+001 1.191560e+001 1.365472e+001 9.123065e+000 2.375692e-001 6.092113e-001 7.696615e-001 9.038218e-001 1.116278e+000 2.187142e+000 2.056790e+000 1.205430e+000 1.176081e+000 8.590971e-001 1.105917e+000 8.477572e-001 2.215610e-001
<GCONST> 7.817013e+001
<TRANSP> 5
 0.000000e+000 1.000000e+000 0.000000e+000 0.000000e+000 0.000000e+000
 0.000000e+000 8.161386e-001 1.838614e-001 0.000000e+000 0.000000e+000
 0.000000e+000 0.000000e+000 8.214250e-001 1.785750e-001 0.000000e+000
 0.000000e+000 0.000000e+000 0.000000e+000 9.226466e-001 7.735334e-002
 0.000000e+000 0.000000e+000 0.000000e+000 0.000000e+000 0.000000e+000
<ENDHMM>
~h "j"
<BEGINHMM>
<NUMSTATES> 5
<STATE> 2
<MEAN> 25
 -4.920672e+000 -9.733795e+000 1.575158e+001 -2.443266e+000 6.885552e-001 4.111558e+000 3.296340e+000 3.723716e+000 2.164255e+000 1.732644e+000 -2.551885e+000 -7.325810e+000 1.927316e+000 7.054768e-001 -8.396600e-001 1.963003e+000 2.075169e+000 -1.571562e+000 -9.931297e-001 -1.255022e+000 -9.949390e-001 -1.377857e+000 6.716767e-001 -6.661452e-002 5.430488e-001
<VARIANCE> 25
 3.217064e+001 1.210462e+002 6.048558e+001 9.485455e+001 4.173238e+001 3.685758e+001 4.263820e+001 2.816292e+001 9.792337e+000 1.095610e+001 1.417495e+001 9.274890e+000 7.133224e+000 2.217502e+001 1.356474e+001 1.540666e+001 1.065789e+001 6.216081e+000 3.725086e+000 4.117189e+000 2.085606e+000 3.333126e+000 2.383006e+000 1.242779e+000 5.061542e+000
<GCONST> 1.088283e+002
<STATE> 3
<MEAN> 25
 3.838286e+000 -4.764742e+000 3.753483e+000 5.558460e+000 4.346460e+000 -4.668157e+000 -3.657232e+000 -6.353709e+000 -2.509006e+000 -4.707838e+000 -1.335392e+000 -6.394952e+000 5.136365e-001 3.964331e-001 -1.176665e+000 3.721068e-001 -3.978400e-001 -2.861750e-001 -3.363633e-002 -3.132685e-001 -8.799862e-001 1.369507e-001 6.330838e-001 5.472702e-001 -7.585697e-001
<VARIANCE> 25
 3.141618e+000 2.100997e+001 9.632391e+000 6.975868e+000 2.942095e+001 1.754597e+001 2.336472e+001 2.664745e+001 1.900427e+001 1.014326e+001 3.510025e+001 8.756744e+000 2.146691e+000 3.657815e+000 4.083168e+000 3.028304e+000 3.715700e+000 3.849827e+000 2.293111e+000 1.855406e+000 2.349563e+000 2.436075e+000 2.402370e+000 1.271061e+000 1.981549e+000
<GCONST> 9.024329e+001
<STATE> 4
<MEAN> 25
 9.704459e-002 3.665412e+000 2.870601e+000 9.317503e+000 6.314381e+000 3.619002e+000 1.325422e+000 -5.946025e-001 -1.098659e-001 2.561742e+000 -2.761988e+000 -7.168007e-001 -1.050992e+000 4.438343e-001 7.308164e-001 -5.156466e-001 -6.020926e-001 2.016037e+000 4.317780e-001 9.997388e-001 1.284709e+000 1.104414e+000 -1.098665e-001 6.427990e-001 -1.453138e+000
<VARIANCE> 25
 1.730597e+001 7.930697e+001 2.386343e+001 2.884124e+001 5.541396e+001 3.732483e+001 1.127916e+001 2.212221e+001 2.464093e+001 2.584841e+001 2.425793e+001 1.383305e+001 2.832808e+000 1.755933e+001 3.131464e+000 5.299672e+000 3.913821e+000 6.040923e+000 1.957165e+000 1.347629e+000 3.324761e+000 3.884572e+000 6.755991e+000 3.103963e+000 1.870965e+001
<GCONST> 1.045114e+002
<TRANSP> 5
 0.000000e+000 1.000000e+000 0.000000e+000 0.000000e+000 0.000000e+000
 0.000000e+000 6.725059e-001 3.274942e-001 0.000000e+000 0.000000e+000
 0.000000e+000 0.000000e+000 7.771528e-001 2.228472e-001 0.000000e+000
 0.000000e+000 0.000000e+000 0.000000e+000 7.499124e-001 2.500877e-001
 0.000000e+000 0.000000e+000 0.000000e+000 0.000000e+000 0.000000e+000
<ENDHMM>
~h "k"
<BEGINHMM>
<NUMSTATES> 5
<STATE> 2
<MEAN> 25
 -5.730959e+000 -5.185663e+000 -3.088263e-001 -2.031895e+000 -5.181046e+000 -2.604212e-001 3.607568e-001 2.373099e+000 -2.417803e+000 1.884555e+000 -8.517500e-001 2.114815e+000 1.146097e+000 -3.393556e+000 2.203193e+000 -1.610970e+000 -1.101390e-001 6.094031e-001 -5.301818e-002 1.320948e+000 -8.567508e-001 -1.105228e+000 1.693399e+000 -1.292061e+000 3.836567e+000
<VARIANCE> 25
 1.933251e+001 1.060564e+002 8.775813e+001 3.772641e+001 4.195417e+001 2.422633e+001 3.919822e+001 4.233401e+001 3.910981e+001 2.562096e+001 2.344829e+001 1.532481e+001 1.736243e+000 8.332570e+000 5.900577e+000 6.872859e+000 3.700151e+000 3.561908e+000 3.991815e+000 2.589458e+000 5.137761e+000 1.561460e+000 5.410323e+000 2.082629e+000 6.015727e+000
<GCONST> 1.063974e+002
<STATE> 3
<MEAN> 25
 -1.468927e+000 -8.645475e+000 8.509702e+000 -6.498491e+000 -2.391843e+000 4.971942e+000 -1.868284e-001 4.332838e+000 -5.648339e+000 -2.086221e+000 5.384231e+000 -2.968424e+000 1.976575e+000 1.398709e+000 1.324461e+000 1.384456e+000 2.025081e+000 -1.597106e+000 -3.047546e-002 -1.352659e+000 3.023410e-001 -8.415011e-001 9.378531e-001 -5.895540e-001 2.870938e+000
<VARIANCE> 25
 1.000384e+001 3.981167e+001 5.719858e+001 7.923309e+001 2.662876e+001 3.761517e+001 2.954235e+001 3.934358e+001 4.723056e+001 1.758869e+001 5.570886e+001 1.758752e+001 9.789213e-001 9.973681e+000 5.332448e+000 6.659151e+000 6.504765e+000 5.714571e+000 6.185233e+000 4.199275e+000 2.788094e+000 4.738352e+000 4.450131e+000 3.814320e+000 5.955261e+000
<GCONST> 1.078483e+002
<STATE> 4
<MEAN> 25
 2.274102e+000 -2.239778e+000 7.864418e+000 4.319533e+000 5.176261e+000 -9.823192e+000 2.608278e-001 -4.298152e-001 -3.977414e+000 -5.013294e+000 3.029429e+000 -8.261039e-001 8.161001e-001 7.405193e-001 -1.122365e+000 1.131730e+000 7.104684e-001 -2.474527e+000 -3.282149e-001 -1.334977e+000 5.105406e-001 -1.424263e-001 -1.233785e-001 5.417354e-001 7.514141e-001
<VARIANCE> 25
 5.811769e+000 1.144807e+001 4.417516e+001 6.059258e+001 3.841560e+001 4.742313e+001 5.994322e+001 3.677162e+001 2.096533e+001 4.270402e+001 3.020307e+001 2.785768e+001 8.323495e-001 2.979385e+000 2.096726e+000 3.310117e+000 7.471882e+000 7.174912e+000 6.686882e+000 2.839688e+000 3.536585e+000 2.329662e+000 2.825785e+000 3.099787e+000 1.120317e+000
<GCONST> 1.009387e+002
<TRANSP> 5
 0.000000e+000 1.000000e+000 0.000000e+000 0.000000e+000 0.000000e+000
 0.000000e+000 7.063823e-001 2.936178e-001 0.000000e+000 0.000000e+000
 0.000000e+000 0.000000e+000 5.049842e-001 4.950158e-001 0.000000e+000
 0.000000e+000 0.000000e+000 0.000000e+000 5.813984e-001 4.186016e-001
 0.000000e+000 0.000000e+000 0.000000e+000 0.000000e+000 0.000000e+000
<ENDHMM>
~h "l"
<BEGINHMM>
<NUMSTATES> 5
<STATE> 2
<MEAN> 25
 6.106905e+000 2.528790e+000 -1.596519e+000 -1.211524e-001 4.534933e-001 -6.570245e+000 4.122845e-001 4.854516e-001 -2.674010e+000 -8.303132e+000 -3.854300e+000 -3.571278e+000 2.008161e-002 4.113710e-002 1.136190e-001 -5.808761e-002 -2.537457e-001 -3.462889e-002 -8.188687e-002 2.720813e-001 1.177111e-001 -3.575191e-002 9.202027e-002 -2.746541e-001 -5.953127e-002
<VARIANCE> 25
 9.399018e+000 3.224357e+001 2.035764e+001 2.660996e+001 3.796423e+001 4.278482e+001 2.472742e+001 3.150604e+001 2.606221e+001 2.862049e+001 5.855078e+001 2.435382e+001 4.365635e-001 1.395015e+000 1.237330e+000 2.423269e+000 3.043198e+000 2.759727e+000 1.441777e+000 2.244478e+000 2.257167e+000 1.326445e+000 4.755033e+000 1.766991e+000 8.637785e-001
<GCONST> 9.286691e+001
<STATE> 3
<MEAN> 25
 5.117073e+000 -2.036154e+000 -5.422549e-001 -4.660130e+000 -6.073233e+000 -6.439221e+000 2.049479e+000 8.317125e-001 -2.350895e+000 -4.992681e+000 2.652583e+000 -1.510738e+000 -1.897065e-001 -6.174050e-001 -2.423181e-002 -2.095851e-001 -1.662897e-001 5.548598e-001 1.344907e-001 -7.958987e-001 3.783258e-001 1.154770e+000 4.322169e-001 7.314577e-001 1.788774e-001
<VARIANCE> 25
 9.978495e+000 2.045247e+001 1.883819e+001 2.188043e+001 3.234483e+001 2.501848e+001 1.607079e+001 3.977914e+001 2.382121e+001 3.815305e+001 3.556293e+001 2.316816e+001 2.145387e-001 1.397904e+000 6.921011e-001 2.130202e+000 2.308649e+000 1.964836e+000 1.770164e+000 3.292527e+000 2.283111e+000 2.726699e+000 3.199205e+000 1.904057e+000 4.866993e-001
<GCONST> 8.934373e+001
<STATE> 4
<MEAN> 25
 9.048532e+000 6.322297e+000 -1.674129e+000 -1.812512e+000 1.545288e+000 -7.378185e+000 -2.277834e-001 1.430261e+000 -1.962846e+000 -4.268001e-001 2.804131e+000 -3.734242e-001 -1.747041e-001 5.710626e-001 1.056230e-001 1.479799e-001 -8.875982e-002 3.224756e-001 1.956527e-001 3.072913e-002 3.248503e-001 5.654333e-001 1.041255e-001 1.087445e-001 -5.107012e-001
<VARIANCE> 25
 3.270764e+001 1.903579e+002 9.412327e+001 3.884513e+001 5.178855e+001 4.054694e+001 6.990834e+001 2.467773e+001 2.576220e+001 5.113843e+001 3.544981e+001 1.202636e+001 3.866648e+000 3.936821e+000 5.643113e+000 4.782840e+000 6.205421e+000 5.086637e+000 4.081932e+000 3.069998e+000 2.123333e+000 3.028636e+000 3.599739e+000 2.170322e+000 3.860721e+000
<GCONST> 1.084952e+002
<TRANSP> 5
 0.000000e+000 1.000000e+000 0.000000e+000 0.000000e+000 0.000000e+000
 0.000000e+000 8.954550e-001 1.045450e-001 0.000000e+000 0.000000e+000
 0.000000e+000 0.000000e+000 7.505012e-001 2.494988e-001 0.000000e+000
 0.000000e+000 0.000000e+000 0.000000e+000 7.545626e-001 2.454374e-001
 0.000000e+000 0.000000e+000 0.000000e+000 0.000000e+000 0.000000e+000
<ENDHMM>
~h "m"
<BEGINHMM>
<NUMSTATES> 5
<STATE> 2
<MEAN> 25
 7.039157e-002 1.249528e+001 5.172511e+000 -2.673875e+000 6.946723e+000 -3.075299e+000 5.731776e+000 1.913359e+000 1.890449e-001 2.211175e+000 -6.377949e-001 -1.778946e+000 7.069978e-001 -4.169663e-001 -1.201058e+000 -7.861243e-001 9.895347e-001 -3.559688e+000 -4.348554e-001 5.495316e-001 6.476834e-001 -1.238899e-001 -3.533314e-002 -6.364897e-001 1.791338e+000
<VARIANCE> 25
 1.027121e+001 2.921462e+001 2.358714e+001 2.321382e+001 4.820574e+001 1.064555e+002 4.889728e+001 2.822948e+001 1.471221e+001 1.090203e+001 2.495150e+001 1.953180e+001 4.807450e-001 1.158893e+000 1.835623e+000 7.386490e-001 8.402782e+000 9.591121e+000 1.094357e+001 2.790219e+000 1.889311e+000 2.269553e+000 5.556158e+000 2.299235e+000 2.037208e+000
<GCONST> 9.723891e+001
<STATE> 3
<MEAN> 25
 -5.425372e+000 -1.780724e+000 -1.673584e+000 -2.479699e+000 -4.074770e+000 1.432740e+000 -1.378772e+000 -1.527291e+000 -1.454728e-001 5.882147e-001 -1.091629e+000 1.040190e+000 7.360786e-002 -1.136319e-001 1.078070e-001 -7.687926e-002 -8.118408e-002 4.486164e-002 -1.980125e-002 -1.941246e-002 2.472504e-002 -3.995413e-002 6.836750e-002 7.998080e-002 1.497803e-001
<VARIANCE> 25
 1.288209e+001 1.128192e+001 6.916094e+000 1.373853e+001 1.901915e+001 1.568089e+001 8.567087e+000 6.162977e+000 7.302451e+000 9.348096e+000 8.623454e+000 1.220751e+001 6.742104e-001 3.015894e-001 6.071045e-001 1.256922e+000 1.613945e+000 6.244834e-001 1.250827e+000 1.057124e+000 6.607660e-001 7.692567e-001 5.674971e-001 1.268710e+000 4.460776e-001
<GCONST> 7.063577e+001
<STATE> 4
<MEAN> 25
 1.078550e+001 7.382127e-003 2.592868e+000 -3.564457e+000 3.433428e+000 -6.161130e+000 1.190877e+000 2.833429e+000 1.518994e+000 -5.842729e+000 -1.193011e-001 -5.879712e+000 5.578627e-001 -3.709062e-001 -2.388570e-001 1.477472e-001 1.507059e-001 1.386384e-001 6.578515e-002 -3.749503e-001 -1.786985e-001 -4.946073e-001 -4.289856e-001 -7.525102e-002 5.993977e-001
<VARIANCE> 25
 3.023146e+001 4.115300e+001 1.676217e+001 3.441080e+001 6.800307e+001 5.442628e+001 4.448005e+001 4.209814e+001 1.138756e+001 3.818660e+001 4.269678e+001 5.491520e+001 2.659147e+000 3.324323e+000 2.081814e+000 3.628602e+000 7.290788e+000 4.302371e+000 4.001578e+000 5.356770e+000 1.405733e+000 1.599887e+000 4.812005e+000 6.284844e+000 1.147843e+000
<GCONST> 1.040868e+002
<TRANSP> 5
 0.000000e+000 1.000000e+000 0.000000e+000 0.000000e+000 0.000000e+000
 0.000000e+000 7.706597e-001 2.293403e-001 0.000000e+000 0.000000e+000
 0.000000e+000 0.000000e+000 9.504771e-001 4.952287e-002 0.000000e+000
 0.000000e+000 0.000000e+000 0.000000e+000 9.236337e-001 7.636631e-002
 0.000000e+000 0.000000e+000 0.000000e+000 0.000000e+000 0.000000e+000
<ENDHMM>
~h "n"
<BEGINHMM>
<NUMSTATES> 5
<STATE> 2
<MEAN> 25
 5.908046e+000 -4.133173e+000 -5.702171e+000 -5.266520e+000 -4.861902e+000 -3.350654e+000 3.686548e+000 4.193779e+000 -1.344867e+000 -4.261989e+000 1.057040e+001 1.969873e+000 2.838666e-003 2.158336e+000 -8.588616e-002 2.101002e+000 2.586904e+000 6.252691e-001 -1.468807e+000 3.044285e-001 -6.987433e-001 -2.669792e-001 -1.829569e+000 -9.404936e-001 -2.127289e+000
<VARIANCE> 25
 3.984420e+000 1.963439e+001 3.211903e+001 2.739794e+001 2.539390e+001 2.146830e+001 4.678244e+001 7.279478e+001 1.450184e+001 2.393579e+001 3.802867e+001 9.829421e+000 5.457060e-001 2.027271e+000 3.273406e+000 2.948925e+000 3.203152e+000 2.667925e+000 2.691624e+000 5.284182e+000 2.164675e+000 2.482781e+000 7.245678e+000 2.169952e+000 1.428576e+000
<GCONST> 9.525615e+001
<STATE> 3
<MEAN> 25
 4.455399e+000 5.527607e+000 -4.704256e+000 6.374468e+000 6.436853e+000 2.913508e-001 -1.086305e+000 4.004487e+000 7.094052e-002 -3.054030e+000 -5.144168e+000 -3.055088e+000 -5.565317e-001 1.919983e+000 1.067626e+000 3.231997e+000 2.295234e+000 1.246057e+000 -1.025078e+000 -3.253044e-002 9.800667e-001 2.595548e-001 -4.495677e+000 -1.966448e+000 -2.296650e+000
<VARIANCE> 25
 4.543322e+000 1.255278e+001 3.277364e+001 2.369833e+001 2.698756e+001 2.430620e+001 1.934924e+001 2.581122e+001 2.126807e+001 2.009274e+001 5.467249e+001 1.416243e+001 3.493035e-001 1.023399e+000 2.321593e+000 2.154493e+000 3.154650e+000 4.262831e+000 3.706269e+000 5.898911e+000 2.053604e+000 2.225000e+000 5.252691e+000 7.502398e-001 7.600482e-001
<GCONST> 9.093573e+001
<STATE> 4
<MEAN> 25
 3.110469e+000 8.196888e+000 -2.272572e+000 1.193627e+001 6.753501e+000 9.699665e-001 2.202289e+000 3.426833e+000 3.788088e-001 -5.539613e-001 -9.125906e+000 -5.501663e+000 -2.125012e-001 1.384640e-001 1.210553e-001 2.269053e-001 -4.230728e-001 -2.094693e-001 8.414574e-001 -1.157468e-001 -2.691018e-001 6.754549e-001 4.923982e-001 2.652442e-001 -2.061709e-001
<VARIANCE> 25
 2.936892e+000 2.006640e+001 1.181787e+001 1.412557e+001 1.982840e+001 1.694496e+001 3.430161e+001 1.694105e+001 2.782939e+001 3.362419e+001 2.233881e+001 1.120114e+001 2.393603e-001 7.215700e-001 7.146338e-001 1.981174e+000 2.198050e+000 2.493367e+000 2.129320e+000 7.047651e-001 1.559502e+000 1.276453e+000 1.925727e+000 1.344091e+000 6.911614e-001
<GCONST> 8.165543e+001
<TRANSP> 5
 0.000000e+000 1.000000e+000 0.000000e+000 0.000000e+000 0.000000e+000
 0.000000e+000 6.759841e-001 3.240159e-001 0.000000e+000 0.000000e+000
 0.000000e+000 0.000000e+000 5.996422e-001 4.003578e-001 0.000000e+000
 0.000000e+000 0.000000e+000 0.000000e+000 8.337939e-001 1.662060e-001
 0.000000e+000 0.000000e+000 0.000000e+000 0.000000e+000 0.000000e+000
<ENDHMM>
~h "p"
<BEGINHMM>
<NUMSTATES> 5
<STATE> 2
<MEAN> 25
 5.334321e+000 7.468901e-001 8.626063e-001 -4.057923e+000 -1.758068e+000 -4.188210e+000 3.242196e+000 -2.284227e+000 -1.979913e+000 -2.056132e+000 -1.328500e+000 -6.124079e+000 2.638062e-001 4.455729e-001 4.830287e-001 1.886786e-001 -3.496656e-001 -1.415163e-001 -4.222490e-002 -3.838916e-002 -5.293097e-001 -7.160286e-001 -1.342994e-001 -4.018559e-001 -5.238346e-002
<VARIANCE> 25
 8.290038e+000 4.674771e+001 1.329661e+001 1.627910e+001 2.301073e+001 8.914017e+001 4.501305e+001 2.717389e+001 3.086047e+001 2.114603e+001 3.480850e+001 1.812539e+001 7.272888e-001 4.882476e+000 1.389455e+000 1.999675e+000 3.363468e+000 9.959151e+000 4.687482e+000 1.720609e+000 2.037213e+000 1.581794e+000 4.079264e+000 1.008935e+000 1.508680e+000
<GCONST> 9.583197e+001
<STATE> 3
<MEAN> 25
 -3.795545e-001 4.192066e+000 4.653067e+000 -4.709561e-001 -2.743404e+000 4.292161e+000 2.238021e+000 3.072357e-001 -1.210288e+000 -3.387527e-001 -3.357906e+000 -3.340235e+000 -2.969700e+000 2.174321e+000 -3.730951e-001 1.677070e+000 4.227218e-001 1.361457e+000 4.702055e-001 7.667897e-001 7.054535e-001 1.782371e+000 -1.560194e+000 1.827918e+000 -4.997063e+000
<VARIANCE> 25
 2.979608e+001 6.870235e+001 1.860366e+001 3.115463e+001 3.692045e+001 2.360662e+001 5.528522e+001 3.307812e+001 2.427079e+001 4.238090e+001 2.961659e+001 2.230126e+001 1.032856e+000 7.302526e+000 1.927578e+000 3.607687e+000 5.211919e+000 5.784526e+000 5.129955e+000 6.208031e+000 5.978648e+000 2.348548e+000 2.840622e+000 1.791997e+000 3.023409e+000
<GCONST> 1.038467e+002
<STATE> 4
<MEAN> 25
 -8.136177e+000 5.181454e+000 -1.947840e-001 1.604776e-001 -3.163470e+000 4.185400e+000 4.277732e-001 -8.338677e-001 -2.213436e+000 1.139331e+000 -6.217339e+000 4.556867e-001 9.623822e-002 -1.206552e+000 6.903455e-002 -8.427549e-001 -1.124880e-001 2.473347e-001 -5.538332e-001 -2.644911e-001 3.097274e-002 2.968522e-001 5.961414e-001 -5.612496e-002 8.708092e-001
<VARIANCE> 25
 9.217666e+000 3.887542e+001 1.357461e+001 1.257917e+001 1.010039e+001 2.984679e+001 2.234993e+001 1.774941e+001 1.427996e+001 1.027874e+001 1.269866e+001 1.190435e+001 1.485439e+000 4.701967e+000 2.502430e+000 2.328367e+000 2.135051e+000 2.997396e+000 1.733416e+000 2.274005e+000 1.606081e+000 1.592582e+000 1.622069e+000 9.326322e-001 5.498628e+000
<GCONST> 8.865942e+001
<TRANSP> 5
 0.000000e+000 1.000000e+000 0.000000e+000 0.000000e+000 0.000000e+000
 0.000000e+000 8.856649e-001 1.143351e-001 0.000000e+000 0.000000e+000
 0.000000e+000 0.000000e+000 7.287860e-001 2.712140e-001 0.000000e+000
 0.000000e+000 0.000000e+000 0.000000e+000 8.804774e-001 1.195226e-001
 0.000000e+000 0.000000e+000 0.000000e+000 0.000000e+000 0.000000e+000
<ENDHMM>
~h "r"
<BEGINHMM>
<NUMSTATES> 5
<STATE> 2
<MEAN> 25
 6.338258e+000 1.586335e+000 -8.128196e+000 -1.473867e+000 2.958898e+000 1.873702e+000 -5.291955e-001 -1.648274e+000 2.236340e-001 -3.519352e+000 -7.505554e-002 4.508106e+000 -5.602064e-001 1.271523e+000 -7.033924e-002 6.205709e-001 4.111848e-001 8.558208e-001 8.173059e-001 3.915100e-001 -7.811320e-001 4.139419e-001 -3.035007e-001 1.367365e-002 -1.620655e+000
<VARIANCE> 25
 1.215807e+001 3.540609e+001 3.507567e+001 2.500743e+001 2.419425e+001 3.232951e+001 3.160478e+001 4.111142e+001 2.441671e+001 4.237320e+001 2.188864e+001 3.089806e+001 3.037188e+000 3.322243e+000 3.500591e+000 2.031868e+000 3.488746e+000 3.562567e+000 2.978081e+000 4.260318e+000 2.638699e+000 3.908907e+000 3.177147e+000 2.724538e+000 3.795362e+000
<GCONST> 1.012383e+002
<STATE> 3
<MEAN> 25
 -4.158412e-001 3.088250e+000 -4.021677e+000 2.633895e+000 2.722721e+000 4.871797e+000 3.290347e+000 3.448900e+000 -3.382819e+000 4.817569e-002 1.909223e+000 3.356190e+000 -1.532077e+000 -1.374452e-001 4.785052e-002 3.023742e-001 -4.426361e-001 -2.642014e-001 6.034787e-002 1.638662e-001 -6.643654e-002 1.116317e+000 2.848974e-001 -2.134911e-001 -1.455106e+000
<VARIANCE> 25
 2.737683e+001 5.342156e+001 3.590461e+001 2.851774e+001 4.016449e+001 3.246053e+001 2.952431e+001 3.937396e+001 2.192755e+001 3.018861e+001 2.861772e+001 2.228635e+001 3.308595e+000 4.541401e+000 3.343643e+000 4.249707e+000 4.648917e+000 3.710388e+000 6.432386e+000 4.920476e+000 2.517245e+000 4.512948e+000 3.224685e+000 3.351557e+000 3.345559e+000
<GCONST> 1.050350e+002
<STATE> 4
<MEAN> 25
 -5.531541e+000 6.190783e+000 -6.409554e+000 1.276016e+000 -2.445298e-001 2.906114e+000 1.205141e+000 1.905428e-001 -7.082021e-001 3.889694e+000 -3.228705e+000 4.868775e+000 -2.982515e-001 2.056125e-001 5.731333e-002 -4.495200e-002 -1.739640e-001 -4.653191e-001 -2.363081e-001 -3.452570e-001 4.214257e-002 4.738245e-003 -6.300679e-001 -1.785849e-001 -2.774108e-001
<VARIANCE> 25
 1.661694e+001 1.774085e+001 3.232146e+001 1.408851e+001 2.917403e+001 2.251157e+001 3.714016e+001 3.365820e+001 1.819643e+001 2.176814e+001 2.094861e+001 2.645355e+001 4.087177e-001 1.265389e+000 1.837316e+000 1.686692e+000 1.581669e+000 2.105119e+000 1.706131e+000 2.874697e+000 2.053510e+000 1.343557e+000 1.939446e+000 2.406878e+000 7.046387e-001
<GCONST> 8.914200e+001
<TRANSP> 5
 0.000000e+000 1.000000e+000 0.000000e+000 0.000000e+000 0.000000e+000
 0.000000e+000 7.313038e-001 2.686962e-001 0.000000e+000 0.000000e+000
 0.000000e+000 0.000000e+000 6.749859e-001 3.250140e-001 0.000000e+000
 0.000000e+000 0.000000e+000 0.000000e+000 8.092182e-001 1.907818e-001
 0.000000e+000 0.000000e+000 0.000000e+000 0.000000e+000 0.000000e+000
<ENDHMM>
~h "s"
<BEGINHMM>
<NUMSTATES> 5
<STATE> 2
<MEAN> 25
 -1.159022e+001 -1.164469e+001 1.910786e+001 -1.690653e+001 -2.237194e+000 1.065692e+001 2.154427e-001 1.382577e+000 2.038310e+000 4.783573e+000 1.646666e-001 -1.169322e+000 -8.854439e-001 -8.671921e-001 1.109738e+000 -8.340415e-001 -2.084271e-001 4.567643e-001 -2.749469e-001 5.407790e-002 2.061669e-002 -1.454202e-002 -3.144841e-001 -7.558969e-002 3.405669e-001
<VARIANCE> 25
 5.169179e+001 3.872926e+001 7.546421e+001 4.302975e+001 2.633357e+001 2.081856e+001 2.036890e+001 3.659290e+001 1.602875e+001 2.362302e+001 1.553058e+001 1.695213e+001 6.402549e+000 4.204978e+000 1.208973e+001 6.030225e+000 2.437909e+000 4.321370e+000 2.185442e+000 2.669765e+000 1.756199e+000 1.598353e+000 9.278440e-001 1.080825e+000 6.656107e-001
<GCONST> 9.839327e+001
<STATE> 3
<MEAN> 25
 -4.230789e+000 -7.259418e+000 1.064975e+001 -1.100362e+001 -9.223880e-001 6.342412e+000 -1.464547e-001 -3.659571e+000 -8.155594e-003 3.697307e+000 -3.427278e-001 -2.520773e-001 3.746963e+000 3.257668e+000 -4.339998e+000 2.686485e+000 6.827813e-001 -2.632154e+000 4.275408e-001 -2.160606e+000 -1.100414e+000 -1.155335e+000 4.351344e-001 1.037781e+000 3.956420e-002
<VARIANCE> 25
 3.819899e+001 6.323769e+001 7.075185e+001 5.056855e+001 2.673391e+001 1.874725e+001 4.038591e+001 3.886716e+001 1.293684e+001 2.321118e+001 2.029993e+001 1.400786e+001 2.132741e+000 2.654007e+000 3.361521e+000 3.855638e+000 2.500406e+000 3.484683e+000 3.035867e+000 4.359914e+000 1.854051e+000 2.925756e+000 2.062011e+000 1.212941e+000 1.689214e+000
<GCONST> 9.902481e+001
<STATE> 4
<MEAN> 25
 5.940702e+000 -3.099997e+000 -3.325934e+000 -2.978805e+000 -2.521293e+000 -4.860053e+000 -1.416177e+000 -9.506886e+000 -3.184677e+000 -2.120808e+000 5.455560e+000 5.011246e+000 8.358104e-001 -2.580513e-001 -1.497362e+000 3.151741e-001 -8.825296e-001 -8.941498e-001 -6.680059e-002 3.449292e-001 -8.759931e-002 -7.574777e-001 1.027983e+000 3.959745e-001 2.004012e-001
<VARIANCE> 25
 8.065934e+000 1.287563e+001 3.202617e+001 1.948732e+001 2.703215e+001 2.215074e+001 5.000730e+001 2.193592e+001 1.742418e+001 1.498802e+001 2.007946e+001 1.283424e+001 1.019926e+000 1.540225e+000 1.964566e+000 1.962514e+000 2.136935e+000 4.952724e+000 1.345477e+000 3.063725e+000 2.027721e+000 3.060475e+000 1.272753e+000 1.268332e+000 4.845548e-001
<GCONST> 8.869504e+001
<TRANSP> 5
 0.000000e+000 1.000000e+000 0.000000e+000 0.000000e+000 0.000000e+000
 0.000000e+000 8.509629e-001 1.490371e-001 0.000000e+000 0.000000e+000
 0.000000e+000 0.000000e+000 6.853188e-001 3.146812e-001 0.000000e+000
 0.000000e+000 0.000000e+000 0.000000e+000 7.926028e-001 2.073971e-001
 0.000000e+000 0.000000e+000 0.000000e+000 0.000000e+000 0.000000e+000
<ENDHMM>
~h "t"
<BEGINHMM>
<NUMSTATES> 5
<STATE> 2
<MEAN> 25
 6.633042e-001 -6.561759e+000 3.517345e+000 -4.673664e+000 -1.045818e+000 -1.316582e+000 -2.493504e+000 -2.744707e+000 -1.178502e+000 -4.252658e-001 6.864158e+000 -6.267280e-002 9.937350e-001 1.839860e+000 -1.907173e+000 -4.303132e-002 8.092118e-001 -7.604100e-001 2.429029e-001 -2.200558e+000 -1.880151e-001 1.100768e-001 -1.139628e+000 1.669742e-001 -2.333677e-002
<VARIANCE> 25
 2.925752e+001 5.140682e+001 6.311052e+001 4.901229e+001 7.206132e+001 1.402202e+001 3.207100e+001 8.447582e+001 4.646897e+001 1.881473e+001 5.632289e+001 2.538779e+001 2.511024e+000 8.362734e+000 3.875576e+000 1.740117e+000 7.011817e+000 8.197420e-001 1.393291e+000 1.357481e+001 1.736165e+000 2.337762e+000 5.099033e+000 1.462120e+000 3.746372e-001
<GCONST> 1.022310e+002
<STATE> 3
<MEAN> 25
 1.808867e+000 -7.398187e+000 2.356585e-001 -1.111105e+001 -5.909491e+000 -2.217044e+000 -8.563118e-001 -1.848474e+000 3.248679e+000 2.445302e+000 8.579558e+000 2.314220e+000 1.019679e-002 4.841824e-001 -4.340180e-001 1.553984e-001 2.584888e-001 -2.084557e-002 3.745537e-001 -7.169582e-002 -1.185553e-001 -1.272300e-001 -6.603876e-001 5.178807e-001 -5.150803e-001
<VARIANCE> 25
 8.335093e+000 1.383442e+001 1.041853e+001 2.676456e+001 1.331602e+001 1.204900e+001 2.077711e+001 2.361331e+001 3.564407e+001 2.326169e+001 3.166409e+001 1.321190e+001 2.668492e-001 1.212906e+000 1.169665e+000 6.869764e-001 1.887726e+000 6.266376e-001 8.734777e-001 8.277909e-001 1.270087e+000 1.450569e+000 3.090821e+000 1.528761e+000 8.195090e-001
<GCONST> 8.081734e+001
<STATE> 4
<MEAN> 25
 1.713263e+000 -7.737931e+000 2.807444e+000 -6.132405e+000 -3.644279e+000 -2.869130e+000 -4.172397e+000 -2.252953e+000 5.158724e+000 7.503429e-001 3.987324e+000 2.400445e-001 -1.919148e-002 4.240164e-001 -2.680581e-001 3.291347e-001 2.084547e-001 2.531805e-001 1.594982e-001 1.228433e-001 -2.495777e-001 -1.337408e-001 -5.034588e-001 1.868698e-001 -7.267504e-001
<VARIANCE> 25
 6.613218e+000 9.247056e+000 2.310489e+001 1.373610e+001 5.412477e+000 9.086411e+000 1.821136e+001 1.235521e+001 2.029822e+001 1.343302e+001 1.317145e+001 1.243191e+001 2.640479e-001 1.154543e+000 6.486125e-001 8.297368e-001 7.443867e-001 6.183032e-001 7.293260e-001 8.308783e-001 1.156512e+000 8.232533e-001 1.344694e+000 9.668953e-001 1.508674e+000
<GCONST> 7.337884e+001
<TRANSP> 5
 0.000000e+000 1.000000e+000 0.000000e+000 0.000000e+000 0.000000e+000
 0.000000e+000 3.054721e-001 6.945279e-001 0.000000e+000 0.000000e+000
 0.000000e+000 0.000000e+000 6.140177e-001 3.859823e-001 0.000000e+000
 0.000000e+000 0.000000e+000 0.000000e+000 7.892849e-001 2.107151e-001
 0.000000e+000 0.000000e+000 0.000000e+000 0.000000e+000 0.000000e+000
<ENDHMM>
~h "u"
<BEGINHMM>
<NUMSTATES> 5
<STATE> 2
<MEAN> 25
 -1.140577e-001 -6.210132e+000 6.225169e+000 -4.925388e+000 -1.571712e+000 3.673084e+000 -1.114249e+000 -1.703019e+000 8.147585e-002 2.874176e+000 1.769343e+000 -1.231593e+000 1.561170e+000 -2.024968e+000 8.729584e-001 -1.254066e+000 -3.298175e-001 -7.340805e-001 -7.242466e-001 -9.074347e-001 9.529482e-002 -1.433994e+000 2.181909e+000 4.527833e-001 3.958852e+000
<VARIANCE> 25
 2.730809e+001 2.689470e+001 4.434878e+001 2.262653e+001 5.092223e+001 3.831910e+001 5.915791e+001 4.093055e+001 1.011855e+001 3.805398e+001 1.934262e+001 2.305915e+001 5.302514e+000 7.702828e+000 5.677463e+000 3.955718e+000 3.325219e+000 6.458510e+000 4.191072e+000 4.492285e+000 1.948032e+000 2.449131e+000 5.909269e+000 2.266590e+000 9.853354e+000
<GCONST> 1.061482e+002
<STATE> 3
<MEAN> 25
 3.112051e+000 -5.440763e+000 3.304660e+000 -4.448278e+000 -2.383255e+000 -7.694110e-001 -1.995448e-001 -3.486110e+000 -6.405762e-001 -2.839077e+000 3.149109e+000 4.890292e-001 5.456451e-001 -1.181249e+000 -9.355379e-001 -6.544597e-001 -9.220248e-001 -9.703565e-001 3.265858e-002 1.498221e-001 2.514540e-001 -9.461966e-001 1.456451e+000 7.492299e-001 1.403872e+000
<VARIANCE> 25
 4.237990e+001 3.990237e+001 2.508425e+001 3.619332e+001 2.684702e+001 2.927105e+001 1.738140e+001 3.080646e+001 1.716140e+001 3.561722e+001 3.756310e+001 2.147953e+001 1.706004e+000 2.446426e+000 2.047730e+000 1.516417e+000 2.869535e+000 4.033582e+000 3.533323e+000 2.609161e+000 2.153008e+000 2.559769e+000 4.052268e+000 1.704675e+000 2.457860e+000
<GCONST> 9.802030e+001
<STATE> 4
<MEAN> 25
 3.830183e+000 -9.637336e+000 1.361636e+000 -5.414851e+000 -4.687597e+000 -1.999781e+000 -2.225261e+000 -2.643531e+000 3.049716e+000 -9.852952e-001 5.754338e+000 4.346511e-001 1.892309e-001 -4.252201e-001 -4.642622e-001 -5.535265e-002 -4.129416e-001 -7.747250e-002 -3.945234e-001 3.245645e-001 5.439257e-001 1.323505e-001 5.267279e-001 -1.558540e-001 1.203840e-001
<VARIANCE> 25
 3.922257e+001 2.546648e+001 1.782981e+001 1.435913e+001 9.941108e+000 2.009560e+001 2.454974e+001 3.542516e+001 2.808113e+001 2.679012e+001 3.489808e+001 1.812378e+001 5.096216e-001 9.205018e-001 9.963011e-001 6.090343e-001 1.329934e+000 1.864926e+000 1.581896e+000 9.617218e-001 1.220410e+000 1.558593e+000 1.579589e+000 1.221188e+000 5.856907e-001
<GCONST> 8.437332e+001
<TRANSP> 5
 0.000000e+000 1.000000e+000 0.000000e+000 0.000000e+000 0.000000e+000
 0.000000e+000 3.840022e-001 6.159978e-001 0.000000e+000 0.000000e+000
 0.000000e+000 0.000000e+000 2.589627e-001 7.410374e-001 0.000000e+000
 0.000000e+000 0.000000e+000 0.000000e+000 6.368448e-001 3.631552e-001
 0.000000e+000 0.000000e+000 0.000000e+000 0.000000e+000 0.000000e+000
<ENDHMM>
~h "sp"
<BEGINHMM>
<NUMSTATES> 3
<STATE> 2
~s "silst"
<TRANSP> 3
 0.000000e+000 1.542589e-001 8.457411e-001
 0.000000e+000 5.620804e-001 4.379195e-001
 0.000000e+000 0.000000e+000 0.000000e+000
<ENDHMM>
~h "sil"
<BEGINHMM>
<NUMSTATES> 5
<STATE> 2
<MEAN> 25
 -7.637732e+000 3.305718e+000 4.337735e-001 8.994759e-001 -9.651912e-001 7.779691e+000 8.553832e-001 9.042150e-001 1.706963e+000 3.117301e+000 -2.811600e+000 2.009069e+000 -1.319452e-001 -3.316477e-002 7.266650e-002 -2.375313e-001 -2.592204e-001 -1.699544e-001 1.420181e-001 9.707065e-002 9.928290e-002 9.172555e-002 8.715640e-003 -4.494090e-002 4.923211e-002
<VARIANCE> 25
 1.672628e+001 2.870519e+001 3.649422e+001 3.295623e+001 2.540646e+001 2.843541e+001 2.524731e+001 2.231901e+001 1.873346e+001 2.184840e+001 1.248929e+001 1.374437e+001 4.204009e-001 8.637899e-001 1.042279e+000 1.397402e+000 1.429927e+000 1.353376e+000 1.478956e+000 1.368843e+000 1.089220e+000 1.042262e+000 1.046205e+000 1.046371e+000 9.855934e-001
<GCONST> 8.422148e+001
<STATE> 3
~s "silst"
<STATE> 4
<MEAN> 25
 -2.351212e+000 5.315044e+000 -4.605663e-001 -5.586708e-001 -2.442787e+000 1.513952e+000 2.965839e-001 -2.008689e-001 1.609696e+000 3.359690e+000 -2.773181e+000 3.958204e-001 1.051904e-002 1.178127e-001 2.197066e-001 -9.379388e-002 -1.601877e-001 -1.049217e-001 9.266999e-002 -4.454257e-002 -5.006883e-003 -1.761886e-002 -7.997399e-003 -3.281742e-003 9.373563e-002
<VARIANCE> 25
 2.869158e+001 1.028762e+002 4.737555e+001 5.321922e+001 3.112622e+001 3.914302e+001 4.330292e+001 4.065559e+001 2.065117e+001 2.646403e+001 2.367851e+001 1.539755e+001 1.020711e+000 1.301390e+000 1.848107e+000 1.957474e+000 1.639600e+000 1.701154e+000 1.795096e+000 1.731921e+000 1.578498e+000 1.321368e+000 9.562626e-001 1.234393e+000 1.327520e+000
<GCONST> 9.346465e+001
<TRANSP> 5
 0.000000e+000 1.000000e+000 0.000000e+000 0.000000e+000 0.000000e+000
 0.000000e+000 7.107369e-001 1.101558e-001 1.791073e-001 0.000000e+000
 0.000000e+000 0.000000e+000 6.500393e-001 3.499608e-001 0.000000e+000
 0.000000e+000 5.012124e-002 0.000000e+000 5.587616e-001 3.911172e-001
 0.000000e+000 0.000000e+000 0.000000e+000 0.000000e+000 0.000000e+000
<ENDHMM>
