~o
<STREAMINFO> 1 25
<VECSIZE> 25<NULLD><MFCC_D_N_Z_0><DIAGC>
~s "silst"
<MEAN> 25
 -3.217426e+000 1.066525e+000 -7.405204e-001 -5.317448e-001 1.701995e+000 3.026294e+000 3.847947e+000 9.024294e-001 1.028860e+000 3.900858e+000 -2.257583e+000 6.150803e-001 1.103889e+000 -6.232488e-001 4.835118e-001 -1.071739e+000 5.351256e-001 -1.991555e+000 1.604912e-001 -8.252316e-003 -2.452698e-001 -3.547976e-001 -1.571953e-001 -6.759171e-001 2.758787e+000
<VARIANCE> 25
 4.003189e+001 7.124875e+001 5.687082e+001 8.368899e+001 5.079378e+001 6.440215e+001 3.997252e+001 3.794703e+001 3.191401e+001 3.426624e+001 2.260098e+001 2.235905e+001 6.788743e+000 1.453204e+001 5.877866e+000 8.841683e+000 4.867089e+000 5.700767e+000 5.947331e+000 6.249474e+000 4.023191e+000 3.713723e+000 3.783482e+000 2.416762e+000 1.399014e+001
<GCONST> 1.140468e+002
~h "a"
<BEGINHMM>
<NUMSTATES> 5
<STATE> 2
<MEAN> 25
 3.737833e+000 -4.743771e+000 -2.417222e+000 -5.921131e+000 -5.412180e+000 -3.639169e+000 3.961797e+000 7.969857e-001 2.414773e+000 -1.904722e+000 4.543420e+000 3.991501e+000 2.654306e-001 -8.862537e-001 -4.427762e-001 -5.670450e-001 -1.025064e+000 5.863298e-001 2.367705e-001 4.809090e-001 8.225470e-001 -1.815426e-001 1.072912e+000 1.114453e-001 4.529580e-001
<VARIANCE> 25
 8.312195e+000 3.660920e+001 2.414431e+001 2.845358e+001 3.301705e+001 2.412774e+001 4.486480e+001 2.509072e+001 3.433223e+001 2.681948e+001 3.022499e+001 1.528798e+001 6.674861e-001 1.594458e+000 1.464812e+000 3.295743e+000 4.114590e+000 2.735499e+000 3.168673e+000 2.560174e+000 2.018315e+000 2.009571e+000 4.209356e+000 1.932182e+000 1.989233e+000
<GCONST> 9.519955e+001
<STATE> 3
<MEAN> 25
 5.384205e+000 -5.474227e+000 -6.382461e+000 -5.192966e+000 -5.853400e+000 -2.258541e+000 4.208360e+000 -4.551855e-002 2.736137e+000 -6.317583e-001 6.657592e+000 3.221932e+000 -6.094540e-002 3.848408e-001 -1.825112e-001 6.014845e-001 8.645010e-001 3.650022e-002 -3.379284e-001 -6.317279e-002 -4.247933e-001 1.707365e-001 -4.466974e-002 9.609710e-002 -5.088856e-001
<VARIANCE> 25
 9.331906e+000 2.444002e+001 2.133972e+001 2.319865e+001 2.937699e+001 3.111875e+001 4.764462e+001 3.322077e+001 2.541631e+001 3.657198e+001 2.015077e+001 1.418380e+001 5.103860e-001 1.099671e+000 1.339064e+000 1.994899e+000 2.104175e+000 2.995365e+000 3.214576e+000 9.457716e-001 1.392809e+000 1.732066e+000 1.395858e+000 1.645653e+000 8.228688e-001
<GCONST> 8.913148e+001
<STATE> 4
<MEAN> 25
 2.623345e+000 7.136459e-001 -6.473714e+000 2.121379e-001 1.576253e+000 2.057002e+000 -3.039272e-002 -7.641413e-002 8.158692e-001 1.984441e+000 2.713942e+000 3.680167e+000 -9.314405e-002 6.182742e-001 -1.946075e-001 4.220960e-001 5.595282e-001 5.005949e-002 -8.955675e-002 1.244784e-001 -3.277728e-001 2.518159e-003 -2.976658e-001 -1.262610e-001 -6.329742e-001
<VARIANCE> 25
 1.395200e+001 7.081911e+001 2.505111e+001 3.344997e+001 4.379790e+001 4.434984e+001 4.895475e+001 3.473751e+001 1.627432e+001 2.211174e+001 3.535317e+001 1.282309e+001 5.547605e-001 1.424349e+000 1.725635e+000 2.000065e+000 1.685326e+000 1.966934e+000 1.760290e+000 1.566502e+000 1.590528e+000 1.668738e+000 2.308921e+000 1.116057e+000 5.794754e-001
<GCONST> 9.117950e+001
<TRANSP> 5
 0.000000e+000 1.000000e+000 0.000000e+000 0.000000e+000 0.000000e+000
 0.000000e+000 6.979027e-001 3.020973e-001 0.000000e+000 0.000000e+000
 0.000000e+000 0.000000e+000 6.626009e-001 3.373991e-001 0.000000e+000
 0.000000e+000 0.000000e+000 0.000000e+000 6.769275e-001 3.230725e-001
 0.000000e+000 0.000000e+000 0.000000e+000 0.000000e+000 0.000000e+000
<ENDHMM>
~h "d"
<BEGINHMM>
<NUMSTATES> 5
<STATE> 2
<MEAN> 25
 2.901871e+000 6.129270e-001 -2.762146e+000 7.053633e+000 9.288235e+000 -6.061867e+000 5.879753e+000 1.795264e+000 -4.483113e+000 -2.002943e+000 -1.432523e+000 -9.710769e-001 1.171807e+000 -2.156284e+000 -9.419395e-001 -1.831859e+000 5.615576e-001 -4.368552e+000 -1.944961e+000 -1.083717e+000 -1.945422e+000 -2.525275e+000 1.524597e+000 3.336843e-001 3.699396e+000
<VARIANCE> 25
 1.792025e+001 4.546748e+001 2.097592e+001 2.363922e+001 4.768308e+001 9.669193e+001 5.650354e+001 4.342084e+001 2.339719e+001 3.149980e+001 1.674805e+001 1.586660e+000 4.535874e-001 4.678573e+000 3.142190e+000 3.965876e-001 6.125001e+000 7.961009e+000 8.355020e+000 6.384955e+000 2.181115e+000 1.176202e+000 2.782726e+000 9.045782e-001 3.979336e+000
<GCONST> 9.706261e+001
<STATE> 3
<MEAN> 25
 7.113270e+000 -5.754971e+000 -1.252200e+000 -2.635859e+000 -7.905843e-001 -7.561383e+000 -5.983331e+000 -2.914938e+000 -2.576669e+000 -7.232029e+000 6.340373e+000 -9.380346e-002 5.141858e-001 -4.622679e-001 -7.319454e-001 -1.102077e+000 -2.146491e+000 9.156643e-001 -3.780270e-001 8.950811e-002 9.754745e-001 4.371408e-001 1.122387e+000 4.685399e-001 -9.827859e-002
<VARIANCE> 25
 1.185462e+001 1.377745e+001 1.239907e+001 8.813519e+000 3.628986e+001 1.362636e+001 3.386193e+000 1.864741e+001 6.694491e+000 8.349361e+000 2.729172e+001 8.108168e+000 1.434695e-001 9.836142e-001 7.649176e-001 1.836203e+000 2.683564e+000 1.467375e+000 3.325457e+000 1.505600e+000 6.928318e-001 8.508680e-001 1.351884e+000 7.500812e-001 2.290616e-001
<GCONST> 7.488314e+001
<STATE> 4
<MEAN> 25
 6.086219e+000 -9.136884e-001 -7.392506e+000 -4.989400e+000 -6.019233e+000 -7.079999e+000 -2.463196e+000 3.360508e-001 -3.169459e-001 -2.549095e+000 7.449109e+000 5.507084e+000 -7.199024e-001 1.296101e+000 -2.695163e-001 -1.459158e-001 -5.400994e-001 7.870871e-001 7.032261e-001 1.282477e+000 4.903911e-001 1.382059e+000 6.914720e-002 6.808504e-001 -2.027512e+000
<VARIANCE> 25
 1.050419e+001 2.088245e+001 1.291555e+001 9.743529e+000 1.717929e+001 2.968831e+001 3.464021e+001 2.741249e+001 7.597948e+000 2.075425e+001 1.805959e+001 1.287966e+001 1.782769e+000 5.571175e-001 2.257922e+000 9.598322e-001 2.412123e+000 4.853695e+000 3.988701e+000 2.582483e+000 1.214602e+000 1.029324e+000 1.873310e+000 2.122770e+000 1.627010e+000
<GCONST> 8.742267e+001
<TRANSP> 5
 0.000000e+000 1.000000e+000 0.000000e+000 0.000000e+000 0.000000e+000
 0.000000e+000 6.863641e-001 3.136359e-001 0.000000e+000 0.000000e+000
 0.000000e+000 0.000000e+000 7.873731e-001 2.126270e-001 0.000000e+000
 0.000000e+000 0.000000e+000 0.000000e+000 8.652096e-001 1.347904e-001
 0.000000e+000 0.000000e+000 0.000000e+000 0.000000e+000 0.000000e+000
<ENDHMM>
~h "e"
<BEGINHMM>
<NUMSTATES> 5
<STATE> 2
<MEAN> 25
 4.130560e+000 -1.903591e+000 6.350230e-001 -1.848325e+000 -2.261483e+000 -2.125787e+000 -4.422851e-002 -3.474718e+000 -4.225279e+000 -1.157161e+000 6.791071e+000 1.764229e-001 -3.937151e-001 1.229744e-001 5.314608e-002 -3.098402e-001 -3.153700e-001 4.021927e-001 4.410880e-001 4.019934e-001 2.905938e-001 -1.380433e-001 -5.130802e-001 2.928892e-001 -3.935470e-001
<VARIANCE> 25
 4.168749e+001 3.756158e+001 8.959711e+001 3.262113e+001 1.953051e+001 6.758546e+001 4.054603e+001 2.273762e+001 2.665953e+001 3.330910e+001 3.275968e+001 2.470511e+001 1.636602e+000 9.046860e-001 1.529946e+000 2.270344e+000 2.386225e+000 2.418644e+000 4.231006e+000 3.411875e+000 8.347985e-001 3.846704e+000 1.316566e+000 1.616152e+000 5.522240e-001
<GCONST> 9.616857e+001
<STATE> 3
<MEAN> 25
 1.888341e+000 -2.442689e+000 1.962943e+000 -8.185006e-001 -3.134257e+000 -1.150168e+000 4.096279e-002 -2.770347e+000 -3.048487e+000 -2.125478e+000 4.209784e+000 6.453882e-001 -6.031658e-001 -1.935458e-001 1.108181e-001 -2.554973e-001 2.749254e-001 5.240145e-001 4.012762e-001 8.911853e-001 4.654028e-001 -3.251791e-001 -1.203055e+000 1.589042e-001 -4.232859e-001
<VARIANCE> 25
 6.562672e+001 3.302490e+001 8.442161e+001 5.038087e+001 2.095808e+001 4.472451e+001 3.282558e+001 1.873683e+001 2.012008e+001 3.118611e+001 3.379335e+001 1.832615e+001 1.142666e+000 1.204498e+000 2.109150e+000 2.315546e+000 1.650007e+000 2.603951e+000 4.393551e+000 2.854630e+000 1.402075e+000 3.455136e+000 9.515998e-001 1.399279e+000 9.366300e-001
<GCONST> 9.580958e+001
<STATE> 4
<MEAN> 25
 2.282431e+000 -4.620878e+000 8.753771e-001 -2.824361e+000 -1.005719e+000 1.267948e+000 1.298665e+000 -1.288518e+000 -3.289413e-001 -2.159616e+000 2.512391e+000 1.263448e+000 -1.023131e+000 -9.150014e-001 9.203743e-001 -1.071120e+000 3.027707e-001 7.195608e-001 5.655714e-001 1.183479e+000 1.020027e+000 1.356656e-001 -1.808700e+000 4.160795e-002 -2.335860e-002
<VARIANCE> 25
 6.381294e+001 6.182828e+001 7.204061e+001 4.143172e+001 2.095215e+001 3.916473e+001 2.625797e+001 2.324363e+001 2.366787e+001 3.480301e+001 3.159614e+001 2.760390e+001 3.215109e+000 3.411668e+000 6.030061e+000 6.088784e+000 1.487318e+000 6.789146e+000 2.888377e+000 4.801171e+000 2.537296e+000 3.623667e+000 2.466891e+000 1.943278e+000 1.429004e+000
<GCONST> 1.039204e+002
<TRANSP> 5
 0.000000e+000 1.000000e+000 0.000000e+000 0.000000e+000 0.000000e+000
 0.000000e+000 1.670584e-001 8.329416e-001 0.000000e+000 0.000000e+000
 0.000000e+000 0.000000e+000 2.409748e-001 7.590252e-001 0.000000e+000
 0.000000e+000 0.000000e+000 0.000000e+000 3.187249e-001 6.812752e-001
 0.000000e+000 0.000000e+000 0.000000e+000 0.000000e+000 0.000000e+000
<ENDHMM>
~h "g"
<BEGINHMM>
<NUMSTATES> 5
<STATE> 2
<MEAN> 25
 2.850636e-001 4.642932e+000 8.266964e+000 6.397514e+000 6.264831e+000 -1.207668e+000 -1.508416e+000 -1.626213e+000 2.501602e+000 1.567393e+000 -4.309611e+000 -6.200717e+000 7.417310e-001 -4.657130e-001 -1.602432e-001 3.782140e-001 1.313066e+000 -1.448887e+000 -1.175903e+000 -1.321237e+000 -6.700135e-001 -6.030695e-001 6.609555e-001 -3.718119e-001 1.567512e+000
<VARIANCE> 25
 1.120844e+001 1.218273e+002 3.434765e+001 3.885294e+001 3.331263e+001 3.968702e+001 4.877879e+001 6.602923e+001 2.174766e+001 2.297956e+001 2.176116e+001 1.373003e+001 1.734624e+000 1.575583e+001 5.398476e+000 6.319900e+000 2.904559e+000 3.745480e+000 4.325861e+000 1.064268e+001 2.768436e+000 2.205858e+000 2.792283e+000 3.389183e+000 4.381466e+000
<GCONST> 1.061291e+002
<STATE> 3
<MEAN> 25
 4.123345e+000 -4.667811e+000 2.690122e+000 5.842573e+000 6.548184e+000 -8.360779e+000 -1.057042e+001 -8.461160e+000 -3.007396e+000 -3.066305e+000 4.059300e+000 -3.752608e+000 5.754959e-001 -2.139022e-001 -5.198242e-001 -1.560820e-001 -1.471829e+000 5.214838e-001 -9.067679e-001 -2.748817e-001 -5.921904e-002 2.461952e-001 1.419438e+000 7.019710e-001 -3.388015e-001
<VARIANCE> 25
 1.026843e+001 1.195439e+001 2.276201e+001 2.146055e+001 2.291307e+001 1.925952e+001 1.262710e+001 4.287852e+001 1.370941e+001 1.535187e+001 2.888542e+001 1.084613e+001 5.659506e-001 6.596964e-001 1.852981e+000 7.113447e-001 1.462538e+000 1.852079e+000 3.094436e+000 1.485141e+000 1.602036e+000 1.274028e+000 2.194494e+000 1.105667e+000 2.585889e-001
<GCONST> 8.248872e+001
<STATE> 4
<MEAN> 25
 2.294126e-001 -5.308662e+000 1.006536e+001 1.146669e+000 6.768304e-001 2.612050e+000 -7.122920e+000 -5.176796e+000 -1.370737e+000 1.939137e+000 5.880923e+000 -4.040333e+000 -2.449555e+000 -1.134899e+000 3.051682e+000 -2.962896e+000 -1.596906e+000 2.837591e+000 1.449671e+000 2.498863e+000 -9.782004e-002 8.945683e-001 3.530942e-001 -4.680811e-001 -8.831556e-001
<VARIANCE> 25
 6.121525e+001 1.333121e+001 1.137873e+002 3.947435e+001 1.178639e+001 5.790388e+001 1.443564e+001 4.030805e+001 9.945190e+000 2.058587e+001 1.532098e+001 1.326038e+001 5.564547e+000 2.659903e+000 4.939015e+000 5.481264e+000 1.541373e+000 3.514833e+000 2.629084e+000 3.861965e+000 7.546647e-001 1.437916e+000 1.132882e+000 4.878899e-001 4.850160e-001
<GCONST> 9.335502e+001
<TRANSP> 5
 0.000000e+000 1.000000e+000 0.000000e+000 0.000000e+000 0.000000e+000
 0.000000e+000 8.515999e-001 1.484001e-001 0.000000e+000 0.000000e+000
 0.000000e+000 0.000000e+000 8.187400e-001 1.812600e-001 0.000000e+000
 0.000000e+000 0.000000e+000 0.000000e+000 5.248333e-001 4.751666e-001
 0.000000e+000 0.000000e+000 0.000000e+000 0.000000e+000 0.000000e+000
<ENDHMM>
~h "i"
<BEGINHMM>
<NUMSTATES> 5
<STATE> 2
<MEAN> 25
 3.228258e+000 -1.365636e+000 3.367414e+000 9.933665e+000 7.687483e+000 -7.891909e+000 -9.093657e+000 1.134538e-001 -5.055413e+000 -2.736455e+000 3.364870e+000 -9.124067e+000 -3.756990e-001 1.120079e-001 3.349826e-001 9.023078e-001 -2.847027e-001 -5.621157e-002 -6.928256e-002 1.910872e-001 3.842961e-002 1.834526e-001 -5.244945e-001 -2.970876e-001 -6.939209e-001
<VARIANCE> 25
 6.864295e+000 1.634470e+001 2.572693e+001 4.369416e+001 3.259820e+001 4.115426e+001 2.957391e+001 3.882661e+001 2.206089e+001 2.108414e+001 3.146724e+001 3.154773e+001 5.414128e-001 1.132202e+000 1.452751e+000 2.869299e+000 2.505989e+000 3.977634e+000 3.112327e+000 1.855691e+000 1.503351e+000 1.534369e+000 1.682649e+000 1.917395e+000 7.119030e-001
<GCONST> 9.164073e+001
<STATE> 3
<MEAN> 25
 8.415264e-001 3.384194e+000 3.883704e+000 1.213516e+001 4.911815e+000 -2.566910e+000 -3.884450e+000 2.363101e+000 1.419904e+000 -3.247777e-001 -2.346692e+000 -2.234041e+000 -3.784139e-001 4.518726e-001 -6.091715e-001 -3.360228e-001 -9.400219e-002 9.006585e-001 8.152056e-001 4.826262e-001 6.825317e-001 5.496793e-001 -2.915968e-001 6.854431e-001 -8.688056e-001
<VARIANCE> 25
 1.212437e+001 5.107021e+001 4.081760e+001 2.675111e+001 1.998699e+001 4.124538e+001 2.899397e+001 6.193929e+001 2.425233e+001 3.200146e+001 2.890441e+001 2.407056e+001 5.960737e-001 1.343021e+000 1.157956e+000 2.326827e+000 1.598343e+000 3.186088e+000 2.868102e+000 1.695815e+000 1.170178e+000 9.308852e-001 1.177254e+000 1.531609e+000 6.430593e-001
<GCONST> 9.098997e+001
<STATE> 4
<MEAN> 25
 -5.992278e+000 1.702721e+000 -2.397525e+000 4.091737e+000 9.342479e-001 1.940509e+000 -4.875439e-001 5.349081e-001 2.430328e+000 2.855079e+000 -3.483278e+000 1.609359e+000 -1.371797e-001 -3.474366e-002 -1.375435e-001 -3.073864e-001 -1.581931e-001 9.480145e-002 -6.116921e-002 -1.069319e-001 3.431436e-002 6.437463e-002 6.356893e-002 6.060696e-002 -1.229952e-001
<VARIANCE> 25
 8.315183e+000 2.833341e+001 9.281624e+000 1.982078e+001 1.772499e+001 3.774467e+001 2.662218e+001 1.833107e+001 1.752250e+001 1.149955e+001 1.203544e+001 9.100410e+000 2.037234e-001 5.887851e-001 7.497509e-001 8.516234e-001 1.066031e+000 2.063650e+000 2.007378e+000 1.207246e+000 1.163429e+000 8.188394e-001 1.067191e+000 8.393404e-001 2.218792e-001
<GCONST> 7.676200e+001
<TRANSP> 5
 0.000000e+000 1.000000e+000 0.000000e+000 0.000000e+000 0.000000e+000
 0.000000e+000 8.225743e-001 1.774257e-001 0.000000e+000 0.000000e+000
 0.000000e+000 0.000000e+000 8.362457e-001 1.637543e-001 0.000000e+000
 0.000000e+000 0.000000e+000 0.000000e+000 9.175901e-001 8.240993e-002
 0.000000e+000 0.000000e+000 0.000000e+000 0.000000e+000 0.000000e+000
<ENDHMM>
~h "j"
<BEGINHMM>
<NUMSTATES> 5
<STATE> 2
<MEAN> 25
 -6.003902e+000 -1.068380e+001 1.512014e+001 -3.884530e+000 -4.848257e-001 4.649067e+000 3.563327e+000 3.518908e+000 2.275828e+000 1.950503e+000 -2.705417e+000 -6.967894e+000 1.412220e+000 -1.883403e-001 -3.181617e-001 1.419341e+000 1.712707e+000 -1.390472e+000 -4.840028e-001 -1.000313e+000 -9.968934e-001 -1.175626e+000 6.725282e-001 -2.330674e-001 1.183819e+000
<VARIANCE> 25
 3.685084e+001 1.268363e+002 6.114006e+001 9.535815e+001 4.343004e+001 3.309473e+001 3.977690e+001 2.533883e+001 9.395732e+000 1.076832e+001 1.308799e+001 1.020724e+001 7.790882e+000 2.486513e+001 1.318004e+001 1.517132e+001 9.929854e+000 5.798849e+000 4.750509e+000 4.076670e+000 1.986018e+000 3.314730e+000 2.074708e+000 1.352405e+000 7.113573e+000
<GCONST> 1.092248e+002
<STATE> 3
<MEAN> 25
 3.885803e+000 -4.735568e+000 3.739733e+000 5.589225e+000 4.431369e+000 -4.735443e+000 -3.584673e+000 -6.309508e+000 -2.624598e+000 -4.726641e+000 -1.230832e+000 -6.376693e+000 5.156542e-001 3.792369e-001 -1.156840e+000 3.985146e-001 -4.390138e-001 -2.481470e-001 -4.006383e-002 -3.218176e-001 -8.263163e-001 1.426523e-001 5.738292e-001 5.516783e-001 -7.740655e-001
<VARIANCE> 25
 3.372817e+000 2.077345e+001 9.588762e+000 7.086756e+000 2.984956e+001 1.825243e+001 2.336874e+001 2.655001e+001 1.973191e+001 1.005261e+001 3.586789e+001 8.678322e+000 2.132575e+000 3.637811e+000 4.125486e+000 3.044957e+000 3.712817e+000 4.028760e+000 2.254716e+000 1.833570e+000 2.486776e+000 2.408036e+000 2.589721e+000 1.264690e+000 1.962017e+000
<GCONST> 9.053088e+001
<STATE> 4
<MEAN> 25
 -2.696824e-002 3.765047e+000 2.885686e+000 9.345399e+000 6.254403e+000 3.837102e+000 1.320844e+000 -5.849178e-001 6.648346e-002 2.703149e+000 -2.930702e+000 -6.343902e-001 -1.069617e+000 4.689147e-001 7.223191e-001 -5.517002e-001 -5.591186e-001 1.991734e+000 4.417941e-001 1.026007e+000 1.260856e+000 1.107565e+000 -5.931864e-002 6.370708e-001 -1.450904e+000
<VARIANCE> 25
 1.654449e+001 7.981767e+001 2.416277e+001 2.900227e+001 5.552896e+001 3.424939e+001 1.138890e+001 2.261591e+001 2.304012e+001 2.487880e+001 2.277878e+001 1.359710e+001 2.859813e+000 1.776870e+001 3.181152e+000 5.264825e+000 3.921499e+000 6.105494e+000 1.987069e+000 1.327651e+000 3.352346e+000 3.943975e+000 6.682709e+000 3.137051e+000 1.898395e+001
<GCONST> 1.043342e+002
<TRANSP> 5
 0.000000e+000 1.000000e+000 0.000000e+000 0.000000e+000 0.000000e+000
 0.000000e+000 7.213302e-001 2.786698e-001 0.000000e+000 0.000000e+000
 0.000000e+000 0.000000e+000 7.807056e-001 2.192943e-001 0.000000e+000
 0.000000e+000 0.000000e+000 0.000000e+000 7.462230e-001 2.537770e-001
 0.000000e+000 0.000000e+000 0.000000e+000 0.000000e+000 0.000000e+000
<ENDHMM>
~h "k"
<BEGINHMM>
<NUMSTATES> 5
<STATE> 2
<MEAN> 25
 -5.828413e+000 -4.592145e+000 -5.752441e-001 -1.789807e+000 -5.121870e+000 -3.183926e-001 4.399875e-001 2.305103e+000 -2.192160e+000 2.075166e+000 -1.039857e+000 2.304750e+000 1.125445e+000 -3.417343e+000 2.164037e+000 -1.524310e+000 -1.463065e-001 5.584294e-001 -5.129829e-002 1.323178e+000 -8.897877e-001 -1.080981e+000 1.658079e+000 -1.272922e+000 3.769482e+000
<VARIANCE> 25
 1.882173e+001 1.054210e+002 8.720261e+001 3.598065e+001 4.160614e+001 2.342144e+001 4.141328e+001 4.220401e+001 3.689209e+001 2.524942e+001 2.193277e+001 1.488458e+001 1.730496e+000 8.007197e+000 5.631897e+000 6.825847e+000 3.569120e+000 3.546042e+000 3.946330e+000 2.601272e+000 5.007184e+000 1.537531e+000 5.310307e+000 2.083371e+000 5.851248e+000
<GCONST> 1.059204e+002
<STATE> 3
<MEAN> 25
 -1.579016e+000 -9.167347e+000 8.123957e+000 -6.978871e+000 -2.627185e+000 5.285052e+000 -1.764285e-001 4.292534e+000 -5.945639e+000 -2.107647e+000 5.448110e+000 -2.872728e+000 1.964167e+000 1.220459e+000 1.477190e+000 1.194442e+000 1.969367e+000 -1.407774e+000 -3.486865e-002 -1.162600e+000 2.960758e-001 -9.296567e-001 1.031361e+000 -6.091337e-001 2.987105e+000
<VARIANCE> 25
 1.033663e+001 4.016707e+001 5.797564e+001 7.409538e+001 2.539416e+001 3.599140e+001 2.815920e+001 3.932521e+001 4.854128e+001 1.736308e+001 5.628196e+001 1.727291e+001 1.004592e+000 1.048803e+001 5.440913e+000 7.167367e+000 6.466389e+000 5.289907e+000 5.899914e+000 4.284135e+000 2.783088e+000 4.479599e+000 4.276481e+000 3.634423e+000 6.277879e+000
<GCONST> 1.076691e+002
<STATE> 4
<MEAN> 25
 2.147721e+000 -2.195615e+000 8.006557e+000 4.148810e+000 5.161440e+000 -9.691307e+000 3.436985e-001 -5.546085e-001 -4.153203e+000 -4.690351e+000 3.230067e+000 -1.068656e+000 8.718448e-001 8.489183e-001 -1.236926e+000 1.116380e+000 7.977120e-001 -2.574871e+000 -1.938247e-001 -1.472043e+000 4.999388e-001 -5.643623e-002 -1.419075e-001 5.523951e-001 7.897836e-001
<VARIANCE> 25
 5.652100e+000 1.117686e+001 4.576286e+001 6.271327e+001 3.792353e+001 4.751464e+001 6.264462e+001 3.442145e+001 2.145757e+001 4.184787e+001 3.091515e+001 2.895640e+001 8.295711e-001 3.140426e+000 1.885133e+000 3.479098e+000 7.518402e+000 7.053825e+000 6.605074e+000 2.783132e+000 3.504810e+000 2.408496e+000 2.868217e+000 3.159666e+000 1.086001e+000
<GCONST> 1.009652e+002
<TRANSP> 5
 0.000000e+000 1.000000e+000 0.000000e+000 0.000000e+000 0.000000e+000
 0.000000e+000 7.113540e-001 2.886461e-001 0.000000e+000 0.000000e+000
 0.000000e+000 0.000000e+000 5.018388e-001 4.981613e-001 0.000000e+000
 0.000000e+000 0.000000e+000 0.000000e+000 6.045594e-001 3.954406e-001
 0.000000e+000 0.000000e+000 0.000000e+000 0.000000e+000 0.000000e+000
<ENDHMM>
~h "l"
<BEGINHMM>
<NUMSTATES> 5
<STATE> 2
<MEAN> 25
 6.339488e+000 2.728677e+000 -2.002079e+000 1.035840e-001 1.025397e+000 -6.643816e+000 3.372605e-001 3.427637e-001 -2.538830e+000 -8.445768e+000 -4.438947e+000 -3.481427e+000 2.083029e-002 9.564729e-002 1.267204e-001 -3.957386e-002 -2.321541e-001 -2.965196e-002 -1.241766e-001 3.163135e-001 1.397426e-001 -3.857585e-002 3.790975e-002 -3.774017e-001 -8.787336e-002
<VARIANCE> 25
 8.740133e+000 3.331660e+001 1.921062e+001 2.675665e+001 3.782088e+001 4.459219e+001 2.597352e+001 3.296559e+001 2.759878e+001 2.892518e+001 6.047416e+001 2.292032e+001 4.446649e-001 1.394225e+000 1.301567e+000 2.482719e+000 3.248495e+000 2.935575e+000 1.440695e+000 2.251520e+000 2.386741e+000 1.311101e+000 4.959084e+000 1.630917e+000 8.714001e-001
<GCONST> 9.318300e+001
<STATE> 3
<MEAN> 25
 4.768724e+000 -1.726668e+000 4.652774e-002 -4.316592e+000 -5.798348e+000 -6.122065e+000 1.734740e+000 1.110202e+000 -2.472996e+000 -5.239790e+000 2.166775e+000 -2.424093e+000 -1.888119e-001 -5.683766e-001 8.327239e-003 -2.790145e-001 -2.418020e-001 4.054240e-001 2.146902e-001 -7.486928e-001 2.595121e-001 1.018179e+000 4.938984e-001 8.233739e-001 2.006814e-001
<VARIANCE> 25
 1.012711e+001 2.017549e+001 1.887692e+001 2.114784e+001 2.901988e+001 2.550498e+001 1.570321e+001 3.545208e+001 2.035546e+001 3.502719e+001 3.361187e+001 2.698037e+001 2.262401e-001 1.322614e+000 6.655036e-001 2.074477e+000 2.094074e+000 1.900821e+000 1.622230e+000 2.927454e+000 2.011219e+000 2.401516e+000 2.881552e+000 1.706414e+000 5.081202e-001
<GCONST> 8.811026e+001
<STATE> 4
<MEAN> 25
 9.069311e+000 6.279563e+000 -1.601990e+000 -1.792994e+000 1.539029e+000 -7.359338e+000 -2.774339e-001 1.365057e+000 -2.010785e+000 -4.752660e-001 2.775797e+000 -3.731087e-001 -1.759089e-001 5.571341e-001 1.149250e-001 1.526924e-001 -9.410408e-002 3.226745e-001 1.769263e-001 4.421036e-002 3.287796e-001 5.503373e-001 1.254045e-001 1.029371e-001 -5.117460e-001
<VARIANCE> 25
 3.246378e+001 1.899166e+002 9.433345e+001 3.900961e+001 5.139501e+001 4.052416e+001 6.988628e+001 2.485097e+001 2.563183e+001 5.110414e+001 3.588272e+001 1.198497e+001 3.849650e+000 3.963558e+000 5.607034e+000 4.792138e+000 6.178622e+000 5.100104e+000 4.045922e+000 3.208011e+000 2.108152e+000 3.078429e+000 3.637819e+000 2.139969e+000 3.857167e+000
<GCONST> 1.085293e+002
<TRANSP> 5
 0.000000e+000 1.000000e+000 0.000000e+000 0.000000e+000 0.000000e+000
 0.000000e+000 8.855134e-001 1.144866e-001 0.000000e+000 0.000000e+000
 0.000000e+000 0.000000e+000 7.926049e-001 2.073951e-001 0.000000e+000
 0.000000e+000 0.000000e+000 0.000000e+000 7.556790e-001 2.443210e-001
 0.000000e+000 0.000000e+000 0.000000e+000 0.000000e+000 0.000000e+000
<ENDHMM>
~h "m"
<BEGINHMM>
<NUMSTATES> 5
<STATE> 2
<MEAN> 25
 4.245486e-001 1.162970e+001 4.567129e+000 -2.551676e+000 7.241396e+000 -4.271069e+000 4.488974e+000 8.227348e-001 1.726540e-001 1.480899e+000 -9.967688e-001 -7.098598e-001 6.923851e-001 -7.398047e-001 -8.661654e-001 -8.065829e-001 4.184720e-002 -2.520744e+000 -6.202636e-001 -2.066151e-001 2.822410e-001 -3.181387e-001 4.485367e-001 -1.035815e-001 1.580005e+000
<VARIANCE> 25
 9.129258e+000 2.834015e+001 2.114472e+001 1.975822e+001 4.659116e+001 9.444649e+001 4.800380e+001 3.622723e+001 1.302912e+001 1.140227e+001 2.592445e+001 2.643046e+001 4.068397e-001 1.452990e+000 2.009736e+000 6.072540e-001 1.098679e+001 1.290834e+001 9.841296e+000 5.922387e+000 2.192831e+000 2.171721e+000 6.011126e+000 3.476722e+000 1.861104e+000
<GCONST> 9.883385e+001
<STATE> 3
<MEAN> 25
 -5.765078e+000 -2.078832e+000 -1.800513e+000 -2.340184e+000 -4.494657e+000 2.037364e+000 -1.395702e+000 -1.720965e+000 -2.121042e-001 6.865554e-001 -1.050372e+000 1.350366e+000 7.085123e-002 -6.973968e-002 8.604994e-002 -7.914975e-002 -5.315662e-002 -1.004575e-002 2.695906e-002 6.083456e-002 3.403140e-002 2.538871e-003 8.391353e-002 3.287540e-002 1.363425e-001
<VARIANCE> 25
 1.072253e+001 6.584772e+000 6.458039e+000 1.323144e+001 1.304807e+001 7.966846e+000 8.100739e+000 5.503067e+000 7.293825e+000 9.318601e+000 7.782822e+000 1.045812e+001 6.993793e-001 2.188717e-001 6.011266e-001 1.287713e+000 1.551715e+000 6.185865e-001 9.836512e-001 6.159557e-001 6.614839e-001 7.251372e-001 5.052781e-001 1.059343e+000 4.492511e-001
<GCONST> 6.687672e+001
<STATE> 4
<MEAN> 25
 1.088411e+001 3.619426e-001 2.957224e+000 -3.812609e+000 3.134402e+000 -6.748860e+000 1.395154e+000 3.285870e+000 1.527329e+000 -5.508545e+000 6.931410e-001 -6.015994e+000 5.596746e-001 -3.354546e-001 -2.837205e-001 1.458563e-001 2.672942e-001 4.471301e-003 1.828552e-001 -1.589907e-001 -1.219856e-001 -4.862135e-001 -5.365583e-001 -1.884761e-001 6.289156e-001
<VARIANCE> 25
 3.100791e+001 4.231021e+001 1.483940e+001 3.595916e+001 6.775768e+001 5.432470e+001 4.629886e+001 3.950785e+001 1.230857e+001 3.972054e+001 3.968335e+001 5.502162e+001 2.736748e+000 3.245184e+000 2.109367e+000 3.742187e+000 6.845150e+000 3.966572e+000 4.023546e+000 5.170696e+000 1.360054e+000 1.593765e+000 4.535638e+000 6.402999e+000 1.147203e+000
<GCONST> 1.038755e+002
<TRANSP> 5
 0.000000e+000 1.000000e+000 0.000000e+000 0.000000e+000 0.000000e+000
 0.000000e+000 8.142303e-001 1.857697e-001 0.000000e+000 0.000000e+000
 0.000000e+000 0.000000e+000 9.482757e-001 5.172432e-002 0.000000e+000
 0.000000e+000 0.000000e+000 0.000000e+000 9.206057e-001 7.939433e-002
 0.000000e+000 0.000000e+000 0.000000e+000 0.000000e+000 0.000000e+000
<ENDHMM>
~h "n"
<BEGINHMM>
<NUMSTATES> 5
<STATE> 2
<MEAN> 25
 5.979136e+000 -4.016280e+000 -5.786382e+000 -5.263341e+000 -4.879189e+000 -3.333025e+000 3.531410e+000 4.369545e+000 -1.278179e+000 -4.300437e+000 1.064521e+001 1.847954e+000 -4.408017e-003 2.182094e+000 -3.707347e-002 2.171050e+000 2.591593e+000 6.955197e-001 -1.479880e+000 2.020171e-001 -6.959744e-001 -2.432743e-001 -1.948131e+000 -9.721876e-001 -2.158828e+000
<VARIANCE> 25
 3.887097e+000 2.088789e+001 3.316669e+001 2.680876e+001 2.517404e+001 2.004357e+001 4.633703e+001 7.278506e+001 1.507151e+001 2.317731e+001 3.755751e+001 9.809097e+000 5.582200e-001 1.962079e+000 3.430553e+000 3.052278e+000 3.205795e+000 2.728424e+000 2.714789e+000 5.273729e+000 2.135655e+000 2.487314e+000 7.498747e+000 2.254493e+000 1.409964e+000
<GCONST> 9.535732e+001
<STATE> 3
<MEAN> 25
 4.340580e+000 5.586881e+000 -4.522550e+000 6.685103e+000 6.673876e+000 4.020238e-001 -1.232953e+000 3.612390e+000 1.171147e-001 -2.845155e+000 -5.618766e+000 -3.093692e+000 -5.491396e-001 1.916069e+000 1.012945e+000 3.178646e+000 2.281281e+000 1.188393e+000 -9.862777e-001 7.467189e-002 1.009768e+000 2.179340e-001 -4.428693e+000 -1.930535e+000 -2.273901e+000
<VARIANCE> 25
 4.390692e+000 1.240808e+001 3.138185e+001 2.050684e+001 2.517760e+001 2.552313e+001 1.987501e+001 2.475214e+001 2.124611e+001 1.947130e+001 4.797462e+001 1.423909e+001 3.546654e-001 1.042854e+000 2.287890e+000 2.136663e+000 3.207300e+000 4.236988e+000 3.729446e+000 6.194806e+000 2.066365e+000 2.227566e+000 5.301605e+000 7.324950e-001 7.723850e-001
<GCONST> 9.059409e+001
<STATE> 4
<MEAN> 25
 3.131464e+000 8.208352e+000 -2.278408e+000 1.198632e+001 6.661517e+000 1.020775e+000 2.239376e+000 3.406635e+000 3.812000e-001 -4.871430e-001 -9.084125e+000 -5.548104e+000 -2.156445e-001 1.535894e-001 1.326441e-001 2.499471e-001 -4.004603e-001 -1.791190e-001 8.057026e-001 -1.138679e-001 -2.645098e-001 6.668523e-001 4.737013e-001 2.395070e-001 -2.303188e-001
<VARIANCE> 25
 2.894249e+000 2.021597e+001 1.187980e+001 1.397753e+001 1.900985e+001 1.656910e+001 3.450688e+001 1.713284e+001 2.802905e+001 3.353796e+001 2.234361e+001 1.105343e+001 2.379952e-001 6.707012e-001 6.980515e-001 1.888075e+000 2.131841e+000 2.369563e+000 1.977487e+000 6.953281e-001 1.554274e+000 1.261407e+000 1.785855e+000 1.245586e+000 5.901766e-001
<GCONST> 8.094298e+001
<TRANSP> 5
 0.000000e+000 1.000000e+000 0.000000e+000 0.000000e+000 0.000000e+000
 0.000000e+000 6.777275e-001 3.222725e-001 0.000000e+000 0.000000e+000
 0.000000e+000 0.000000e+000 5.933324e-001 4.066676e-001 0.000000e+000
 0.000000e+000 0.000000e+000 0.000000e+000 8.320339e-001 1.679661e-001
 0.000000e+000 0.000000e+000 0.000000e+000 0.000000e+000 0.000000e+000
<ENDHMM>
~h "p"
<BEGINHMM>
<NUMSTATES> 5
<STATE> 2
<MEAN> 25
 5.250045e+000 7.329791e-001 7.871738e-001 -4.031412e+000 -1.727993e+000 -4.066418e+000 3.232075e+000 -2.287352e+000 -1.949327e+000 -2.012341e+000 -1.281257e+000 -6.046664e+000 2.640508e-001 4.715252e-001 5.085930e-001 2.067761e-001 -3.685019e-001 -1.209600e-001 -3.123174e-002 -4.547218e-002 -4.747213e-001 -6.639817e-001 -1.588148e-001 -3.961535e-001 -7.375457e-002
<VARIANCE> 25
 8.599284e+000 4.549451e+001 1.408805e+001 1.636572e+001 2.324971e+001 8.902290e+001 4.426324e+001 2.662546e+001 3.083453e+001 2.130617e+001 3.490411e+001 1.869480e+001 7.527843e-001 4.937161e+000 1.438395e+000 1.991874e+000 3.502604e+000 1.009042e+001 4.706239e+000 1.699827e+000 2.136476e+000 1.725131e+000 4.018739e+000 9.827753e-001 1.538256e+000
<GCONST> 9.615103e+001
<STATE> 3
<MEAN> 25
 -4.174043e-001 4.001861e+000 4.730965e+000 -6.712516e-001 -2.943027e+000 4.477676e+000 2.111352e+000 1.061456e-001 -1.113267e+000 -2.152867e-001 -3.421352e+000 -3.275371e+000 -3.019150e+000 2.280554e+000 -4.188907e-001 1.741405e+000 5.253896e-001 1.320429e+000 5.688980e-001 8.548258e-001 7.018132e-001 1.789410e+000 -1.603212e+000 1.869907e+000 -5.086017e+000
<VARIANCE> 25
 3.034451e+001 6.765096e+001 1.901794e+001 3.067520e+001 3.790715e+001 2.241017e+001 5.455933e+001 3.250169e+001 2.442778e+001 4.290122e+001 2.752895e+001 2.194117e+001 9.899107e-001 7.196034e+000 1.804049e+000 3.543142e+000 5.059216e+000 5.393804e+000 4.992911e+000 6.181949e+000 6.064480e+000 2.375889e+000 2.859773e+000 1.782182e+000 2.868915e+000
<GCONST> 1.034311e+002
<STATE> 4
<MEAN> 25
 -8.017455e+000 5.834638e+000 -3.182918e-001 2.767518e-001 -3.173619e+000 3.869292e+000 5.461708e-001 -8.802382e-001 -1.944829e+000 1.142012e+000 -6.407069e+000 6.074359e-001 2.267618e-002 -1.104959e+000 -6.074018e-002 -8.052664e-001 -1.445854e-001 1.788670e-001 -5.145991e-001 -3.443697e-001 -3.459022e-002 2.761611e-001 5.494217e-001 3.766685e-003 7.042263e-001
<VARIANCE> 25
 9.269768e+000 2.912720e+001 1.305482e+001 1.325516e+001 1.001879e+001 2.683514e+001 2.373767e+001 1.752390e+001 1.218053e+001 1.032525e+001 1.214795e+001 1.133713e+001 1.383496e+000 4.319256e+000 2.037813e+000 2.310833e+000 2.107942e+000 2.962081e+000 1.650224e+000 2.102052e+000 1.502877e+000 1.604894e+000 1.555668e+000 8.566018e-001 4.880194e+000
<GCONST> 8.724874e+001
<TRANSP> 5
 0.000000e+000 1.000000e+000 0.000000e+000 0.000000e+000 0.000000e+000
 0.000000e+000 8.882525e-001 1.117474e-001 0.000000e+000 0.000000e+000
 0.000000e+000 0.000000e+000 7.198097e-001 2.801903e-001 0.000000e+000
 0.000000e+000 0.000000e+000 0.000000e+000 8.776467e-001 1.223533e-001
 0.000000e+000 0.000000e+000 0.000000e+000 0.000000e+000 0.000000e+000
<ENDHMM>
~h "r"
<BEGINHMM>
<NUMSTATES> 5
<STATE> 2
<MEAN> 25
 6.391497e+000 1.625808e+000 -8.288081e+000 -1.671904e+000 2.928431e+000 1.743111e+000 -4.157476e-001 -1.602600e+000 3.326812e-001 -3.481614e+000 -1.096352e-001 4.658514e+000 -5.750942e-001 1.255148e+000 -4.616877e-002 6.532475e-001 4.169229e-001 8.658803e-001 7.611344e-001 3.967358e-001 -7.776799e-001 3.791321e-001 -3.289020e-001 2.785344e-002 -1.639874e+000
<VARIANCE> 25
 1.212685e+001 3.579917e+001 3.420282e+001 2.500755e+001 2.504975e+001 3.241104e+001 3.185938e+001 4.120097e+001 2.472005e+001 4.351702e+001 2.200687e+001 3.103373e+001 3.037950e+000 3.279706e+000 3.467981e+000 1.976115e+000 3.474054e+000 3.599360e+000 2.920840e+000 4.271871e+000 2.644289e+000 3.861367e+000 3.066782e+000 2.744738e+000 3.779455e+000
<GCONST> 1.012151e+002
<STATE> 3
<MEAN> 25
 -4.289495e-001 2.959897e+000 -3.919823e+000 2.744074e+000 2.669718e+000 4.903831e+000 3.121155e+000 3.426442e+000 -3.444286e+000 -8.582616e-002 1.906909e+000 3.309218e+000 -1.502394e+000 -1.129767e-001 3.420690e-002 2.774956e-001 -4.310841e-001 -2.716502e-001 1.162030e-001 1.735344e-001 -9.063713e-002 1.133777e+000 3.179127e-001 -2.113268e-001 -1.424146e+000
<VARIANCE> 25
 2.726743e+001 5.308426e+001 3.546095e+001 2.853444e+001 3.999039e+001 3.115261e+001 2.983543e+001 3.894431e+001 2.134367e+001 2.974584e+001 2.787103e+001 2.254957e+001 3.301147e+000 4.656823e+000 3.316857e+000 4.249445e+000 4.611737e+000 3.594855e+000 6.578606e+000 4.958282e+000 2.531391e+000 4.503802e+000 3.222633e+000 3.319421e+000 3.314895e+000
<GCONST> 1.048997e+002
<STATE> 4
<MEAN> 25
 -5.537002e+000 6.222414e+000 -6.419929e+000 1.264320e+000 -2.035048e-001 2.955173e+000 1.211519e+000 1.871544e-001 -6.876271e-001 3.917329e+000 -3.235819e+000 4.849282e+000 -2.968290e-001 2.167298e-001 4.952819e-002 -5.114538e-002 -1.689300e-001 -4.643727e-001 -2.450487e-001 -3.577074e-001 4.400402e-002 2.977022e-003 -6.383784e-001 -1.769125e-001 -2.803842e-001
<VARIANCE> 25
 1.662152e+001 1.755468e+001 3.227670e+001 1.408254e+001 2.902621e+001 2.285893e+001 3.712795e+001 3.349399e+001 1.825669e+001 2.165649e+001 2.126040e+001 2.649789e+001 3.965519e-001 1.191241e+000 1.849062e+000 1.683286e+000 1.589584e+000 2.127248e+000 1.661471e+000 2.841460e+000 2.056928e+000 1.335330e+000 1.958008e+000 2.412140e+000 6.866331e-001
<GCONST> 8.902193e+001
<TRANSP> 5
 0.000000e+000 1.000000e+000 0.000000e+000 0.000000e+000 0.000000e+000
 0.000000e+000 7.330474e-001 2.669525e-001 0.000000e+000 0.000000e+000
 0.000000e+000 0.000000e+000 6.802833e-001 3.197167e-001 0.000000e+000
 0.000000e+000 0.000000e+000 0.000000e+000 8.078831e-001 1.921169e-001
 0.000000e+000 0.000000e+000 0.000000e+000 0.000000e+000 0.000000e+000
<ENDHMM>
~h "s"
<BEGINHMM>
<NUMSTATES> 5
<STATE> 2
<MEAN> 25
 -1.164412e+001 -1.178494e+001 1.923099e+001 -1.699855e+001 -2.317679e+000 1.065287e+001 1.313669e-001 1.337171e+000 2.021169e+000 4.777996e+000 9.643573e-002 -1.196671e+000 -7.716532e-001 -7.988920e-001 9.806955e-001 -7.384791e-001 -1.963321e-001 4.002845e-001 -3.105307e-001 -2.579749e-002 9.942085e-003 -3.234081e-002 -3.066286e-001 -5.770637e-002 3.333028e-001
<VARIANCE> 25
 5.047467e+001 3.775285e+001 7.405697e+001 4.216220e+001 2.606914e+001 2.043806e+001 2.058448e+001 3.675575e+001 1.617207e+001 2.335324e+001 1.519789e+001 1.683832e+001 6.310667e+000 4.189478e+000 1.199581e+001 5.729317e+000 2.440920e+000 4.239382e+000 2.126555e+000 2.459999e+000 1.734256e+000 1.565064e+000 9.277682e-001 1.043507e+000 6.580306e-001
<GCONST> 9.797568e+001
<STATE> 3
<MEAN> 25
 -3.794253e+000 -6.833236e+000 9.937885e+000 -1.053822e+001 -6.340972e-001 6.261496e+000 -7.388265e-002 -3.837091e+000 -1.592696e-001 3.539438e+000 -5.665056e-002 -7.362549e-002 3.795593e+000 3.301811e+000 -4.421683e+000 2.878592e+000 6.444156e-001 -2.741340e+000 5.094092e-001 -2.212769e+000 -1.187696e+000 -1.218088e+000 4.654386e-001 1.111196e+000 1.979577e-002
<VARIANCE> 25
 4.011494e+001 6.372995e+001 7.230582e+001 5.138952e+001 2.612555e+001 1.848391e+001 4.123667e+001 3.843067e+001 1.248106e+001 2.527195e+001 1.944568e+001 1.448365e+001 2.119088e+000 2.653871e+000 3.238816e+000 3.084183e+000 2.542892e+000 3.499752e+000 2.940496e+000 4.446737e+000 1.855417e+000 2.957832e+000 2.147802e+000 1.247198e+000 1.739829e+000
<GCONST> 9.898316e+001
<STATE> 4
<MEAN> 25
 5.855225e+000 -3.137630e+000 -3.196820e+000 -2.847140e+000 -2.516953e+000 -5.008002e+000 -1.411966e+000 -9.593593e+000 -3.354985e+000 -2.158849e+000 5.361379e+000 4.991093e+000 8.362805e-001 -2.726569e-001 -1.476379e+000 2.665749e-001 -9.388828e-001 -8.964510e-001 -7.226037e-002 3.457671e-001 -6.541200e-002 -7.643710e-001 9.963690e-001 3.649885e-001 2.017898e-001
<VARIANCE> 25
 7.871495e+000 1.233573e+001 3.164676e+001 1.940058e+001 2.700228e+001 2.196782e+001 5.029852e+001 2.104738e+001 1.800648e+001 1.505990e+001 2.142678e+001 1.332205e+001 1.023579e+000 1.601360e+000 1.888791e+000 1.871516e+000 2.153648e+000 4.865737e+000 1.368124e+000 2.978454e+000 1.962659e+000 3.028303e+000 1.262830e+000 1.219673e+000 4.768770e-001
<GCONST> 8.853451e+001
<TRANSP> 5
 0.000000e+000 1.000000e+000 0.000000e+000 0.000000e+000 0.000000e+000
 0.000000e+000 8.529179e-001 1.470821e-001 0.000000e+000 0.000000e+000
 0.000000e+000 0.000000e+000 6.733692e-001 3.266308e-001 0.000000e+000
 0.000000e+000 0.000000e+000 0.000000e+000 7.898561e-001 2.101438e-001
 0.000000e+000 0.000000e+000 0.000000e+000 0.000000e+000 0.000000e+000
<ENDHMM>
~h "t"
<BEGINHMM>
<NUMSTATES> 5
<STATE> 2
<MEAN> 25
 7.568751e-001 -6.700699e+000 3.351954e+000 -4.609144e+000 -1.376081e+000 -9.034556e-001 -2.686056e+000 -2.609326e+000 -1.117447e+000 -5.057448e-001 7.051427e+000 -3.445470e-001 9.529020e-001 1.790531e+000 -1.842812e+000 -1.076317e-001 7.696486e-001 -6.951486e-001 1.946210e-001 -2.262467e+000 -5.683174e-002 2.049271e-001 -1.240597e+000 1.014998e-001 -5.061897e-002
<VARIANCE> 25
 3.010288e+001 5.026406e+001 6.568488e+001 4.818831e+001 7.800434e+001 1.501292e+001 3.004723e+001 8.486018e+001 4.601601e+001 1.893091e+001 5.913683e+001 2.173791e+001 2.505589e+000 8.590989e+000 3.945153e+000 1.716006e+000 7.197629e+000 1.037813e+000 1.274093e+000 1.308393e+001 1.930680e+000 2.208323e+000 4.834329e+000 1.562086e+000 3.762548e-001
<GCONST> 1.024676e+002
<STATE> 3
<MEAN> 25
 1.687495e+000 -7.574307e+000 2.313003e-001 -1.111235e+001 -5.735926e+000 -2.396528e+000 -8.593141e-001 -1.836283e+000 3.668805e+000 2.594040e+000 8.317858e+000 2.279478e+000 -1.906544e-002 5.125804e-001 -4.132753e-001 1.441514e-001 2.888667e-001 -3.219956e-002 3.596547e-001 -1.053983e-001 -1.296133e-001 -1.090672e-001 -6.789302e-001 5.434434e-001 -5.030240e-001
<VARIANCE> 25
 7.504655e+000 1.310497e+001 9.837490e+000 2.601297e+001 1.202766e+001 1.006022e+001 2.095883e+001 2.194834e+001 3.095001e+001 2.185120e+001 2.912323e+001 1.184712e+001 2.526352e-001 1.147101e+000 1.167639e+000 6.990032e-001 1.812194e+000 6.287511e-001 8.700553e-001 7.730724e-001 1.262684e+000 1.524848e+000 3.060200e+000 1.507307e+000 8.172755e-001
<GCONST> 7.964194e+001
<STATE> 4
<MEAN> 25
 1.539070e+000 -7.855031e+000 3.250720e+000 -6.315877e+000 -3.712267e+000 -3.068018e+000 -4.197421e+000 -2.395320e+000 5.022325e+000 9.902608e-001 4.178151e+000 1.162086e-002 -2.661520e-002 4.144878e-001 -2.642082e-001 3.097282e-001 1.968827e-001 2.441869e-001 1.415822e-001 1.499846e-001 -2.262259e-001 -1.607459e-001 -4.951811e-001 2.253527e-001 -7.237239e-001
<VARIANCE> 25
 5.950562e+000 9.272152e+000 2.036264e+001 1.289834e+001 5.159747e+000 8.369609e+000 1.923895e+001 1.230809e+001 2.031314e+001 1.260198e+001 1.271066e+001 1.231225e+001 2.430918e-001 1.143049e+000 6.603560e-001 7.202799e-001 7.084916e-001 6.180449e-001 6.979854e-001 7.885081e-001 1.151470e+000 8.374074e-001 1.438943e+000 9.618281e-001 1.460917e+000
<GCONST> 7.258003e+001
<TRANSP> 5
 0.000000e+000 1.000000e+000 0.000000e+000 0.000000e+000 0.000000e+000
 0.000000e+000 3.078534e-001 6.921466e-001 0.000000e+000 0.000000e+000
 0.000000e+000 0.000000e+000 6.125046e-001 3.874954e-001 0.000000e+000
 0.000000e+000 0.000000e+000 0.000000e+000 7.768845e-001 2.231155e-001
 0.000000e+000 0.000000e+000 0.000000e+000 0.000000e+000 0.000000e+000
<ENDHMM>
~h "u"
<BEGINHMM>
<NUMSTATES> 5
<STATE> 2
<MEAN> 25
 -9.471322e-001 -6.624122e+000 5.806198e+000 -5.211397e+000 -1.748132e+000 3.908927e+000 -7.739468e-001 -1.166158e+000 -1.694404e-001 3.278570e+000 1.393269e+000 -1.241466e+000 1.586429e+000 -2.258894e+000 1.107434e+000 -1.343360e+000 -5.808574e-002 -5.684860e-001 -7.510523e-001 -6.458558e-001 2.856395e-001 -1.237622e+000 2.010583e+000 2.074693e-001 4.191256e+000
<VARIANCE> 25
 3.135008e+001 2.893261e+001 4.443951e+001 2.508620e+001 4.641736e+001 5.222253e+001 5.933462e+001 4.093150e+001 1.721875e+001 3.528288e+001 1.819946e+001 2.317999e+001 5.156962e+000 7.721328e+000 5.771409e+000 3.863137e+000 2.573448e+000 6.734714e+000 4.641597e+000 4.747250e+000 1.955863e+000 2.532714e+000 5.730650e+000 2.878456e+000 9.355103e+000
<GCONST> 1.071889e+002
<STATE> 3
<MEAN> 25
 3.545311e+000 -5.463937e+000 3.375606e+000 -4.711535e+000 -2.594066e+000 -5.194362e-001 1.283485e-001 -3.097082e+000 -1.212384e+000 -3.459722e+000 3.572303e+000 2.711947e-001 6.627335e-001 -1.025017e+000 -1.055062e+000 -4.603155e-001 -6.839013e-001 -8.962820e-001 6.200227e-002 2.079120e-002 7.024249e-002 -1.138898e+000 1.475066e+000 7.106482e-001 1.393291e+000
<VARIANCE> 25
 4.501221e+001 3.680090e+001 2.734362e+001 3.675515e+001 3.067101e+001 2.907218e+001 1.871196e+001 3.250517e+001 1.778709e+001 3.440290e+001 4.346363e+001 2.430280e+001 1.707068e+000 3.149825e+000 2.105076e+000 1.480715e+000 2.904218e+000 4.486688e+000 3.797084e+000 3.105224e+000 2.546863e+000 2.730119e+000 5.129327e+000 1.801329e+000 2.128986e+000
<GCONST> 9.962688e+001
<STATE> 4
<MEAN> 25
 3.732673e+000 -9.819247e+000 1.450587e+000 -5.277255e+000 -4.514850e+000 -1.905626e+000 -2.175229e+000 -2.844569e+000 2.957153e+000 -6.961171e-001 5.742751e+000 2.310840e-001 1.943558e-001 -4.626121e-001 -4.826693e-001 -9.210454e-003 -4.980325e-001 -3.328529e-002 -5.228394e-001 2.858117e-001 5.738180e-001 1.125451e-001 5.282340e-001 -1.427952e-001 6.578217e-002
<VARIANCE> 25
 3.969562e+001 2.226449e+001 1.858175e+001 1.516582e+001 1.063600e+001 1.665952e+001 2.611479e+001 3.492820e+001 2.784735e+001 2.489765e+001 3.462507e+001 1.749098e+001 5.148584e-001 7.454298e-001 1.049951e+000 6.124516e-001 1.354712e+000 1.672833e+000 1.314506e+000 8.567690e-001 1.060762e+000 1.555900e+000 1.211961e+000 1.006155e+000 5.168931e-001
<GCONST> 8.289046e+001
<TRANSP> 5
 0.000000e+000 1.000000e+000 0.000000e+000 0.000000e+000 0.000000e+000
 0.000000e+000 4.086034e-001 5.913966e-001 0.000000e+000 0.000000e+000
 0.000000e+000 0.000000e+000 2.455208e-001 7.544792e-001 0.000000e+000
 0.000000e+000 0.000000e+000 0.000000e+000 6.242772e-001 3.757228e-001
 0.000000e+000 0.000000e+000 0.000000e+000 0.000000e+000 0.000000e+000
<ENDHMM>
~h "sp"
<BEGINHMM>
<NUMSTATES> 3
<STATE> 2
~s "silst"
<TRANSP> 3
 0.000000e+000 1.052072e-001 8.947928e-001
 0.000000e+000 6.397691e-001 3.602309e-001
 0.000000e+000 0.000000e+000 0.000000e+000
<ENDHMM>
~h "sil"
<BEGINHMM>
<NUMSTATES> 5
<STATE> 2
<MEAN> 25
 -7.539735e+000 3.599746e+000 3.315525e-001 8.580920e-001 -1.099145e+000 7.623364e+000 8.997924e-001 7.740935e-001 1.743997e+000 3.209666e+000 -2.906630e+000 2.068812e+000 -1.344060e-001 -4.146309e-002 8.373559e-002 -2.333278e-001 -2.376901e-001 -1.272865e-001 1.635236e-001 1.200606e-001 1.060323e-001 6.985895e-002 -1.660022e-002 -6.832060e-002 4.994784e-002
<VARIANCE> 25
 1.637220e+001 2.971821e+001 3.545606e+001 3.231928e+001 2.549176e+001 2.853347e+001 2.483288e+001 2.314534e+001 1.842568e+001 2.148805e+001 1.253185e+001 1.344111e+001 4.104246e-001 8.327088e-001 1.015123e+000 1.406510e+000 1.454630e+000 1.333351e+000 1.467276e+000 1.350069e+000 1.093139e+000 1.054926e+000 1.040189e+000 1.018282e+000 9.351172e-001
<GCONST> 8.399091e+001
<STATE> 3
~s "silst"
<STATE> 4
<MEAN> 25
 -2.142478e+000 5.228506e+000 -4.518771e-001 -4.080518e-001 -2.301332e+000 1.336947e+000 3.771878e-002 8.663925e-003 1.543143e+000 3.238859e+000 -2.544688e+000 1.745961e-001 4.903258e-002 1.000664e-001 1.554709e-001 -1.248640e-001 -2.286923e-001 -1.389452e-001 5.736682e-002 -1.186701e-001 -6.895413e-002 -1.585399e-002 2.909778e-002 4.567809e-002 9.924229e-002
<VARIANCE> 25
 2.914790e+001 1.020715e+002 4.855633e+001 5.472208e+001 3.129321e+001 3.975253e+001 4.469931e+001 4.185427e+001 2.165145e+001 2.701314e+001 2.406278e+001 1.648231e+001 1.096859e+000 1.362631e+000 1.827633e+000 2.142965e+000 1.541874e+000 1.730091e+000 1.903743e+000 1.865928e+000 1.673084e+000 1.363135e+000 9.623129e-001 1.236333e+000 1.343415e+000
<GCONST> 9.415379e+001
<TRANSP> 5
 0.000000e+000 1.000000e+000 0.000000e+000 0.000000e+000 0.000000e+000
 0.000000e+000 7.413037e-001 8.611418e-002 1.725822e-001 0.000000e+000
 0.000000e+000 0.000000e+000 6.798960e-001 3.201040e-001 0.000000e+000
 0.000000e+000 2.505409e-002 0.000000e+000 5.680170e-001 4.069289e-001
 0.000000e+000 0.000000e+000 0.000000e+000 0.000000e+000 0.000000e+000
<ENDHMM>
