~o
<STREAMINFO> 1 25
<VECSIZE> 25<NULLD><MFCC_D_N_Z_0><DIAGC>
~h "a"
<BEGINHMM>
<NUMSTATES> 5
<STATE> 2
<MEAN> 25
 2.448250e+000 -1.117603e+000 -3.150863e+000 -1.321452e+000 -1.227394e+000 -1.183494e+000 9.811750e-001 3.209619e-001 5.430471e-001 -1.286165e-001 2.290194e+000 1.586029e+000 -1.178909e-002 1.767053e-001 -4.471406e-002 1.889498e-001 1.207872e-001 1.682801e-001 -8.679954e-003 3.693911e-002 -1.989916e-002 5.916152e-002 -1.116964e-002 1.813038e-002 -2.426387e-001
<VARIANCE> 25
 2.566874e+001 5.870114e+001 3.797375e+001 5.769580e+001 4.746112e+001 4.237242e+001 4.471070e+001 3.155624e+001 2.914304e+001 3.215793e+001 5.099893e+001 2.516930e+001 1.236510e+000 2.747047e+000 2.136382e+000 3.520039e+000 4.032273e+000 3.419012e+000 3.003667e+000 2.638351e+000 2.194299e+000 2.115354e+000 4.311841e+000 2.213602e+000 3.310331e+000
<GCONST> 1.027376e+002
<STATE> 3
<MEAN> 25
 2.205477e+000 -4.703722e-001 -3.184571e+000 -6.879255e-001 -8.257082e-001 -6.038621e-001 1.040727e+000 4.995540e-001 4.842072e-001 6.799354e-002 2.013220e+000 1.605806e+000 -8.180278e-002 2.709452e-001 7.788299e-003 2.527400e-001 1.702855e-001 2.100222e-001 -1.548487e-002 7.439683e-002 -3.672369e-003 6.321545e-002 -1.279038e-001 -1.231806e-004 -3.719855e-001
<VARIANCE> 25
 2.524375e+001 5.997606e+001 3.876478e+001 5.638941e+001 4.669953e+001 4.290809e+001 4.541047e+001 3.256406e+001 2.758639e+001 3.176846e+001 5.197364e+001 2.409505e+001 1.110341e+000 2.703833e+000 2.109248e+000 3.568636e+000 3.934010e+000 3.270977e+000 2.935166e+000 2.679014e+000 2.092789e+000 2.013749e+000 4.406982e+000 2.135902e+000 2.995739e+000
<GCONST> 1.022821e+002
<STATE> 4
<MEAN> 25
 1.278310e+000 8.843606e-001 -2.560513e+000 5.924483e-001 3.992824e-002 3.158216e-001 1.252242e+000 9.407881e-001 5.439892e-001 4.720102e-001 1.032654e+000 1.549231e+000 -1.605085e-001 2.709526e-001 4.071879e-002 2.555145e-001 1.760685e-001 1.838041e-001 -8.729925e-003 1.280477e-001 3.628514e-002 4.652558e-002 -2.080306e-001 -2.863221e-002 -4.167969e-001
<VARIANCE> 25
 3.102929e+001 6.785708e+001 4.335254e+001 5.183318e+001 4.518550e+001 4.502967e+001 4.357682e+001 3.112407e+001 2.498233e+001 3.033692e+001 4.810008e+001 2.256217e+001 1.016308e+000 2.591279e+000 2.097937e+000 3.287693e+000 3.580910e+000 3.062461e+000 2.692235e+000 2.367843e+000 1.878864e+000 1.858979e+000 3.919585e+000 1.939300e+000 2.540519e+000
<GCONST> 1.011254e+002
<TRANSP> 5
 0.000000e+000 1.000000e+000 0.000000e+000 0.000000e+000 0.000000e+000
 0.000000e+000 6.668092e-001 3.331908e-001 0.000000e+000 0.000000e+000
 0.000000e+000 0.000000e+000 6.668091e-001 3.331909e-001 0.000000e+000
 0.000000e+000 0.000000e+000 0.000000e+000 8.010762e-001 1.989238e-001
 0.000000e+000 0.000000e+000 0.000000e+000 0.000000e+000 0.000000e+000
<ENDHMM>
~h "d"
<BEGINHMM>
<NUMSTATES> 5
<STATE> 2
<MEAN> 25
 4.165894e+000 -1.476291e+000 -2.647102e+000 1.075051e+000 4.260085e-001 -4.885106e+000 -7.945861e-001 -1.192790e+000 -1.545940e+000 -2.210630e+000 3.158549e+000 1.054195e+000 1.728004e-001 -2.578879e-001 -5.383703e-001 -7.245666e-001 -7.075356e-001 -6.983546e-001 -2.541038e-001 -9.718873e-002 -1.510381e-001 -1.942741e-001 4.210816e-001 4.082567e-001 2.730018e-001
<VARIANCE> 25
 2.343695e+001 5.597828e+001 2.974970e+001 3.884205e+001 5.947647e+001 6.509873e+001 4.762009e+001 2.980047e+001 1.408453e+001 3.960959e+001 4.053766e+001 1.976297e+001 1.522305e+000 4.818626e+000 1.899199e+000 2.004610e+000 4.142591e+000 8.484060e+000 6.124504e+000 3.840185e+000 2.107572e+000 3.557636e+000 2.850017e+000 2.031072e+000 7.564181e+000
<GCONST> 1.045489e+002
<STATE> 3
<MEAN> 25
 4.399481e+000 -1.512719e+000 -4.189704e+000 -5.470000e-001 -1.358851e+000 -6.104214e+000 -1.312565e+000 -1.396167e+000 -1.786746e+000 -2.275464e+000 4.063600e+000 2.230209e+000 4.451493e-002 1.118161e-001 -5.155024e-001 -5.935357e-001 -5.856386e-001 -2.280627e-001 -2.841718e-001 -1.799453e-002 -1.626635e-002 -1.637766e-002 2.631445e-001 3.792535e-001 -2.102729e-001
<VARIANCE> 25
 1.935224e+001 4.156912e+001 2.669192e+001 2.893451e+001 4.721342e+001 5.062247e+001 4.336495e+001 3.126366e+001 1.227518e+001 3.635490e+001 3.863242e+001 1.903504e+001 1.593240e+000 3.479994e+000 1.751946e+000 2.113997e+000 3.564712e+000 7.219085e+000 5.658449e+000 4.100199e+000 1.880918e+000 3.085392e+000 3.192506e+000 2.049408e+000 6.024200e+000
<GCONST> 1.018256e+002
<STATE> 4
<MEAN> 25
 4.135678e+000 -2.764713e-001 -5.676172e+000 -1.752028e+000 -2.833342e+000 -5.478316e+000 -1.476342e+000 -9.622160e-001 -1.634936e+000 -1.656099e+000 4.484607e+000 3.239087e+000 -1.501042e-001 5.199887e-001 -3.671658e-001 -3.286822e-001 -3.306738e-001 4.289767e-001 -8.209118e-002 2.091123e-001 9.751241e-002 1.733837e-001 -4.040914e-002 2.191918e-001 -7.774251e-001
<VARIANCE> 25
 1.556036e+001 3.285405e+001 2.056160e+001 1.900316e+001 3.104448e+001 4.707895e+001 3.813624e+001 3.193032e+001 1.035622e+001 3.363931e+001 3.912622e+001 1.506214e+001 1.477638e+000 1.921216e+000 1.726331e+000 1.943761e+000 3.162634e+000 5.297764e+000 4.242578e+000 3.710918e+000 1.683441e+000 2.541592e+000 3.357323e+000 1.873271e+000 3.683634e+000
<GCONST> 9.720152e+001
<TRANSP> 5
 0.000000e+000 1.000000e+000 0.000000e+000 0.000000e+000 0.000000e+000
 0.000000e+000 6.325945e-001 3.674056e-001 0.000000e+000 0.000000e+000
 0.000000e+000 0.000000e+000 6.325945e-001 3.674056e-001 0.000000e+000
 0.000000e+000 0.000000e+000 0.000000e+000 7.391868e-001 2.608132e-001
 0.000000e+000 0.000000e+000 0.000000e+000 0.000000e+000 0.000000e+000
<ENDHMM>
~h "e"
<BEGINHMM>
<NUMSTATES> 5
<STATE> 2
<MEAN> 25
 8.548751e-001 -2.698965e+000 3.405541e+000 -2.550383e+000 2.885946e-001 -2.695913e-001 -8.446956e-001 -2.318987e+000 -1.267472e+000 -1.709282e+000 6.785489e-001 -6.748162e-002 3.450118e-002 4.977110e-002 -2.512479e-001 -1.101262e-001 -1.009447e-001 1.269583e-002 7.557820e-002 2.029668e-001 4.999919e-003 -9.096228e-002 -5.775908e-003 1.109632e-001 -1.527448e-001
<VARIANCE> 25
 6.669071e+001 6.723736e+001 1.177269e+002 9.069907e+001 4.237692e+001 7.253990e+001 3.789839e+001 4.463076e+001 2.455454e+001 4.634729e+001 4.240793e+001 2.773547e+001 3.896506e+000 4.496074e+000 5.736224e+000 4.613494e+000 3.342264e+000 5.302137e+000 2.852562e+000 4.129193e+000 2.329728e+000 2.943204e+000 2.933669e+000 1.784849e+000 2.876386e+000
<GCONST> 1.093198e+002
<STATE> 3
<MEAN> 25
 1.030793e+000 -2.595157e+000 2.577355e+000 -2.840317e+000 -2.207605e-002 -4.307774e-001 -7.070268e-001 -1.760562e+000 -1.273740e+000 -2.023659e+000 7.119081e-001 1.576965e-001 4.499780e-002 4.559341e-003 -2.662802e-001 -1.229967e-001 -1.345715e-001 -5.784774e-002 5.998836e-002 1.720401e-001 -4.497581e-003 -9.088481e-002 2.830926e-002 9.234216e-002 -9.585644e-002
<VARIANCE> 25
 6.750567e+001 6.589255e+001 1.170281e+002 8.608394e+001 4.208599e+001 7.349541e+001 3.869442e+001 4.357461e+001 2.409750e+001 4.632142e+001 4.479663e+001 2.848910e+001 3.714486e+000 4.349066e+000 5.382983e+000 4.448189e+000 3.298558e+000 5.192332e+000 3.019609e+000 4.017939e+000 2.306545e+000 2.951782e+000 2.988457e+000 1.743881e+000 2.891011e+000
<GCONST> 1.091265e+002
<STATE> 4
<MEAN> 25
 1.624679e+000 -2.526215e+000 1.258673e+000 -3.001131e+000 -5.323004e-001 -1.097615e+000 -6.590519e-001 -1.343127e+000 -1.321715e+000 -2.327730e+000 1.042433e+000 3.675999e-001 6.759205e-002 2.294043e-003 -2.836992e-001 -4.688507e-002 -1.530302e-001 -1.067637e-001 2.697153e-002 7.835829e-002 6.339795e-004 -1.207437e-002 8.094233e-002 7.677747e-002 -7.266599e-002
<VARIANCE> 25
 6.382417e+001 6.184658e+001 1.119059e+002 7.810620e+001 4.118682e+001 7.296611e+001 4.005057e+001 4.291621e+001 2.396486e+001 4.538758e+001 4.662193e+001 3.166660e+001 3.357374e+000 4.183668e+000 5.081711e+000 4.159742e+000 3.235677e+000 4.978924e+000 3.145279e+000 3.748336e+000 2.186218e+000 2.928780e+000 3.045003e+000 1.809357e+000 2.743070e+000
<GCONST> 1.085625e+002
<TRANSP> 5
 0.000000e+000 1.000000e+000 0.000000e+000 0.000000e+000 0.000000e+000
 0.000000e+000 6.599858e-001 3.400142e-001 0.000000e+000 0.000000e+000
 0.000000e+000 0.000000e+000 6.599856e-001 3.400144e-001 0.000000e+000
 0.000000e+000 0.000000e+000 0.000000e+000 7.768333e-001 2.231667e-001
 0.000000e+000 0.000000e+000 0.000000e+000 0.000000e+000 0.000000e+000
<ENDHMM>
~h "g"
<BEGINHMM>
<NUMSTATES> 5
<STATE> 2
<MEAN> 25
 7.173466e-001 2.813092e-001 6.702071e+000 2.821906e+000 2.775729e+000 -1.487003e+000 -2.859592e+000 -3.216300e+000 5.386826e-001 9.310916e-001 2.793862e-001 -3.936007e+000 1.453480e-001 -3.164927e-001 4.066234e-001 -2.232991e-001 -1.001364e-001 -5.731602e-002 -5.441583e-001 -5.401165e-001 -4.812255e-002 -3.666553e-003 3.033710e-001 8.246285e-002 5.294803e-001
<VARIANCE> 25
 3.037868e+001 9.874590e+001 5.363861e+001 7.538730e+001 3.910218e+001 5.966549e+001 5.695212e+001 7.568182e+001 3.033050e+001 2.243522e+001 4.054481e+001 2.080824e+001 2.853497e+000 8.005167e+000 4.976650e+000 4.432775e+000 3.186440e+000 4.999676e+000 4.064520e+000 7.196615e+000 2.010347e+000 2.363922e+000 2.675923e+000 2.492795e+000 3.963798e+000
<GCONST> 1.088425e+002
<STATE> 3
<MEAN> 25
 1.949712e-001 -1.246268e+000 8.030604e+000 1.284468e+000 2.280533e+000 -8.580785e-001 -3.692962e+000 -3.763191e+000 4.708050e-001 1.019322e+000 8.211002e-001 -3.489966e+000 -2.646658e-001 -5.533808e-001 4.774430e-001 -6.266338e-001 -2.133002e-001 2.919230e-001 -2.394030e-001 -7.969785e-002 -4.137731e-002 3.630816e-002 2.273719e-001 1.632056e-001 2.811860e-001
<VARIANCE> 25
 4.510368e+001 9.454379e+001 7.396700e+001 1.006217e+002 4.281420e+001 6.786269e+001 5.104061e+001 6.839679e+001 3.025404e+001 2.220085e+001 3.813458e+001 2.121477e+001 3.615633e+000 6.410205e+000 5.996827e+000 5.029472e+000 3.445581e+000 5.555231e+000 3.722725e+000 7.100668e+000 2.271725e+000 2.194748e+000 2.539255e+000 2.401017e+000 3.122653e+000
<GCONST> 1.098871e+002
<STATE> 4
<MEAN> 25
 -1.466469e+000 -3.987328e+000 9.715246e+000 -2.325674e+000 1.363499e+000 9.012445e-001 -3.526592e+000 -2.973953e+000 2.762421e-001 9.024203e-001 1.410077e+000 -2.481485e+000 -4.496473e-001 -6.369866e-001 4.004030e-001 -8.315222e-001 -2.136137e-001 4.238959e-001 1.602238e-002 2.172754e-001 -8.678506e-002 -1.179462e-002 2.078680e-001 2.015664e-001 1.567648e-001
<VARIANCE> 25
 7.019214e+001 8.595799e+001 1.056874e+002 1.319395e+002 4.774812e+001 8.201810e+001 4.821854e+001 5.590686e+001 2.875584e+001 2.284298e+001 3.518206e+001 2.494236e+001 4.578820e+000 5.350630e+000 7.283143e+000 6.207415e+000 3.687953e+000 5.886503e+000 3.634301e+000 6.115473e+000 2.538192e+000 2.020291e+000 2.364391e+000 2.031183e+000 2.203703e+000
<GCONST> 1.108147e+002
<TRANSP> 5
 0.000000e+000 1.000000e+000 0.000000e+000 0.000000e+000 0.000000e+000
 0.000000e+000 6.633021e-001 3.366979e-001 0.000000e+000 0.000000e+000
 0.000000e+000 0.000000e+000 6.633022e-001 3.366978e-001 0.000000e+000
 0.000000e+000 0.000000e+000 0.000000e+000 7.781250e-001 2.218749e-001
 0.000000e+000 0.000000e+000 0.000000e+000 0.000000e+000 0.000000e+000
<ENDHMM>
~h "i"
<BEGINHMM>
<NUMSTATES> 5
<STATE> 2
<MEAN> 25
 -5.518373e-001 5.750017e-001 3.435816e-001 6.109199e+000 2.720624e+000 -1.962343e+000 -3.150698e+000 3.158015e-001 -3.507047e-001 4.011201e-002 -9.129440e-001 -1.560511e+000 -1.629226e-001 2.034671e-001 -2.710496e-002 2.111048e-001 5.891220e-002 1.050318e-001 3.394117e-002 1.854749e-002 1.054157e-001 1.111198e-001 -1.866922e-001 3.393333e-002 -3.520828e-001
<VARIANCE> 25
 2.705478e+001 4.308162e+001 4.220367e+001 5.563354e+001 4.010653e+001 5.538153e+001 4.230307e+001 4.010794e+001 2.975537e+001 3.050752e+001 3.483265e+001 3.718773e+001 9.658195e-001 2.234799e+000 2.347990e+000 3.312586e+000 2.636612e+000 3.573122e+000 3.686229e+000 2.408064e+000 1.830129e+000 1.585144e+000 2.224383e+000 1.911094e+000 1.668409e+000
<GCONST> 1.001600e+002
<STATE> 3
<MEAN> 25
 -1.147387e+000 1.151845e+000 1.546653e-001 6.431110e+000 2.698596e+000 -1.511097e+000 -2.875663e+000 4.229438e-001 2.999178e-002 4.251157e-001 -1.443456e+000 -1.355458e+000 -1.846161e-001 2.165985e-001 -6.279279e-002 1.343233e-001 -1.209289e-002 1.289078e-001 1.062014e-001 9.165594e-002 1.469702e-001 1.561241e-001 -1.442750e-001 6.990412e-002 -3.832201e-001
<VARIANCE> 25
 2.684668e+001 4.008008e+001 3.856714e+001 5.338359e+001 3.727654e+001 5.657309e+001 4.108413e+001 4.057602e+001 2.912586e+001 2.858012e+001 3.255103e+001 3.567779e+001 8.527839e-001 1.949712e+000 2.111584e+000 2.962077e+000 2.412604e+000 3.329108e+000 3.520889e+000 2.318567e+000 1.731332e+000 1.500099e+000 2.078227e+000 1.765552e+000 1.398839e+000
<GCONST> 9.852710e+001
<STATE> 4
<MEAN> 25
 -2.578359e+000 1.421232e+000 -2.957555e-001 5.788105e+000 1.971272e+000 -2.461237e-001 -1.845167e+000 8.056977e-001 6.290927e-001 1.105229e+000 -1.853013e+000 -6.776211e-001 -1.685426e-001 1.567956e-001 -9.924397e-002 6.270834e-003 -9.796177e-002 1.325184e-001 1.224042e-001 1.187603e-001 1.535195e-001 1.556807e-001 -7.158145e-002 8.669238e-002 -3.267211e-001
<VARIANCE> 25
 2.705299e+001 3.826622e+001 3.220370e+001 5.025608e+001 3.305547e+001 5.694129e+001 3.763760e+001 3.613198e+001 2.695021e+001 2.389236e+001 2.563608e+001 3.225726e+001 6.869771e-001 1.533034e+000 1.688069e+000 2.213206e+000 1.936576e+000 2.810848e+000 2.970904e+000 1.961555e+000 1.500077e+000 1.328709e+000 1.686208e+000 1.521662e+000 1.030286e+000
<GCONST> 9.470786e+001
<TRANSP> 5
 0.000000e+000 1.000000e+000 0.000000e+000 0.000000e+000 0.000000e+000
 0.000000e+000 6.907501e-001 3.092499e-001 0.000000e+000 0.000000e+000
 0.000000e+000 0.000000e+000 6.907498e-001 3.092501e-001 0.000000e+000
 0.000000e+000 0.000000e+000 0.000000e+000 8.283395e-001 1.716605e-001
 0.000000e+000 0.000000e+000 0.000000e+000 0.000000e+000 0.000000e+000
<ENDHMM>
~h "j"
<BEGINHMM>
<NUMSTATES> 5
<STATE> 2
<MEAN> 25
 1.130664e+000 -1.720712e+000 5.193357e+000 5.051780e+000 3.610593e+000 -3.430491e-001 1.290245e-001 2.369249e-001 1.341907e+000 -1.621302e+000 -4.014972e+000 -5.591161e+000 4.300977e-001 4.336342e-001 -3.986169e-001 7.255826e-001 3.238926e-001 -3.691780e-001 -3.094450e-002 -2.905131e-001 -2.573631e-001 1.936889e-002 1.359547e-001 1.177358e-001 -3.097420e-001
<VARIANCE> 25
 3.321882e+001 1.137162e+002 5.237441e+001 6.634605e+001 3.492191e+001 4.082262e+001 4.143312e+001 5.226116e+001 2.284397e+001 2.109520e+001 4.070216e+001 1.502136e+001 3.955822e+000 9.801579e+000 5.973668e+000 6.745720e+000 5.273872e+000 5.963864e+000 2.979533e+000 2.990345e+000 2.369032e+000 2.929173e+000 3.498765e+000 1.515931e+000 5.533117e+000
<GCONST> 1.081793e+002
<STATE> 3
<MEAN> 25
 1.725673e+000 -5.363193e-001 4.409236e+000 6.355127e+000 4.266401e+000 -4.882744e-001 4.507669e-002 -2.774879e-001 7.532126e-001 -1.137462e+000 -3.356951e+000 -4.848395e+000 1.061454e-001 2.369433e-001 -2.085091e-001 2.980082e-001 1.252815e-001 2.762051e-002 1.958217e-002 -1.491073e-001 -2.772797e-001 2.298513e-001 3.929324e-001 3.242714e-001 -3.637034e-001
<VARIANCE> 25
 2.247018e+001 9.608168e+001 4.602090e+001 5.036981e+001 3.445561e+001 4.413210e+001 3.920718e+001 5.172707e+001 2.422096e+001 2.482060e+001 3.820942e+001 1.667913e+001 3.394299e+000 1.065746e+001 5.939979e+000 6.090339e+000 5.110027e+000 6.675105e+000 3.117658e+000 2.688238e+000 2.711345e+000 3.188926e+000 3.557100e+000 1.686346e+000 7.044601e+000
<GCONST> 1.079039e+002
<STATE> 4
<MEAN> 25
 1.534132e+000 4.142805e-002 4.068694e+000 6.536149e+000 4.645233e+000 4.588053e-001 2.088142e-001 -4.042495e-001 5.182809e-002 -3.573292e-001 -1.998432e+000 -3.620943e+000 -1.387165e-001 -3.375422e-002 -7.338199e-002 -1.466529e-001 -6.202643e-002 2.662659e-001 7.029609e-002 7.857485e-003 -2.430091e-001 2.191884e-001 5.050931e-001 3.808090e-001 -2.619659e-001
<VARIANCE> 25
 2.093498e+001 9.011443e+001 4.665498e+001 4.482218e+001 3.958261e+001 5.182304e+001 3.543367e+001 4.518554e+001 2.434289e+001 2.930590e+001 3.873443e+001 1.757819e+001 2.877979e+000 1.179926e+001 6.021992e+000 5.085794e+000 5.118587e+000 7.306045e+000 3.470603e+000 2.851220e+000 3.196901e+000 3.705286e+000 4.054901e+000 1.850939e+000 9.544281e+000
<GCONST> 1.088371e+002
<TRANSP> 5
 0.000000e+000 1.000000e+000 0.000000e+000 0.000000e+000 0.000000e+000
 0.000000e+000 5.983645e-001 4.016355e-001 0.000000e+000 0.000000e+000
 0.000000e+000 0.000000e+000 5.983644e-001 4.016356e-001 0.000000e+000
 0.000000e+000 0.000000e+000 0.000000e+000 7.030526e-001 2.969474e-001
 0.000000e+000 0.000000e+000 0.000000e+000 0.000000e+000 0.000000e+000
<ENDHMM>
~h "k"
<BEGINHMM>
<NUMSTATES> 5
<STATE> 2
<MEAN> 25
 -1.087497e-001 -7.321615e-001 -4.900188e-001 -1.242497e-001 3.035003e-001 -1.585422e+000 -9.132283e-001 2.569219e-001 -2.520406e+000 -1.478763e+000 1.460484e+000 8.914103e-001 1.414230e-001 -7.396977e-002 7.383025e-002 1.457374e-001 7.081755e-002 -2.871312e-001 1.391302e-002 -2.623207e-002 -8.610833e-003 -9.335514e-002 -5.055247e-003 -1.750600e-001 2.721433e-001
<VARIANCE> 25
 3.581052e+001 5.698306e+001 6.442927e+001 4.782191e+001 5.044115e+001 5.295493e+001 4.816859e+001 3.639606e+001 2.823923e+001 3.811364e+001 4.020021e+001 3.739141e+001 2.029875e+000 4.920484e+000 3.267776e+000 4.072433e+000 3.448164e+000 4.548177e+000 3.535726e+000 3.483092e+000 2.619400e+000 2.448163e+000 3.297708e+000 2.263828e+000 5.112817e+000
<GCONST> 1.069104e+002
<STATE> 3
<MEAN> 25
 3.682805e-001 -8.545818e-001 -2.625063e-001 3.178983e-001 5.594574e-001 -2.279792e+000 -9.660883e-001 1.581495e-001 -2.436773e+000 -1.878142e+000 1.267249e+000 3.046449e-001 1.677807e-001 -6.649818e-002 9.203766e-002 1.251731e-001 7.928608e-002 -2.172207e-001 -2.889422e-002 -5.737827e-002 4.689581e-002 -1.083477e-001 -4.875486e-002 -1.975552e-001 2.979351e-001
<VARIANCE> 25
 3.477452e+001 5.487146e+001 5.825191e+001 4.936601e+001 5.297738e+001 5.175875e+001 4.907635e+001 3.648452e+001 2.739613e+001 3.743894e+001 4.352021e+001 3.946591e+001 1.699843e+000 4.405272e+000 3.112615e+000 4.018247e+000 3.478183e+000 4.348803e+000 3.439216e+000 3.389882e+000 2.624220e+000 2.174449e+000 3.436885e+000 2.301799e+000 4.752817e+000
<GCONST> 1.063340e+002
<STATE> 4
<MEAN> 25
 1.080729e+000 -8.101382e-001 1.383482e-001 9.154641e-001 1.089892e+000 -2.919921e+000 -1.207924e+000 7.711320e-002 -2.128442e+000 -2.435988e+000 7.462000e-001 -7.062432e-001 1.688467e-001 -2.869671e-002 8.612361e-002 1.165903e-001 7.181391e-002 -1.572448e-001 -3.114092e-002 -2.199803e-002 8.560129e-002 -1.010228e-001 -8.282086e-002 -2.119413e-001 2.558395e-001
<VARIANCE> 25
 3.177748e+001 5.164267e+001 4.911546e+001 5.344118e+001 5.581559e+001 5.092196e+001 5.074344e+001 3.812150e+001 2.779437e+001 3.685186e+001 5.085570e+001 4.357326e+001 1.311749e+000 3.712166e+000 2.761199e+000 4.029907e+000 3.462543e+000 4.108768e+000 3.405258e+000 3.260855e+000 2.705054e+000 1.921604e+000 3.691801e+000 2.388553e+000 4.083528e+000
<GCONST> 1.056647e+002
<TRANSP> 5
 0.000000e+000 1.000000e+000 0.000000e+000 0.000000e+000 0.000000e+000
 0.000000e+000 6.828344e-001 3.171656e-001 0.000000e+000 0.000000e+000
 0.000000e+000 0.000000e+000 6.828343e-001 3.171657e-001 0.000000e+000
 0.000000e+000 0.000000e+000 0.000000e+000 8.001055e-001 1.998945e-001
 0.000000e+000 0.000000e+000 0.000000e+000 0.000000e+000 0.000000e+000
<ENDHMM>
~h "l"
<BEGINHMM>
<NUMSTATES> 5
<STATE> 2
<MEAN> 25
 4.328840e+000 -1.141805e+000 -7.827055e-001 -2.993237e+000 -1.812499e+000 -4.190238e+000 1.136521e+000 -5.643165e-001 -1.216777e+000 -3.693695e+000 2.919186e-001 -9.071025e-001 -3.187370e-002 -3.267304e-001 7.816746e-002 2.446517e-002 -1.944583e-001 4.311764e-002 -3.843373e-002 -6.483335e-002 6.016067e-002 2.898116e-001 3.428930e-001 3.553611e-002 1.194846e-001
<VARIANCE> 25
 3.555900e+001 6.743231e+001 5.188734e+001 4.751367e+001 4.430187e+001 5.751613e+001 3.132408e+001 3.184878e+001 3.366475e+001 5.026522e+001 5.043332e+001 3.161133e+001 1.567740e+000 2.312280e+000 2.864656e+000 3.017400e+000 3.570102e+000 3.818142e+000 2.121948e+000 2.619767e+000 2.645330e+000 2.637965e+000 3.401933e+000 1.951851e+000 1.582292e+000
<GCONST> 1.031630e+002
<STATE> 3
<MEAN> 25
 4.159642e+000 -1.818596e+000 -4.683591e-001 -2.815201e+000 -2.156329e+000 -4.004309e+000 1.178819e+000 -6.699164e-001 -1.237659e+000 -2.768012e+000 1.339572e+000 -7.971154e-001 -7.167828e-002 -3.089306e-001 1.197028e-001 8.809108e-002 -1.320623e-001 1.005777e-001 -3.521776e-002 -2.059420e-002 2.131863e-002 2.879101e-001 3.739672e-001 3.336407e-002 5.781969e-002
<VARIANCE> 25
 3.612745e+001 6.678105e+001 5.799586e+001 5.237429e+001 4.875306e+001 5.787468e+001 3.054584e+001 3.273809e+001 3.292969e+001 4.884245e+001 4.824797e+001 3.106406e+001 1.736271e+000 2.383723e+000 3.083650e+000 3.066803e+000 4.010591e+000 4.056851e+000 2.236882e+000 2.562853e+000 2.492393e+000 2.729410e+000 3.416552e+000 1.966322e+000 1.715514e+000
<GCONST> 1.038669e+002
<STATE> 4
<MEAN> 25
 4.522054e+000 -5.785348e-001 3.375134e-001 -1.573470e+000 -1.183579e+000 -3.414384e+000 9.359591e-001 -4.896686e-001 -1.290090e+000 -1.224530e+000 2.335957e+000 -5.771483e-001 -1.205275e-001 -1.165336e-001 7.373691e-002 1.091124e-001 -1.942394e-002 1.685013e-001 -5.181789e-002 -1.688707e-002 2.854793e-002 2.535663e-001 1.996178e-001 5.567713e-002 -1.249951e-001
<VARIANCE> 25
 4.510816e+001 1.021202e+002 6.963263e+001 6.037558e+001 5.351727e+001 6.061592e+001 3.533698e+001 3.368964e+001 2.851298e+001 4.409870e+001 4.514608e+001 2.720886e+001 2.025084e+000 2.547422e+000 3.595891e+000 3.212740e+000 4.109157e+000 4.253411e+000 2.639293e+000 2.560961e+000 2.107299e+000 2.656283e+000 3.297182e+000 2.027115e+000 1.927327e+000
<GCONST> 1.052805e+002
<TRANSP> 5
 0.000000e+000 1.000000e+000 0.000000e+000 0.000000e+000 0.000000e+000
 0.000000e+000 6.749360e-001 3.250640e-001 0.000000e+000 0.000000e+000
 0.000000e+000 0.000000e+000 6.749361e-001 3.250640e-001 0.000000e+000
 0.000000e+000 0.000000e+000 0.000000e+000 8.290548e-001 1.709452e-001
 0.000000e+000 0.000000e+000 0.000000e+000 0.000000e+000 0.000000e+000
<ENDHMM>
~h "m"
<BEGINHMM>
<NUMSTATES> 5
<STATE> 2
<MEAN> 25
 -4.195045e-001 3.735309e+000 1.048737e+000 -2.909455e+000 3.287079e-001 -9.809742e-001 9.070687e-001 5.536158e-001 -7.301923e-002 -1.008923e+000 -6.805959e-001 -1.029635e+000 4.290685e-001 -1.441858e-001 -2.194104e-001 -6.888837e-002 2.537836e-001 -7.241564e-001 -1.606820e-001 -7.615538e-002 1.205767e-001 -2.072009e-001 -1.909586e-001 -1.733586e-001 6.849334e-001
<VARIANCE> 25
 3.772488e+001 5.860788e+001 2.435040e+001 2.196868e+001 5.679559e+001 5.937046e+001 3.610902e+001 2.602557e+001 9.998622e+000 2.358106e+001 2.526593e+001 2.181932e+001 1.289122e+000 2.249832e+000 1.793315e+000 1.694996e+000 4.673708e+000 5.868369e+000 4.137642e+000 2.695887e+000 1.062084e+000 1.452201e+000 2.826346e+000 2.210145e+000 1.320023e+000
<GCONST> 9.711726e+001
<STATE> 3
<MEAN> 25
 7.223120e-001 2.497665e+000 3.269534e-001 -2.949901e+000 6.908585e-001 -2.226154e+000 4.699642e-001 2.406067e-001 2.140740e-001 -1.761856e+000 -1.123574e+000 -1.157520e+000 2.993098e-001 -4.704655e-001 -2.547336e-001 -6.125978e-002 1.774006e-002 -3.560306e-001 -1.747200e-001 -1.861599e-001 6.939301e-002 -2.339671e-001 -1.406372e-001 2.085905e-002 5.779851e-001
<VARIANCE> 25
 4.197758e+001 5.560098e+001 2.031320e+001 2.015665e+001 6.221974e+001 4.873821e+001 3.342613e+001 2.901426e+001 9.819818e+000 2.847909e+001 2.896075e+001 2.473704e+001 1.143983e+000 1.957057e+000 1.568399e+000 1.706130e+000 4.883772e+000 4.950552e+000 3.641609e+000 3.431743e+000 1.010792e+000 1.443572e+000 2.933585e+000 2.566000e+000 1.143996e+000
<GCONST> 9.685125e+001
<STATE> 4
<MEAN> 25
 3.291621e+000 -1.035960e+000 2.861873e-001 -2.719780e+000 3.767763e-001 -2.662525e+000 -3.559486e-001 -6.935782e-002 5.199016e-001 -2.637808e+000 -7.657322e-002 -1.483307e+000 2.498226e-001 -3.286382e-001 -5.871434e-002 -3.435390e-002 -4.524778e-002 -6.097933e-002 -6.810940e-002 -8.362578e-002 1.972915e-002 -1.622360e-001 3.474329e-002 4.887122e-003 4.137086e-001
<VARIANCE> 25
 7.436397e+001 5.174771e+001 2.368312e+001 2.384132e+001 5.952012e+001 4.860153e+001 3.597962e+001 3.451916e+001 1.216465e+001 3.654141e+001 3.809753e+001 4.031639e+001 1.799604e+000 2.150930e+000 1.745866e+000 2.369350e+000 4.768988e+000 3.372127e+000 3.095199e+000 3.462174e+000 1.097003e+000 1.526660e+000 2.971810e+000 3.596797e+000 1.231148e+000
<GCONST> 1.000824e+002
<TRANSP> 5
 0.000000e+000 1.000000e+000 0.000000e+000 0.000000e+000 0.000000e+000
 0.000000e+000 7.391241e-001 2.608759e-001 0.000000e+000 0.000000e+000
 0.000000e+000 0.000000e+000 7.391242e-001 2.608759e-001 0.000000e+000
 0.000000e+000 0.000000e+000 0.000000e+000 9.054103e-001 9.458968e-002
 0.000000e+000 0.000000e+000 0.000000e+000 0.000000e+000 0.000000e+000
<ENDHMM>
~h "n"
<BEGINHMM>
<NUMSTATES> 5
<STATE> 2
<MEAN> 25
 3.591005e+000 6.917238e-001 -3.187203e+000 4.152365e-001 -6.047890e-001 -9.667138e-001 3.521971e+000 2.025066e+000 7.865394e-001 -1.610561e+000 7.073438e-001 2.888323e-001 -2.770819e-002 5.147684e-001 2.305146e-002 5.097852e-001 3.706901e-001 2.173732e-001 -4.011891e-002 2.291413e-001 1.773686e-001 -7.538610e-003 -5.529364e-001 -1.857066e-001 -4.963407e-001
<VARIANCE> 25
 1.308985e+001 5.995087e+001 3.178973e+001 5.958106e+001 5.653665e+001 3.297293e+001 4.432008e+001 3.689465e+001 2.605167e+001 2.850698e+001 8.012408e+001 2.542624e+001 6.231669e-001 3.044362e+000 1.945671e+000 4.949294e+000 5.039272e+000 3.183694e+000 3.344318e+000 2.991413e+000 2.165779e+000 1.718323e+000 7.220109e+000 2.340190e+000 3.245488e+000
<GCONST> 1.026205e+002
<STATE> 3
<MEAN> 25
 3.445576e+000 1.979212e+000 -3.099292e+000 1.702956e+000 3.370135e-001 -3.924865e-001 3.413367e+000 2.574238e+000 1.150658e+000 -1.590908e+000 -6.406602e-001 -2.055985e-001 -1.089718e-001 4.817805e-001 5.432693e-002 5.569179e-001 3.669236e-001 1.980340e-001 -5.603423e-003 2.034013e-001 1.021086e-001 7.221123e-002 -5.436138e-001 -2.022769e-001 -5.501193e-001
<VARIANCE> 25
 1.292330e+001 6.259943e+001 3.360575e+001 6.289929e+001 5.697931e+001 3.443012e+001 4.174518e+001 3.407495e+001 2.481787e+001 2.951753e+001 7.853748e+001 2.659027e+001 5.969397e-001 2.927000e+000 2.029424e+000 4.796625e+000 4.726048e+000 3.151584e+000 3.267161e+000 2.647529e+000 1.995084e+000 1.826195e+000 6.860610e+000 2.255001e+000 2.842761e+000
<GCONST> 1.021503e+002
<STATE> 4
<MEAN> 25
 2.985058e+000 2.849749e+000 -2.738525e+000 2.954757e+000 1.137279e+000 1.514937e-001 3.558712e+000 2.802636e+000 1.050882e+000 -1.322143e+000 -1.682880e+000 -6.759776e-001 -1.713395e-001 3.391822e-001 1.054095e-001 4.644426e-001 2.325181e-001 1.275036e-001 3.828254e-002 4.579332e-002 -5.500363e-002 2.144963e-001 -3.569280e-001 -1.716545e-001 -4.767542e-001
<VARIANCE> 25
 1.487008e+001 6.452280e+001 3.716866e+001 6.424497e+001 5.848361e+001 3.616519e+001 4.114903e+001 2.913577e+001 2.469883e+001 3.315088e+001 7.196533e+001 2.801081e+001 5.987122e-001 2.939481e+000 2.167490e+000 4.531777e+000 4.518703e+000 3.316057e+000 3.324724e+000 2.140116e+000 1.884810e+000 1.965703e+000 6.372381e+000 2.128628e+000 2.574672e+000
<GCONST> 1.020361e+002
<TRANSP> 5
 0.000000e+000 1.000000e+000 0.000000e+000 0.000000e+000 0.000000e+000
 0.000000e+000 6.408525e-001 3.591475e-001 0.000000e+000 0.000000e+000
 0.000000e+000 0.000000e+000 6.408522e-001 3.591478e-001 0.000000e+000
 0.000000e+000 0.000000e+000 0.000000e+000 7.600215e-001 2.399785e-001
 0.000000e+000 0.000000e+000 0.000000e+000 0.000000e+000 0.000000e+000
<ENDHMM>
~h "p"
<BEGINHMM>
<NUMSTATES> 5
<STATE> 2
<MEAN> 25
 1.300193e+000 1.098312e+000 1.528693e+000 -3.012179e+000 -2.644621e+000 -6.952564e-001 2.695158e+000 -8.802521e-001 -1.313560e+000 -1.051265e+000 -2.911068e+000 -3.863858e+000 -3.617186e-001 3.616745e-001 -1.790297e-003 1.552658e-001 -6.823239e-002 1.772608e-001 1.048763e-001 1.762582e-001 -1.869520e-001 4.441316e-002 -1.827259e-001 1.873142e-001 -7.171959e-001
<VARIANCE> 25
 3.842611e+001 7.387858e+001 1.859240e+001 2.969768e+001 2.518673e+001 7.916382e+001 5.375790e+001 2.743574e+001 3.005132e+001 2.660646e+001 3.566111e+001 2.655832e+001 2.716968e+000 6.970051e+000 1.724551e+000 3.797462e+000 3.070544e+000 7.973814e+000 4.642526e+000 3.240946e+000 2.979815e+000 2.821700e+000 3.669977e+000 1.991948e+000 8.545946e+000
<GCONST> 1.056371e+002
<STATE> 3
<MEAN> 25
 -3.219069e-001 1.979401e+000 1.457594e+000 -2.421908e+000 -2.786094e+000 2.591240e-001 2.416620e+000 -5.114563e-001 -1.564664e+000 -5.332585e-001 -2.996671e+000 -2.682935e+000 -5.639765e-001 2.215090e-001 -4.885489e-002 1.841157e-001 -4.082492e-002 3.527555e-001 -1.308648e-001 9.795763e-002 -7.494711e-002 2.026238e-001 1.675731e-002 3.889706e-001 -8.800664e-001
<VARIANCE> 25
 4.591700e+001 6.719538e+001 1.969000e+001 3.132574e+001 2.375460e+001 7.664404e+001 4.745896e+001 2.687513e+001 2.922621e+001 2.748009e+001 3.730413e+001 2.875800e+001 3.053845e+000 6.619614e+000 1.919374e+000 3.555230e+000 2.704192e+000 7.180131e+000 4.186064e+000 3.433634e+000 3.065442e+000 2.878792e+000 3.575652e+000 1.886154e+000 9.454037e+000
<GCONST> 1.056215e+002
<STATE> 4
<MEAN> 25
 -1.885366e+000 1.273516e+000 1.387056e+000 -2.905671e+000 -3.293103e+000 1.381256e+000 1.172590e+000 -6.640818e-001 -8.242567e-001 4.042810e-001 -1.878477e+000 -7.851332e-001 -2.851579e-001 -1.949209e-001 -4.376279e-002 -1.569697e-001 -1.256886e-001 2.243944e-001 -2.280820e-001 -4.464008e-002 1.607895e-001 1.784344e-001 2.537446e-001 3.658652e-001 -1.852711e-001
<VARIANCE> 25
 4.437871e+001 6.558852e+001 2.463877e+001 3.621051e+001 2.349704e+001 5.952103e+001 4.503702e+001 2.413318e+001 2.980605e+001 2.598444e+001 4.265517e+001 2.813980e+001 3.324691e+000 6.050224e+000 2.210354e+000 3.103554e+000 2.576368e+000 5.699976e+000 3.382831e+000 3.144607e+000 2.753117e+000 2.756135e+000 3.511533e+000 1.689325e+000 1.030808e+001
<GCONST> 1.048119e+002
<TRANSP> 5
 0.000000e+000 1.000000e+000 0.000000e+000 0.000000e+000 0.000000e+000
 0.000000e+000 6.836791e-001 3.163209e-001 0.000000e+000 0.000000e+000
 0.000000e+000 0.000000e+000 6.836793e-001 3.163207e-001 0.000000e+000
 0.000000e+000 0.000000e+000 0.000000e+000 8.025692e-001 1.974308e-001
 0.000000e+000 0.000000e+000 0.000000e+000 0.000000e+000 0.000000e+000
<ENDHMM>
~h "r"
<BEGINHMM>
<NUMSTATES> 5
<STATE> 2
<MEAN> 25
 6.551775e-002 -1.262623e-002 -1.605564e+000 2.265231e+000 1.893902e+000 1.883067e-001 -1.584681e+000 5.029101e-001 -5.844316e-001 -4.352673e-001 2.806191e-001 1.105415e+000 -2.329468e-001 2.251601e-001 1.082166e-003 1.777149e-001 6.588864e-003 5.389076e-002 3.810738e-002 1.763236e-001 -4.480308e-002 4.337130e-002 -1.421057e-001 -1.289325e-002 -4.547851e-001
<VARIANCE> 25
 3.460862e+001 4.875872e+001 6.358873e+001 5.322020e+001 4.426988e+001 6.341515e+001 3.967052e+001 4.311000e+001 2.822252e+001 3.707394e+001 3.419542e+001 4.301789e+001 1.861254e+000 3.620395e+000 3.129293e+000 2.481453e+000 3.113484e+000 3.616756e+000 3.084472e+000 3.305616e+000 1.997766e+000 2.472805e+000 2.603756e+000 2.240600e+000 3.002391e+000
<GCONST> 1.042972e+002
<STATE> 3
<MEAN> 25
 -6.972442e-001 5.749711e-001 -1.474283e+000 2.724471e+000 1.854366e+000 3.039719e-001 -1.493245e+000 9.724267e-001 -6.656353e-001 -2.509564e-001 -1.184954e-001 1.028067e+000 -2.435049e-001 1.649176e-001 5.072140e-002 1.313937e-001 -4.522493e-002 1.974167e-002 5.127182e-002 1.292916e-001 -2.481236e-002 6.797466e-002 -1.355149e-001 -3.155263e-002 -3.812137e-001
<VARIANCE> 25
 3.631250e+001 4.709460e+001 6.409623e+001 5.050391e+001 4.512112e+001 6.594315e+001 4.107468e+001 4.043591e+001 2.858660e+001 3.697393e+001 3.501994e+001 4.167979e+001 1.839839e+000 3.618760e+000 3.086940e+000 2.575532e+000 3.147283e+000 3.725025e+000 3.229517e+000 3.287204e+000 2.123048e+000 2.363712e+000 2.751097e+000 2.253233e+000 3.222135e+000
<GCONST> 1.045365e+002
<STATE> 4
<MEAN> 25
 -1.611453e+000 1.094186e+000 -1.100010e+000 3.153778e+000 1.747024e+000 3.103867e-001 -1.402464e+000 1.357926e+000 -6.048492e-001 1.443377e-001 -5.557371e-001 7.965184e-001 -1.901520e-001 8.832941e-002 8.208929e-002 5.488683e-002 -8.279654e-002 2.835533e-003 5.942758e-002 4.934026e-002 7.682988e-003 7.476044e-002 -1.063345e-001 -4.585391e-002 -2.283844e-001
<VARIANCE> 25
 3.733469e+001 4.591414e+001 6.436492e+001 4.982610e+001 4.652978e+001 6.685742e+001 4.356823e+001 3.758565e+001 2.925237e+001 3.571720e+001 3.554542e+001 4.088951e+001 1.672527e+000 3.465668e+000 2.905332e+000 2.776592e+000 3.099818e+000 3.789294e+000 3.315665e+000 3.099697e+000 2.225236e+000 2.110868e+000 2.697987e+000 2.247654e+000 3.259054e+000
<GCONST> 1.043129e+002
<TRANSP> 5
 0.000000e+000 1.000000e+000 0.000000e+000 0.000000e+000 0.000000e+000
 0.000000e+000 6.845871e-001 3.154129e-001 0.000000e+000 0.000000e+000
 0.000000e+000 0.000000e+000 6.845873e-001 3.154126e-001 0.000000e+000
 0.000000e+000 0.000000e+000 0.000000e+000 8.010200e-001 1.989799e-001
 0.000000e+000 0.000000e+000 0.000000e+000 0.000000e+000 0.000000e+000
<ENDHMM>
~h "s"
<BEGINHMM>
<NUMSTATES> 5
<STATE> 2
<MEAN> 25
 -2.273493e+000 -5.556448e+000 5.623667e+000 -6.717454e+000 -7.096627e-001 1.835332e+000 -1.010838e+000 -1.414618e+000 1.241815e-001 1.274364e+000 2.084960e+000 1.229467e-001 2.760675e-001 1.290760e-001 -3.805811e-001 5.303196e-002 -3.762448e-003 -1.977268e-001 4.740766e-002 -9.658615e-002 -4.861685e-002 -1.822112e-001 -1.782448e-002 7.400875e-002 1.629099e-001
<VARIANCE> 25
 9.929221e+001 5.721852e+001 1.601458e+002 9.398666e+001 3.420703e+001 6.952681e+001 4.670379e+001 5.045536e+001 2.197754e+001 4.219241e+001 3.193542e+001 2.620905e+001 5.808563e+000 4.555248e+000 9.079958e+000 5.055942e+000 2.712015e+000 4.632602e+000 3.108714e+000 3.784747e+000 1.778833e+000 2.695804e+000 2.071184e+000 1.565591e+000 1.478797e+000
<GCONST> 1.085458e+002
<STATE> 3
<MEAN> 25
 -1.212768e+000 -4.919751e+000 4.134356e+000 -6.047595e+000 -6.946696e-001 1.193301e+000 -9.396594e-001 -1.781967e+000 -9.008286e-002 6.105986e-001 1.979522e+000 4.547150e-001 4.712011e-001 2.944057e-001 -6.424171e-001 2.517056e-001 4.201446e-004 -2.591695e-001 3.956272e-002 -1.422489e-001 -5.801344e-002 -2.250260e-001 -1.430524e-002 1.148625e-001 3.953560e-002
<VARIANCE> 25
 9.215254e+001 5.976023e+001 1.528578e+002 9.327229e+001 3.291590e+001 6.580030e+001 4.421203e+001 5.158837e+001 2.304370e+001 4.313448e+001 3.383664e+001 2.732909e+001 5.067525e+000 4.217968e+000 7.800780e+000 4.684838e+000 2.796064e+000 4.395238e+000 2.831180e+000 3.675723e+000 1.749921e+000 2.774393e+000 2.193845e+000 1.656127e+000 1.328703e+000
<GCONST> 1.079361e+002
<STATE> 4
<MEAN> 25
 8.623778e-001 -3.492877e+000 1.193488e+000 -4.262687e+000 -6.434507e-001 -9.700904e-002 -9.201113e-001 -2.162857e+000 -5.180594e-001 -4.910705e-001 1.907061e+000 1.181272e+000 4.857227e-001 3.869728e-001 -7.355717e-001 3.627265e-001 -1.853539e-003 -2.650099e-001 2.931543e-002 -8.831865e-002 -7.534774e-002 -2.526253e-001 -3.807588e-002 1.747504e-001 -1.505155e-001
<VARIANCE> 25
 7.250966e+001 6.119662e+001 1.345783e+002 9.047036e+001 3.207576e+001 6.111797e+001 4.232477e+001 5.068805e+001 2.767429e+001 4.765352e+001 3.717010e+001 2.928414e+001 4.063416e+000 3.680131e+000 6.017687e+000 4.044926e+000 2.951255e+000 4.217430e+000 2.611258e+000 3.508952e+000 1.812240e+000 2.966323e+000 2.507709e+000 1.771153e+000 1.420852e+000
<GCONST> 1.073388e+002
<TRANSP> 5
 0.000000e+000 1.000000e+000 0.000000e+000 0.000000e+000 0.000000e+000
 0.000000e+000 6.480184e-001 3.519816e-001 0.000000e+000 0.000000e+000
 0.000000e+000 0.000000e+000 6.480183e-001 3.519816e-001 0.000000e+000
 0.000000e+000 0.000000e+000 0.000000e+000 7.664674e-001 2.335327e-001
 0.000000e+000 0.000000e+000 0.000000e+000 0.000000e+000 0.000000e+000
<ENDHMM>
~h "t"
<BEGINHMM>
<NUMSTATES> 5
<STATE> 2
<MEAN> 25
 5.712062e-001 -3.569390e+000 8.327216e-001 -5.228179e+000 -2.853254e+000 9.152419e-001 -1.021949e+000 -1.689563e+000 1.454494e+000 2.467396e-001 3.157404e+000 1.612960e+000 2.459326e-001 1.813785e-001 -3.613903e-001 -1.587599e-003 1.926482e-001 -1.013486e-001 -1.286380e-001 -2.653879e-001 5.222321e-002 -2.324491e-002 6.755274e-002 2.531628e-001 8.810329e-002
<VARIANCE> 25
 3.388384e+001 5.314302e+001 5.545467e+001 4.500874e+001 3.760131e+001 3.030996e+001 3.715772e+001 3.352525e+001 3.286535e+001 3.010681e+001 4.149743e+001 2.467403e+001 2.470210e+000 4.723660e+000 3.191365e+000 2.094823e+000 3.288250e+000 2.755019e+000 2.394465e+000 3.882096e+000 2.038436e+000 2.609165e+000 3.977974e+000 1.579445e+000 5.808987e+000
<GCONST> 1.033184e+002
<STATE> 3
<MEAN> 25
 1.057721e+000 -2.830018e+000 -2.098633e-001 -4.877972e+000 -2.274933e+000 7.823223e-001 -1.276971e+000 -2.159523e+000 1.543348e+000 2.118977e-001 3.053487e+000 2.209570e+000 1.396842e-001 3.507487e-001 -4.501877e-001 1.698453e-001 1.883222e-001 -5.349435e-002 -5.356147e-002 -1.687710e-001 -2.239675e-003 6.610974e-003 -1.240137e-001 2.290300e-001 -2.592033e-001
<VARIANCE> 25
 3.024291e+001 5.116753e+001 5.474520e+001 4.592373e+001 3.942276e+001 2.949224e+001 3.483628e+001 3.417402e+001 3.362607e+001 3.125399e+001 3.653114e+001 2.299657e+001 2.158366e+000 3.742176e+000 3.052142e+000 1.999317e+000 3.240523e+000 2.427818e+000 2.293312e+000 3.660773e+000 1.871363e+000 2.651375e+000 3.362083e+000 1.610681e+000 5.032175e+000
<GCONST> 1.019474e+002
<STATE> 4
<MEAN> 25
 1.274833e+000 -1.600755e+000 -1.628795e+000 -4.001825e+000 -1.583456e+000 8.640547e-001 -1.331484e+000 -2.091098e+000 1.587616e+000 3.006988e-001 2.387327e+000 2.711404e+000 -6.752232e-002 3.639019e-001 -3.502554e-001 3.017529e-001 1.627765e-001 4.717559e-002 -1.480108e-002 2.130186e-002 -8.693333e-002 3.967600e-002 -2.223156e-001 1.295829e-001 -5.578029e-001
<VARIANCE> 25
 2.888787e+001 5.202594e+001 5.496941e+001 4.541257e+001 3.847597e+001 2.887827e+001 3.255103e+001 3.175953e+001 3.178279e+001 3.248198e+001 3.238901e+001 2.179320e+001 1.816805e+000 2.874482e+000 2.866122e+000 1.967721e+000 2.976804e+000 2.148938e+000 2.083330e+000 2.885262e+000 1.735786e+000 2.556669e+000 2.504965e+000 1.610469e+000 3.830194e+000
<GCONST> 9.979789e+001
<TRANSP> 5
 0.000000e+000 1.000000e+000 0.000000e+000 0.000000e+000 0.000000e+000
 0.000000e+000 6.503677e-001 3.496324e-001 0.000000e+000 0.000000e+000
 0.000000e+000 0.000000e+000 6.503680e-001 3.496320e-001 0.000000e+000
 0.000000e+000 0.000000e+000 0.000000e+000 7.697752e-001 2.302248e-001
 0.000000e+000 0.000000e+000 0.000000e+000 0.000000e+000 0.000000e+000
<ENDHMM>
~h "u"
<BEGINHMM>
<NUMSTATES> 5
<STATE> 2
<MEAN> 25
 1.276990e+000 -1.242113e+000 1.118292e+000 -2.106601e+000 -2.025836e+000 -8.448262e-001 5.089512e-001 -4.942493e-001 1.940973e-001 -6.019408e-001 1.063194e-001 -1.136453e+000 -3.811083e-002 -5.331087e-001 -1.322780e-002 -2.564030e-001 -1.577747e-001 1.649010e-001 -1.795492e-001 -1.839187e-001 6.164574e-002 7.215776e-002 3.512009e-001 2.482587e-001 2.842532e-001
<VARIANCE> 25
 4.684636e+001 6.302950e+001 3.561530e+001 3.928475e+001 4.107482e+001 5.196001e+001 3.410046e+001 3.496786e+001 2.473359e+001 3.372252e+001 4.731917e+001 3.111658e+001 2.395544e+000 5.034780e+000 2.957726e+000 2.770229e+000 3.346648e+000 3.940949e+000 2.737179e+000 2.919516e+000 2.200196e+000 2.494447e+000 3.868615e+000 2.381099e+000 5.340414e+000
<GCONST> 1.048010e+002
<STATE> 3
<MEAN> 25
 1.504367e+000 -2.652051e+000 9.336235e-001 -2.819809e+000 -2.317473e+000 -5.530548e-001 9.267931e-002 -8.954647e-001 6.022580e-001 -4.201436e-001 1.101537e+000 -4.298219e-001 5.441019e-002 -4.405413e-001 -5.490524e-002 -2.367264e-001 -6.650500e-002 9.504226e-002 -1.615377e-001 -1.409378e-001 9.981823e-002 4.459673e-002 3.329706e-001 2.124207e-001 3.411015e-001
<VARIANCE> 25
 4.634789e+001 6.082662e+001 3.908914e+001 4.015573e+001 4.010199e+001 4.753396e+001 3.443312e+001 3.434423e+001 2.555964e+001 3.439268e+001 4.618652e+001 3.192293e+001 2.331763e+000 4.678670e+000 2.819097e+000 2.478146e+000 3.309595e+000 3.615854e+000 2.574019e+000 2.818777e+000 2.064044e+000 2.430602e+000 3.762295e+000 2.345985e+000 4.889350e+000
<GCONST> 1.041280e+002
<STATE> 4
<MEAN> 25
 3.472397e+000 -3.204608e+000 4.009699e-001 -3.169463e+000 -1.479038e+000 -1.274176e+000 -4.523064e-001 -8.833700e-001 9.642746e-001 -7.644124e-001 2.345788e+000 7.987893e-002 7.683156e-002 -1.184553e-001 -1.239080e-001 -5.674317e-002 6.950464e-002 3.049458e-002 -7.753363e-002 -6.460765e-002 6.805083e-002 4.451277e-002 1.691356e-001 1.664038e-001 1.321675e-001
<VARIANCE> 25
 5.100396e+001 7.364389e+001 4.583092e+001 4.408478e+001 4.644553e+001 4.858717e+001 4.113494e+001 3.527099e+001 2.694401e+001 3.897343e+001 4.283023e+001 3.432092e+001 2.131852e+000 3.665074e+000 2.637689e+000 2.463287e+000 3.507176e+000 3.522270e+000 2.777627e+000 2.861519e+000 1.850109e+000 2.477152e+000 3.316102e+000 2.422030e+000 3.882565e+000
<GCONST> 1.045167e+002
<TRANSP> 5
 0.000000e+000 1.000000e+000 0.000000e+000 0.000000e+000 0.000000e+000
 0.000000e+000 6.858494e-001 3.141506e-001 0.000000e+000 0.000000e+000
 0.000000e+000 0.000000e+000 6.858494e-001 3.141506e-001 0.000000e+000
 0.000000e+000 0.000000e+000 0.000000e+000 8.303550e-001 1.696451e-001
 0.000000e+000 0.000000e+000 0.000000e+000 0.000000e+000 0.000000e+000
<ENDHMM>
~h "sil"
<BEGINHMM>
<NUMSTATES> 5
<STATE> 2
<MEAN> 25
 -4.731605e+000 2.946997e+000 -2.371274e-001 1.197807e+000 4.383355e-002 4.483061e+000 6.011005e-001 7.643384e-001 9.277482e-001 2.476108e+000 -2.445908e+000 5.519418e-001 1.489993e-001 -1.774724e-001 1.776290e-002 -1.810771e-001 -2.252102e-002 -4.194324e-001 1.618540e-001 -7.311102e-002 -2.605343e-002 1.039961e-001 -2.100767e-002 -2.248410e-001 5.014079e-001
<VARIANCE> 25
 3.375543e+001 5.500312e+001 4.715123e+001 5.801193e+001 3.189590e+001 4.394644e+001 3.328028e+001 3.609898e+001 2.433172e+001 2.206982e+001 2.438786e+001 2.114521e+001 1.387515e+000 3.796048e+000 2.029969e+000 3.310301e+000 2.047975e+000 3.094381e+000 2.771228e+000 2.473719e+000 2.090683e+000 1.651337e+000 2.115590e+000 1.438533e+000 4.902507e+000
<GCONST> 9.953540e+001
<STATE> 3
<MEAN> 25
 -3.837625e+000 2.595181e+000 8.782328e-002 7.812611e-001 -8.722866e-002 3.038740e+000 9.146565e-001 6.508657e-001 8.758504e-001 2.625356e+000 -2.232578e+000 -1.668214e-001 2.485126e-001 -7.169396e-002 1.263903e-001 -1.761088e-001 -8.314022e-002 -4.899076e-001 1.045680e-001 4.254571e-003 -2.583151e-002 1.441372e-003 7.198623e-002 -2.066672e-001 5.116785e-001
<VARIANCE> 25
 3.403799e+001 7.071717e+001 4.927295e+001 6.565546e+001 3.448550e+001 4.861301e+001 4.016336e+001 3.716566e+001 2.616639e+001 2.346713e+001 2.753352e+001 2.423637e+001 1.978047e+000 4.889376e+000 2.487239e+000 3.656888e+000 2.487964e+000 3.528863e+000 3.091061e+000 2.843361e+000 2.349864e+000 1.815805e+000 2.363384e+000 1.462661e+000 4.314518e+000
<GCONST> 1.024471e+002
<STATE> 4
<MEAN> 25
 -3.220202e+000 2.245031e+000 3.270597e-001 3.060996e-001 -6.220438e-001 1.724097e+000 9.925550e-001 4.023113e-001 6.304457e-001 2.187153e+000 -1.976019e+000 -5.798217e-001 1.281430e-001 7.281349e-002 6.679823e-002 -8.481619e-002 -3.644414e-002 -2.744189e-001 6.686462e-002 6.060297e-003 -2.359503e-002 -6.020107e-002 3.187843e-002 -6.787008e-002 2.158283e-001
<VARIANCE> 25
 3.870186e+001 7.341586e+001 4.864017e+001 6.042124e+001 3.632838e+001 5.030582e+001 3.909564e+001 3.460727e+001 2.578802e+001 2.878793e+001 2.859525e+001 2.404994e+001 1.835890e+000 3.572053e+000 2.444980e+000 2.852339e+000 2.381554e+000 3.503708e+000 2.663610e+000 2.480072e+000 1.965000e+000 1.705428e+000 2.005384e+000 1.390168e+000 2.720442e+000
<GCONST> 1.008165e+002
<TRANSP> 5
 0.000000e+000 1.000000e+000 0.000000e+000 0.000000e+000 0.000000e+000
 0.000000e+000 6.701593e-001 3.298407e-001 0.000000e+000 0.000000e+000
 0.000000e+000 0.000000e+000 6.701592e-001 3.298408e-001 0.000000e+000
 0.000000e+000 0.000000e+000 0.000000e+000 8.058157e-001 1.941843e-001
 0.000000e+000 0.000000e+000 0.000000e+000 0.000000e+000 0.000000e+000
<ENDHMM>
