~h "g"
<BEGINHMM>
<NUMSTATES> 5
<STATE> 2
<MEAN> 25
 1.081240e-007 -1.858914e-008 -8.595348e-008 -8.527131e-009 -2.831007e-008 -3.666666e-008 -9.891472e-008 2.131783e-008 -3.069767e-009 6.821705e-008 -3.717829e-008 -2.387597e-009 1.175102e-002 5.213670e-002 -4.169887e-002 4.023443e-002 3.567341e-003 -4.746386e-002 1.436455e-002 2.032056e-002 9.642667e-003 3.001899e-002 -1.397761e-002 2.368205e-003 -4.110598e-002
<VARIANCE> 25
 4.609880e+001 6.693536e+001 6.272514e+001 6.732455e+001 4.431141e+001 5.731084e+001 4.301721e+001 3.878055e+001 2.747258e+001 3.577753e+001 4.324660e+001 3.058859e+001 2.010096e+000 3.780769e+000 3.113481e+000 3.466629e+000 3.227152e+000 3.939552e+000 3.029632e+000 3.001611e+000 2.104985e+000 2.180779e+000 3.160655e+000 1.931547e+000 3.474070e+000
<GCONST> 1.054027e+002
<STATE> 3
<MEAN> 25
 1.081240e-007 -1.858914e-008 -8.595348e-008 -8.527131e-009 -2.831007e-008 -3.666666e-008 -9.891472e-008 2.131783e-008 -3.069767e-009 6.821705e-008 -3.717829e-008 -2.387597e-009 1.175102e-002 5.213670e-002 -4.169887e-002 4.023443e-002 3.567341e-003 -4.746386e-002 1.436455e-002 2.032056e-002 9.642667e-003 3.001899e-002 -1.397761e-002 2.368205e-003 -4.110598e-002
<VARIANCE> 25
 4.609880e+001 6.693536e+001 6.272514e+001 6.732455e+001 4.431141e+001 5.731084e+001 4.301721e+001 3.878055e+001 2.747258e+001 3.577753e+001 4.324660e+001 3.058859e+001 2.010096e+000 3.780769e+000 3.113481e+000 3.466629e+000 3.227152e+000 3.939552e+000 3.029632e+000 3.001611e+000 2.104985e+000 2.180779e+000 3.160655e+000 1.931547e+000 3.474070e+000
<GCONST> 1.054027e+002
<STATE> 4
<MEAN> 25
 1.081240e-007 -1.858914e-008 -8.595348e-008 -8.527131e-009 -2.831007e-008 -3.666666e-008 -9.891472e-008 2.131783e-008 -3.069767e-009 6.821705e-008 -3.717829e-008 -2.387597e-009 1.175102e-002 5.213670e-002 -4.169887e-002 4.023443e-002 3.567341e-003 -4.746386e-002 1.436455e-002 2.032056e-002 9.642667e-003 3.001899e-002 -1.397761e-002 2.368205e-003 -4.110598e-002
<VARIANCE> 25
 4.609880e+001 6.693536e+001 6.272514e+001 6.732455e+001 4.431141e+001 5.731084e+001 4.301721e+001 3.878055e+001 2.747258e+001 3.577753e+001 4.324660e+001 3.058859e+001 2.010096e+000 3.780769e+000 3.113481e+000 3.466629e+000 3.227152e+000 3.939552e+000 3.029632e+000 3.001611e+000 2.104985e+000 2.180779e+000 3.160655e+000 1.931547e+000 3.474070e+000
<GCONST> 1.054027e+002
<TRANSP> 5
 0.000000e+000 1.000000e+000 0.000000e+000 0.000000e+000 0.000000e+000
 0.000000e+000 6.000000e-001 4.000000e-001 0.000000e+000 0.000000e+000
 0.000000e+000 0.000000e+000 6.000000e-001 4.000000e-001 0.000000e+000
 0.000000e+000 0.000000e+000 0.000000e+000 7.000000e-001 3.000000e-001
 0.000000e+000 0.000000e+000 0.000000e+000 0.000000e+000 0.000000e+000
<ENDHMM>
~h "e"
<BEGINHMM>
<NUMSTATES> 5
<STATE> 2
<MEAN> 25
 1.081240e-007 -1.858914e-008 -8.595348e-008 -8.527131e-009 -2.831007e-008 -3.666666e-008 -9.891472e-008 2.131783e-008 -3.069767e-009 6.821705e-008 -3.717829e-008 -2.387597e-009 1.175102e-002 5.213670e-002 -4.169887e-002 4.023443e-002 3.567341e-003 -4.746386e-002 1.436455e-002 2.032056e-002 9.642667e-003 3.001899e-002 -1.397761e-002 2.368205e-003 -4.110598e-002
<VARIANCE> 25
 4.609880e+001 6.693536e+001 6.272514e+001 6.732455e+001 4.431141e+001 5.731084e+001 4.301721e+001 3.878055e+001 2.747258e+001 3.577753e+001 4.324660e+001 3.058859e+001 2.010096e+000 3.780769e+000 3.113481e+000 3.466629e+000 3.227152e+000 3.939552e+000 3.029632e+000 3.001611e+000 2.104985e+000 2.180779e+000 3.160655e+000 1.931547e+000 3.474070e+000
<GCONST> 1.054027e+002
<STATE> 3
<MEAN> 25
 1.081240e-007 -1.858914e-008 -8.595348e-008 -8.527131e-009 -2.831007e-008 -3.666666e-008 -9.891472e-008 2.131783e-008 -3.069767e-009 6.821705e-008 -3.717829e-008 -2.387597e-009 1.175102e-002 5.213670e-002 -4.169887e-002 4.023443e-002 3.567341e-003 -4.746386e-002 1.436455e-002 2.032056e-002 9.642667e-003 3.001899e-002 -1.397761e-002 2.368205e-003 -4.110598e-002
<VARIANCE> 25
 4.609880e+001 6.693536e+001 6.272514e+001 6.732455e+001 4.431141e+001 5.731084e+001 4.301721e+001 3.878055e+001 2.747258e+001 3.577753e+001 4.324660e+001 3.058859e+001 2.010096e+000 3.780769e+000 3.113481e+000 3.466629e+000 3.227152e+000 3.939552e+000 3.029632e+000 3.001611e+000 2.104985e+000 2.180779e+000 3.160655e+000 1.931547e+000 3.474070e+000
<GCONST> 1.054027e+002
<STATE> 4
<MEAN> 25
 1.081240e-007 -1.858914e-008 -8.595348e-008 -8.527131e-009 -2.831007e-008 -3.666666e-008 -9.891472e-008 2.131783e-008 -3.069767e-009 6.821705e-008 -3.717829e-008 -2.387597e-009 1.175102e-002 5.213670e-002 -4.169887e-002 4.023443e-002 3.567341e-003 -4.746386e-002 1.436455e-002 2.032056e-002 9.642667e-003 3.001899e-002 -1.397761e-002 2.368205e-003 -4.110598e-002
<VARIANCE> 25
 4.609880e+001 6.693536e+001 6.272514e+001 6.732455e+001 4.431141e+001 5.731084e+001 4.301721e+001 3.878055e+001 2.747258e+001 3.577753e+001 4.324660e+001 3.058859e+001 2.010096e+000 3.780769e+000 3.113481e+000 3.466629e+000 3.227152e+000 3.939552e+000 3.029632e+000 3.001611e+000 2.104985e+000 2.180779e+000 3.160655e+000 1.931547e+000 3.474070e+000
<GCONST> 1.054027e+002
<TRANSP> 5
 0.000000e+000 1.000000e+000 0.000000e+000 0.000000e+000 0.000000e+000
 0.000000e+000 6.000000e-001 4.000000e-001 0.000000e+000 0.000000e+000
 0.000000e+000 0.000000e+000 6.000000e-001 4.000000e-001 0.000000e+000
 0.000000e+000 0.000000e+000 0.000000e+000 7.000000e-001 3.000000e-001
 0.000000e+000 0.000000e+000 0.000000e+000 0.000000e+000 0.000000e+000
<ENDHMM>
~h "s"
<BEGINHMM>
<NUMSTATES> 5
<STATE> 2
<MEAN> 25
 1.081240e-007 -1.858914e-008 -8.595348e-008 -8.527131e-009 -2.831007e-008 -3.666666e-008 -9.891472e-008 2.131783e-008 -3.069767e-009 6.821705e-008 -3.717829e-008 -2.387597e-009 1.175102e-002 5.213670e-002 -4.169887e-002 4.023443e-002 3.567341e-003 -4.746386e-002 1.436455e-002 2.032056e-002 9.642667e-003 3.001899e-002 -1.397761e-002 2.368205e-003 -4.110598e-002
<VARIANCE> 25
 4.609880e+001 6.693536e+001 6.272514e+001 6.732455e+001 4.431141e+001 5.731084e+001 4.301721e+001 3.878055e+001 2.747258e+001 3.577753e+001 4.324660e+001 3.058859e+001 2.010096e+000 3.780769e+000 3.113481e+000 3.466629e+000 3.227152e+000 3.939552e+000 3.029632e+000 3.001611e+000 2.104985e+000 2.180779e+000 3.160655e+000 1.931547e+000 3.474070e+000
<GCONST> 1.054027e+002
<STATE> 3
<MEAN> 25
 1.081240e-007 -1.858914e-008 -8.595348e-008 -8.527131e-009 -2.831007e-008 -3.666666e-008 -9.891472e-008 2.131783e-008 -3.069767e-009 6.821705e-008 -3.717829e-008 -2.387597e-009 1.175102e-002 5.213670e-002 -4.169887e-002 4.023443e-002 3.567341e-003 -4.746386e-002 1.436455e-002 2.032056e-002 9.642667e-003 3.001899e-002 -1.397761e-002 2.368205e-003 -4.110598e-002
<VARIANCE> 25
 4.609880e+001 6.693536e+001 6.272514e+001 6.732455e+001 4.431141e+001 5.731084e+001 4.301721e+001 3.878055e+001 2.747258e+001 3.577753e+001 4.324660e+001 3.058859e+001 2.010096e+000 3.780769e+000 3.113481e+000 3.466629e+000 3.227152e+000 3.939552e+000 3.029632e+000 3.001611e+000 2.104985e+000 2.180779e+000 3.160655e+000 1.931547e+000 3.474070e+000
<GCONST> 1.054027e+002
<STATE> 4
<MEAN> 25
 1.081240e-007 -1.858914e-008 -8.595348e-008 -8.527131e-009 -2.831007e-008 -3.666666e-008 -9.891472e-008 2.131783e-008 -3.069767e-009 6.821705e-008 -3.717829e-008 -2.387597e-009 1.175102e-002 5.213670e-002 -4.169887e-002 4.023443e-002 3.567341e-003 -4.746386e-002 1.436455e-002 2.032056e-002 9.642667e-003 3.001899e-002 -1.397761e-002 2.368205e-003 -4.110598e-002
<VARIANCE> 25
 4.609880e+001 6.693536e+001 6.272514e+001 6.732455e+001 4.431141e+001 5.731084e+001 4.301721e+001 3.878055e+001 2.747258e+001 3.577753e+001 4.324660e+001 3.058859e+001 2.010096e+000 3.780769e+000 3.113481e+000 3.466629e+000 3.227152e+000 3.939552e+000 3.029632e+000 3.001611e+000 2.104985e+000 2.180779e+000 3.160655e+000 1.931547e+000 3.474070e+000
<GCONST> 1.054027e+002
<TRANSP> 5
 0.000000e+000 1.000000e+000 0.000000e+000 0.000000e+000 0.000000e+000
 0.000000e+000 6.000000e-001 4.000000e-001 0.000000e+000 0.000000e+000
 0.000000e+000 0.000000e+000 6.000000e-001 4.000000e-001 0.000000e+000
 0.000000e+000 0.000000e+000 0.000000e+000 7.000000e-001 3.000000e-001
 0.000000e+000 0.000000e+000 0.000000e+000 0.000000e+000 0.000000e+000
<ENDHMM>
~h "r"
<BEGINHMM>
<NUMSTATES> 5
<STATE> 2
<MEAN> 25
 1.081240e-007 -1.858914e-008 -8.595348e-008 -8.527131e-009 -2.831007e-008 -3.666666e-008 -9.891472e-008 2.131783e-008 -3.069767e-009 6.821705e-008 -3.717829e-008 -2.387597e-009 1.175102e-002 5.213670e-002 -4.169887e-002 4.023443e-002 3.567341e-003 -4.746386e-002 1.436455e-002 2.032056e-002 9.642667e-003 3.001899e-002 -1.397761e-002 2.368205e-003 -4.110598e-002
<VARIANCE> 25
 4.609880e+001 6.693536e+001 6.272514e+001 6.732455e+001 4.431141e+001 5.731084e+001 4.301721e+001 3.878055e+001 2.747258e+001 3.577753e+001 4.324660e+001 3.058859e+001 2.010096e+000 3.780769e+000 3.113481e+000 3.466629e+000 3.227152e+000 3.939552e+000 3.029632e+000 3.001611e+000 2.104985e+000 2.180779e+000 3.160655e+000 1.931547e+000 3.474070e+000
<GCONST> 1.054027e+002
<STATE> 3
<MEAN> 25
 1.081240e-007 -1.858914e-008 -8.595348e-008 -8.527131e-009 -2.831007e-008 -3.666666e-008 -9.891472e-008 2.131783e-008 -3.069767e-009 6.821705e-008 -3.717829e-008 -2.387597e-009 1.175102e-002 5.213670e-002 -4.169887e-002 4.023443e-002 3.567341e-003 -4.746386e-002 1.436455e-002 2.032056e-002 9.642667e-003 3.001899e-002 -1.397761e-002 2.368205e-003 -4.110598e-002
<VARIANCE> 25
 4.609880e+001 6.693536e+001 6.272514e+001 6.732455e+001 4.431141e+001 5.731084e+001 4.301721e+001 3.878055e+001 2.747258e+001 3.577753e+001 4.324660e+001 3.058859e+001 2.010096e+000 3.780769e+000 3.113481e+000 3.466629e+000 3.227152e+000 3.939552e+000 3.029632e+000 3.001611e+000 2.104985e+000 2.180779e+000 3.160655e+000 1.931547e+000 3.474070e+000
<GCONST> 1.054027e+002
<STATE> 4
<MEAN> 25
 1.081240e-007 -1.858914e-008 -8.595348e-008 -8.527131e-009 -2.831007e-008 -3.666666e-008 -9.891472e-008 2.131783e-008 -3.069767e-009 6.821705e-008 -3.717829e-008 -2.387597e-009 1.175102e-002 5.213670e-002 -4.169887e-002 4.023443e-002 3.567341e-003 -4.746386e-002 1.436455e-002 2.032056e-002 9.642667e-003 3.001899e-002 -1.397761e-002 2.368205e-003 -4.110598e-002
<VARIANCE> 25
 4.609880e+001 6.693536e+001 6.272514e+001 6.732455e+001 4.431141e+001 5.731084e+001 4.301721e+001 3.878055e+001 2.747258e+001 3.577753e+001 4.324660e+001 3.058859e+001 2.010096e+000 3.780769e+000 3.113481e+000 3.466629e+000 3.227152e+000 3.939552e+000 3.029632e+000 3.001611e+000 2.104985e+000 2.180779e+000 3.160655e+000 1.931547e+000 3.474070e+000
<GCONST> 1.054027e+002
<TRANSP> 5
 0.000000e+000 1.000000e+000 0.000000e+000 0.000000e+000 0.000000e+000
 0.000000e+000 6.000000e-001 4.000000e-001 0.000000e+000 0.000000e+000
 0.000000e+000 0.000000e+000 6.000000e-001 4.000000e-001 0.000000e+000
 0.000000e+000 0.000000e+000 0.000000e+000 7.000000e-001 3.000000e-001
 0.000000e+000 0.000000e+000 0.000000e+000 0.000000e+000 0.000000e+000
<ENDHMM>
~h "j"
<BEGINHMM>
<NUMSTATES> 5
<STATE> 2
<MEAN> 25
 1.081240e-007 -1.858914e-008 -8.595348e-008 -8.527131e-009 -2.831007e-008 -3.666666e-008 -9.891472e-008 2.131783e-008 -3.069767e-009 6.821705e-008 -3.717829e-008 -2.387597e-009 1.175102e-002 5.213670e-002 -4.169887e-002 4.023443e-002 3.567341e-003 -4.746386e-002 1.436455e-002 2.032056e-002 9.642667e-003 3.001899e-002 -1.397761e-002 2.368205e-003 -4.110598e-002
<VARIANCE> 25
 4.609880e+001 6.693536e+001 6.272514e+001 6.732455e+001 4.431141e+001 5.731084e+001 4.301721e+001 3.878055e+001 2.747258e+001 3.577753e+001 4.324660e+001 3.058859e+001 2.010096e+000 3.780769e+000 3.113481e+000 3.466629e+000 3.227152e+000 3.939552e+000 3.029632e+000 3.001611e+000 2.104985e+000 2.180779e+000 3.160655e+000 1.931547e+000 3.474070e+000
<GCONST> 1.054027e+002
<STATE> 3
<MEAN> 25
 1.081240e-007 -1.858914e-008 -8.595348e-008 -8.527131e-009 -2.831007e-008 -3.666666e-008 -9.891472e-008 2.131783e-008 -3.069767e-009 6.821705e-008 -3.717829e-008 -2.387597e-009 1.175102e-002 5.213670e-002 -4.169887e-002 4.023443e-002 3.567341e-003 -4.746386e-002 1.436455e-002 2.032056e-002 9.642667e-003 3.001899e-002 -1.397761e-002 2.368205e-003 -4.110598e-002
<VARIANCE> 25
 4.609880e+001 6.693536e+001 6.272514e+001 6.732455e+001 4.431141e+001 5.731084e+001 4.301721e+001 3.878055e+001 2.747258e+001 3.577753e+001 4.324660e+001 3.058859e+001 2.010096e+000 3.780769e+000 3.113481e+000 3.466629e+000 3.227152e+000 3.939552e+000 3.029632e+000 3.001611e+000 2.104985e+000 2.180779e+000 3.160655e+000 1.931547e+000 3.474070e+000
<GCONST> 1.054027e+002
<STATE> 4
<MEAN> 25
 1.081240e-007 -1.858914e-008 -8.595348e-008 -8.527131e-009 -2.831007e-008 -3.666666e-008 -9.891472e-008 2.131783e-008 -3.069767e-009 6.821705e-008 -3.717829e-008 -2.387597e-009 1.175102e-002 5.213670e-002 -4.169887e-002 4.023443e-002 3.567341e-003 -4.746386e-002 1.436455e-002 2.032056e-002 9.642667e-003 3.001899e-002 -1.397761e-002 2.368205e-003 -4.110598e-002
<VARIANCE> 25
 4.609880e+001 6.693536e+001 6.272514e+001 6.732455e+001 4.431141e+001 5.731084e+001 4.301721e+001 3.878055e+001 2.747258e+001 3.577753e+001 4.324660e+001 3.058859e+001 2.010096e+000 3.780769e+000 3.113481e+000 3.466629e+000 3.227152e+000 3.939552e+000 3.029632e+000 3.001611e+000 2.104985e+000 2.180779e+000 3.160655e+000 1.931547e+000 3.474070e+000
<GCONST> 1.054027e+002
<TRANSP> 5
 0.000000e+000 1.000000e+000 0.000000e+000 0.000000e+000 0.000000e+000
 0.000000e+000 6.000000e-001 4.000000e-001 0.000000e+000 0.000000e+000
 0.000000e+000 0.000000e+000 6.000000e-001 4.000000e-001 0.000000e+000
 0.000000e+000 0.000000e+000 0.000000e+000 7.000000e-001 3.000000e-001
 0.000000e+000 0.000000e+000 0.000000e+000 0.000000e+000 0.000000e+000
<ENDHMM>
~h "d"
<BEGINHMM>
<NUMSTATES> 5
<STATE> 2
<MEAN> 25
 1.081240e-007 -1.858914e-008 -8.595348e-008 -8.527131e-009 -2.831007e-008 -3.666666e-008 -9.891472e-008 2.131783e-008 -3.069767e-009 6.821705e-008 -3.717829e-008 -2.387597e-009 1.175102e-002 5.213670e-002 -4.169887e-002 4.023443e-002 3.567341e-003 -4.746386e-002 1.436455e-002 2.032056e-002 9.642667e-003 3.001899e-002 -1.397761e-002 2.368205e-003 -4.110598e-002
<VARIANCE> 25
 4.609880e+001 6.693536e+001 6.272514e+001 6.732455e+001 4.431141e+001 5.731084e+001 4.301721e+001 3.878055e+001 2.747258e+001 3.577753e+001 4.324660e+001 3.058859e+001 2.010096e+000 3.780769e+000 3.113481e+000 3.466629e+000 3.227152e+000 3.939552e+000 3.029632e+000 3.001611e+000 2.104985e+000 2.180779e+000 3.160655e+000 1.931547e+000 3.474070e+000
<GCONST> 1.054027e+002
<STATE> 3
<MEAN> 25
 1.081240e-007 -1.858914e-008 -8.595348e-008 -8.527131e-009 -2.831007e-008 -3.666666e-008 -9.891472e-008 2.131783e-008 -3.069767e-009 6.821705e-008 -3.717829e-008 -2.387597e-009 1.175102e-002 5.213670e-002 -4.169887e-002 4.023443e-002 3.567341e-003 -4.746386e-002 1.436455e-002 2.032056e-002 9.642667e-003 3.001899e-002 -1.397761e-002 2.368205e-003 -4.110598e-002
<VARIANCE> 25
 4.609880e+001 6.693536e+001 6.272514e+001 6.732455e+001 4.431141e+001 5.731084e+001 4.301721e+001 3.878055e+001 2.747258e+001 3.577753e+001 4.324660e+001 3.058859e+001 2.010096e+000 3.780769e+000 3.113481e+000 3.466629e+000 3.227152e+000 3.939552e+000 3.029632e+000 3.001611e+000 2.104985e+000 2.180779e+000 3.160655e+000 1.931547e+000 3.474070e+000
<GCONST> 1.054027e+002
<STATE> 4
<MEAN> 25
 1.081240e-007 -1.858914e-008 -8.595348e-008 -8.527131e-009 -2.831007e-008 -3.666666e-008 -9.891472e-008 2.131783e-008 -3.069767e-009 6.821705e-008 -3.717829e-008 -2.387597e-009 1.175102e-002 5.213670e-002 -4.169887e-002 4.023443e-002 3.567341e-003 -4.746386e-002 1.436455e-002 2.032056e-002 9.642667e-003 3.001899e-002 -1.397761e-002 2.368205e-003 -4.110598e-002
<VARIANCE> 25
 4.609880e+001 6.693536e+001 6.272514e+001 6.732455e+001 4.431141e+001 5.731084e+001 4.301721e+001 3.878055e+001 2.747258e+001 3.577753e+001 4.324660e+001 3.058859e+001 2.010096e+000 3.780769e+000 3.113481e+000 3.466629e+000 3.227152e+000 3.939552e+000 3.029632e+000 3.001611e+000 2.104985e+000 2.180779e+000 3.160655e+000 1.931547e+000 3.474070e+000
<GCONST> 1.054027e+002
<TRANSP> 5
 0.000000e+000 1.000000e+000 0.000000e+000 0.000000e+000 0.000000e+000
 0.000000e+000 6.000000e-001 4.000000e-001 0.000000e+000 0.000000e+000
 0.000000e+000 0.000000e+000 6.000000e-001 4.000000e-001 0.000000e+000
 0.000000e+000 0.000000e+000 0.000000e+000 7.000000e-001 3.000000e-001
 0.000000e+000 0.000000e+000 0.000000e+000 0.000000e+000 0.000000e+000
<ENDHMM>
~h "a"
<BEGINHMM>
<NUMSTATES> 5
<STATE> 2
<MEAN> 25
 1.081240e-007 -1.858914e-008 -8.595348e-008 -8.527131e-009 -2.831007e-008 -3.666666e-008 -9.891472e-008 2.131783e-008 -3.069767e-009 6.821705e-008 -3.717829e-008 -2.387597e-009 1.175102e-002 5.213670e-002 -4.169887e-002 4.023443e-002 3.567341e-003 -4.746386e-002 1.436455e-002 2.032056e-002 9.642667e-003 3.001899e-002 -1.397761e-002 2.368205e-003 -4.110598e-002
<VARIANCE> 25
 4.609880e+001 6.693536e+001 6.272514e+001 6.732455e+001 4.431141e+001 5.731084e+001 4.301721e+001 3.878055e+001 2.747258e+001 3.577753e+001 4.324660e+001 3.058859e+001 2.010096e+000 3.780769e+000 3.113481e+000 3.466629e+000 3.227152e+000 3.939552e+000 3.029632e+000 3.001611e+000 2.104985e+000 2.180779e+000 3.160655e+000 1.931547e+000 3.474070e+000
<GCONST> 1.054027e+002
<STATE> 3
<MEAN> 25
 1.081240e-007 -1.858914e-008 -8.595348e-008 -8.527131e-009 -2.831007e-008 -3.666666e-008 -9.891472e-008 2.131783e-008 -3.069767e-009 6.821705e-008 -3.717829e-008 -2.387597e-009 1.175102e-002 5.213670e-002 -4.169887e-002 4.023443e-002 3.567341e-003 -4.746386e-002 1.436455e-002 2.032056e-002 9.642667e-003 3.001899e-002 -1.397761e-002 2.368205e-003 -4.110598e-002
<VARIANCE> 25
 4.609880e+001 6.693536e+001 6.272514e+001 6.732455e+001 4.431141e+001 5.731084e+001 4.301721e+001 3.878055e+001 2.747258e+001 3.577753e+001 4.324660e+001 3.058859e+001 2.010096e+000 3.780769e+000 3.113481e+000 3.466629e+000 3.227152e+000 3.939552e+000 3.029632e+000 3.001611e+000 2.104985e+000 2.180779e+000 3.160655e+000 1.931547e+000 3.474070e+000
<GCONST> 1.054027e+002
<STATE> 4
<MEAN> 25
 1.081240e-007 -1.858914e-008 -8.595348e-008 -8.527131e-009 -2.831007e-008 -3.666666e-008 -9.891472e-008 2.131783e-008 -3.069767e-009 6.821705e-008 -3.717829e-008 -2.387597e-009 1.175102e-002 5.213670e-002 -4.169887e-002 4.023443e-002 3.567341e-003 -4.746386e-002 1.436455e-002 2.032056e-002 9.642667e-003 3.001899e-002 -1.397761e-002 2.368205e-003 -4.110598e-002
<VARIANCE> 25
 4.609880e+001 6.693536e+001 6.272514e+001 6.732455e+001 4.431141e+001 5.731084e+001 4.301721e+001 3.878055e+001 2.747258e+001 3.577753e+001 4.324660e+001 3.058859e+001 2.010096e+000 3.780769e+000 3.113481e+000 3.466629e+000 3.227152e+000 3.939552e+000 3.029632e+000 3.001611e+000 2.104985e+000 2.180779e+000 3.160655e+000 1.931547e+000 3.474070e+000
<GCONST> 1.054027e+002
<TRANSP> 5
 0.000000e+000 1.000000e+000 0.000000e+000 0.000000e+000 0.000000e+000
 0.000000e+000 6.000000e-001 4.000000e-001 0.000000e+000 0.000000e+000
 0.000000e+000 0.000000e+000 6.000000e-001 4.000000e-001 0.000000e+000
 0.000000e+000 0.000000e+000 0.000000e+000 7.000000e-001 3.000000e-001
 0.000000e+000 0.000000e+000 0.000000e+000 0.000000e+000 0.000000e+000
<ENDHMM>
~h "k"
<BEGINHMM>
<NUMSTATES> 5
<STATE> 2
<MEAN> 25
 1.081240e-007 -1.858914e-008 -8.595348e-008 -8.527131e-009 -2.831007e-008 -3.666666e-008 -9.891472e-008 2.131783e-008 -3.069767e-009 6.821705e-008 -3.717829e-008 -2.387597e-009 1.175102e-002 5.213670e-002 -4.169887e-002 4.023443e-002 3.567341e-003 -4.746386e-002 1.436455e-002 2.032056e-002 9.642667e-003 3.001899e-002 -1.397761e-002 2.368205e-003 -4.110598e-002
<VARIANCE> 25
 4.609880e+001 6.693536e+001 6.272514e+001 6.732455e+001 4.431141e+001 5.731084e+001 4.301721e+001 3.878055e+001 2.747258e+001 3.577753e+001 4.324660e+001 3.058859e+001 2.010096e+000 3.780769e+000 3.113481e+000 3.466629e+000 3.227152e+000 3.939552e+000 3.029632e+000 3.001611e+000 2.104985e+000 2.180779e+000 3.160655e+000 1.931547e+000 3.474070e+000
<GCONST> 1.054027e+002
<STATE> 3
<MEAN> 25
 1.081240e-007 -1.858914e-008 -8.595348e-008 -8.527131e-009 -2.831007e-008 -3.666666e-008 -9.891472e-008 2.131783e-008 -3.069767e-009 6.821705e-008 -3.717829e-008 -2.387597e-009 1.175102e-002 5.213670e-002 -4.169887e-002 4.023443e-002 3.567341e-003 -4.746386e-002 1.436455e-002 2.032056e-002 9.642667e-003 3.001899e-002 -1.397761e-002 2.368205e-003 -4.110598e-002
<VARIANCE> 25
 4.609880e+001 6.693536e+001 6.272514e+001 6.732455e+001 4.431141e+001 5.731084e+001 4.301721e+001 3.878055e+001 2.747258e+001 3.577753e+001 4.324660e+001 3.058859e+001 2.010096e+000 3.780769e+000 3.113481e+000 3.466629e+000 3.227152e+000 3.939552e+000 3.029632e+000 3.001611e+000 2.104985e+000 2.180779e+000 3.160655e+000 1.931547e+000 3.474070e+000
<GCONST> 1.054027e+002
<STATE> 4
<MEAN> 25
 1.081240e-007 -1.858914e-008 -8.595348e-008 -8.527131e-009 -2.831007e-008 -3.666666e-008 -9.891472e-008 2.131783e-008 -3.069767e-009 6.821705e-008 -3.717829e-008 -2.387597e-009 1.175102e-002 5.213670e-002 -4.169887e-002 4.023443e-002 3.567341e-003 -4.746386e-002 1.436455e-002 2.032056e-002 9.642667e-003 3.001899e-002 -1.397761e-002 2.368205e-003 -4.110598e-002
<VARIANCE> 25
 4.609880e+001 6.693536e+001 6.272514e+001 6.732455e+001 4.431141e+001 5.731084e+001 4.301721e+001 3.878055e+001 2.747258e+001 3.577753e+001 4.324660e+001 3.058859e+001 2.010096e+000 3.780769e+000 3.113481e+000 3.466629e+000 3.227152e+000 3.939552e+000 3.029632e+000 3.001611e+000 2.104985e+000 2.180779e+000 3.160655e+000 1.931547e+000 3.474070e+000
<GCONST> 1.054027e+002
<TRANSP> 5
 0.000000e+000 1.000000e+000 0.000000e+000 0.000000e+000 0.000000e+000
 0.000000e+000 6.000000e-001 4.000000e-001 0.000000e+000 0.000000e+000
 0.000000e+000 0.000000e+000 6.000000e-001 4.000000e-001 0.000000e+000
 0.000000e+000 0.000000e+000 0.000000e+000 7.000000e-001 3.000000e-001
 0.000000e+000 0.000000e+000 0.000000e+000 0.000000e+000 0.000000e+000
<ENDHMM>
~h "n"
<BEGINHMM>
<NUMSTATES> 5
<STATE> 2
<MEAN> 25
 1.081240e-007 -1.858914e-008 -8.595348e-008 -8.527131e-009 -2.831007e-008 -3.666666e-008 -9.891472e-008 2.131783e-008 -3.069767e-009 6.821705e-008 -3.717829e-008 -2.387597e-009 1.175102e-002 5.213670e-002 -4.169887e-002 4.023443e-002 3.567341e-003 -4.746386e-002 1.436455e-002 2.032056e-002 9.642667e-003 3.001899e-002 -1.397761e-002 2.368205e-003 -4.110598e-002
<VARIANCE> 25
 4.609880e+001 6.693536e+001 6.272514e+001 6.732455e+001 4.431141e+001 5.731084e+001 4.301721e+001 3.878055e+001 2.747258e+001 3.577753e+001 4.324660e+001 3.058859e+001 2.010096e+000 3.780769e+000 3.113481e+000 3.466629e+000 3.227152e+000 3.939552e+000 3.029632e+000 3.001611e+000 2.104985e+000 2.180779e+000 3.160655e+000 1.931547e+000 3.474070e+000
<GCONST> 1.054027e+002
<STATE> 3
<MEAN> 25
 1.081240e-007 -1.858914e-008 -8.595348e-008 -8.527131e-009 -2.831007e-008 -3.666666e-008 -9.891472e-008 2.131783e-008 -3.069767e-009 6.821705e-008 -3.717829e-008 -2.387597e-009 1.175102e-002 5.213670e-002 -4.169887e-002 4.023443e-002 3.567341e-003 -4.746386e-002 1.436455e-002 2.032056e-002 9.642667e-003 3.001899e-002 -1.397761e-002 2.368205e-003 -4.110598e-002
<VARIANCE> 25
 4.609880e+001 6.693536e+001 6.272514e+001 6.732455e+001 4.431141e+001 5.731084e+001 4.301721e+001 3.878055e+001 2.747258e+001 3.577753e+001 4.324660e+001 3.058859e+001 2.010096e+000 3.780769e+000 3.113481e+000 3.466629e+000 3.227152e+000 3.939552e+000 3.029632e+000 3.001611e+000 2.104985e+000 2.180779e+000 3.160655e+000 1.931547e+000 3.474070e+000
<GCONST> 1.054027e+002
<STATE> 4
<MEAN> 25
 1.081240e-007 -1.858914e-008 -8.595348e-008 -8.527131e-009 -2.831007e-008 -3.666666e-008 -9.891472e-008 2.131783e-008 -3.069767e-009 6.821705e-008 -3.717829e-008 -2.387597e-009 1.175102e-002 5.213670e-002 -4.169887e-002 4.023443e-002 3.567341e-003 -4.746386e-002 1.436455e-002 2.032056e-002 9.642667e-003 3.001899e-002 -1.397761e-002 2.368205e-003 -4.110598e-002
<VARIANCE> 25
 4.609880e+001 6.693536e+001 6.272514e+001 6.732455e+001 4.431141e+001 5.731084e+001 4.301721e+001 3.878055e+001 2.747258e+001 3.577753e+001 4.324660e+001 3.058859e+001 2.010096e+000 3.780769e+000 3.113481e+000 3.466629e+000 3.227152e+000 3.939552e+000 3.029632e+000 3.001611e+000 2.104985e+000 2.180779e+000 3.160655e+000 1.931547e+000 3.474070e+000
<GCONST> 1.054027e+002
<TRANSP> 5
 0.000000e+000 1.000000e+000 0.000000e+000 0.000000e+000 0.000000e+000
 0.000000e+000 6.000000e-001 4.000000e-001 0.000000e+000 0.000000e+000
 0.000000e+000 0.000000e+000 6.000000e-001 4.000000e-001 0.000000e+000
 0.000000e+000 0.000000e+000 0.000000e+000 7.000000e-001 3.000000e-001
 0.000000e+000 0.000000e+000 0.000000e+000 0.000000e+000 0.000000e+000
<ENDHMM>
~h "l"
<BEGINHMM>
<NUMSTATES> 5
<STATE> 2
<MEAN> 25
 1.081240e-007 -1.858914e-008 -8.595348e-008 -8.527131e-009 -2.831007e-008 -3.666666e-008 -9.891472e-008 2.131783e-008 -3.069767e-009 6.821705e-008 -3.717829e-008 -2.387597e-009 1.175102e-002 5.213670e-002 -4.169887e-002 4.023443e-002 3.567341e-003 -4.746386e-002 1.436455e-002 2.032056e-002 9.642667e-003 3.001899e-002 -1.397761e-002 2.368205e-003 -4.110598e-002
<VARIANCE> 25
 4.609880e+001 6.693536e+001 6.272514e+001 6.732455e+001 4.431141e+001 5.731084e+001 4.301721e+001 3.878055e+001 2.747258e+001 3.577753e+001 4.324660e+001 3.058859e+001 2.010096e+000 3.780769e+000 3.113481e+000 3.466629e+000 3.227152e+000 3.939552e+000 3.029632e+000 3.001611e+000 2.104985e+000 2.180779e+000 3.160655e+000 1.931547e+000 3.474070e+000
<GCONST> 1.054027e+002
<STATE> 3
<MEAN> 25
 1.081240e-007 -1.858914e-008 -8.595348e-008 -8.527131e-009 -2.831007e-008 -3.666666e-008 -9.891472e-008 2.131783e-008 -3.069767e-009 6.821705e-008 -3.717829e-008 -2.387597e-009 1.175102e-002 5.213670e-002 -4.169887e-002 4.023443e-002 3.567341e-003 -4.746386e-002 1.436455e-002 2.032056e-002 9.642667e-003 3.001899e-002 -1.397761e-002 2.368205e-003 -4.110598e-002
<VARIANCE> 25
 4.609880e+001 6.693536e+001 6.272514e+001 6.732455e+001 4.431141e+001 5.731084e+001 4.301721e+001 3.878055e+001 2.747258e+001 3.577753e+001 4.324660e+001 3.058859e+001 2.010096e+000 3.780769e+000 3.113481e+000 3.466629e+000 3.227152e+000 3.939552e+000 3.029632e+000 3.001611e+000 2.104985e+000 2.180779e+000 3.160655e+000 1.931547e+000 3.474070e+000
<GCONST> 1.054027e+002
<STATE> 4
<MEAN> 25
 1.081240e-007 -1.858914e-008 -8.595348e-008 -8.527131e-009 -2.831007e-008 -3.666666e-008 -9.891472e-008 2.131783e-008 -3.069767e-009 6.821705e-008 -3.717829e-008 -2.387597e-009 1.175102e-002 5.213670e-002 -4.169887e-002 4.023443e-002 3.567341e-003 -4.746386e-002 1.436455e-002 2.032056e-002 9.642667e-003 3.001899e-002 -1.397761e-002 2.368205e-003 -4.110598e-002
<VARIANCE> 25
 4.609880e+001 6.693536e+001 6.272514e+001 6.732455e+001 4.431141e+001 5.731084e+001 4.301721e+001 3.878055e+001 2.747258e+001 3.577753e+001 4.324660e+001 3.058859e+001 2.010096e+000 3.780769e+000 3.113481e+000 3.466629e+000 3.227152e+000 3.939552e+000 3.029632e+000 3.001611e+000 2.104985e+000 2.180779e+000 3.160655e+000 1.931547e+000 3.474070e+000
<GCONST> 1.054027e+002
<TRANSP> 5
 0.000000e+000 1.000000e+000 0.000000e+000 0.000000e+000 0.000000e+000
 0.000000e+000 6.000000e-001 4.000000e-001 0.000000e+000 0.000000e+000
 0.000000e+000 0.000000e+000 6.000000e-001 4.000000e-001 0.000000e+000
 0.000000e+000 0.000000e+000 0.000000e+000 7.000000e-001 3.000000e-001
 0.000000e+000 0.000000e+000 0.000000e+000 0.000000e+000 0.000000e+000
<ENDHMM>
~h "u"
<BEGINHMM>
<NUMSTATES> 5
<STATE> 2
<MEAN> 25
 1.081240e-007 -1.858914e-008 -8.595348e-008 -8.527131e-009 -2.831007e-008 -3.666666e-008 -9.891472e-008 2.131783e-008 -3.069767e-009 6.821705e-008 -3.717829e-008 -2.387597e-009 1.175102e-002 5.213670e-002 -4.169887e-002 4.023443e-002 3.567341e-003 -4.746386e-002 1.436455e-002 2.032056e-002 9.642667e-003 3.001899e-002 -1.397761e-002 2.368205e-003 -4.110598e-002
<VARIANCE> 25
 4.609880e+001 6.693536e+001 6.272514e+001 6.732455e+001 4.431141e+001 5.731084e+001 4.301721e+001 3.878055e+001 2.747258e+001 3.577753e+001 4.324660e+001 3.058859e+001 2.010096e+000 3.780769e+000 3.113481e+000 3.466629e+000 3.227152e+000 3.939552e+000 3.029632e+000 3.001611e+000 2.104985e+000 2.180779e+000 3.160655e+000 1.931547e+000 3.474070e+000
<GCONST> 1.054027e+002
<STATE> 3
<MEAN> 25
 1.081240e-007 -1.858914e-008 -8.595348e-008 -8.527131e-009 -2.831007e-008 -3.666666e-008 -9.891472e-008 2.131783e-008 -3.069767e-009 6.821705e-008 -3.717829e-008 -2.387597e-009 1.175102e-002 5.213670e-002 -4.169887e-002 4.023443e-002 3.567341e-003 -4.746386e-002 1.436455e-002 2.032056e-002 9.642667e-003 3.001899e-002 -1.397761e-002 2.368205e-003 -4.110598e-002
<VARIANCE> 25
 4.609880e+001 6.693536e+001 6.272514e+001 6.732455e+001 4.431141e+001 5.731084e+001 4.301721e+001 3.878055e+001 2.747258e+001 3.577753e+001 4.324660e+001 3.058859e+001 2.010096e+000 3.780769e+000 3.113481e+000 3.466629e+000 3.227152e+000 3.939552e+000 3.029632e+000 3.001611e+000 2.104985e+000 2.180779e+000 3.160655e+000 1.931547e+000 3.474070e+000
<GCONST> 1.054027e+002
<STATE> 4
<MEAN> 25
 1.081240e-007 -1.858914e-008 -8.595348e-008 -8.527131e-009 -2.831007e-008 -3.666666e-008 -9.891472e-008 2.131783e-008 -3.069767e-009 6.821705e-008 -3.717829e-008 -2.387597e-009 1.175102e-002 5.213670e-002 -4.169887e-002 4.023443e-002 3.567341e-003 -4.746386e-002 1.436455e-002 2.032056e-002 9.642667e-003 3.001899e-002 -1.397761e-002 2.368205e-003 -4.110598e-002
<VARIANCE> 25
 4.609880e+001 6.693536e+001 6.272514e+001 6.732455e+001 4.431141e+001 5.731084e+001 4.301721e+001 3.878055e+001 2.747258e+001 3.577753e+001 4.324660e+001 3.058859e+001 2.010096e+000 3.780769e+000 3.113481e+000 3.466629e+000 3.227152e+000 3.939552e+000 3.029632e+000 3.001611e+000 2.104985e+000 2.180779e+000 3.160655e+000 1.931547e+000 3.474070e+000
<GCONST> 1.054027e+002
<TRANSP> 5
 0.000000e+000 1.000000e+000 0.000000e+000 0.000000e+000 0.000000e+000
 0.000000e+000 6.000000e-001 4.000000e-001 0.000000e+000 0.000000e+000
 0.000000e+000 0.000000e+000 6.000000e-001 4.000000e-001 0.000000e+000
 0.000000e+000 0.000000e+000 0.000000e+000 7.000000e-001 3.000000e-001
 0.000000e+000 0.000000e+000 0.000000e+000 0.000000e+000 0.000000e+000
<ENDHMM>
~h "i"
<BEGINHMM>
<NUMSTATES> 5
<STATE> 2
<MEAN> 25
 1.081240e-007 -1.858914e-008 -8.595348e-008 -8.527131e-009 -2.831007e-008 -3.666666e-008 -9.891472e-008 2.131783e-008 -3.069767e-009 6.821705e-008 -3.717829e-008 -2.387597e-009 1.175102e-002 5.213670e-002 -4.169887e-002 4.023443e-002 3.567341e-003 -4.746386e-002 1.436455e-002 2.032056e-002 9.642667e-003 3.001899e-002 -1.397761e-002 2.368205e-003 -4.110598e-002
<VARIANCE> 25
 4.609880e+001 6.693536e+001 6.272514e+001 6.732455e+001 4.431141e+001 5.731084e+001 4.301721e+001 3.878055e+001 2.747258e+001 3.577753e+001 4.324660e+001 3.058859e+001 2.010096e+000 3.780769e+000 3.113481e+000 3.466629e+000 3.227152e+000 3.939552e+000 3.029632e+000 3.001611e+000 2.104985e+000 2.180779e+000 3.160655e+000 1.931547e+000 3.474070e+000
<GCONST> 1.054027e+002
<STATE> 3
<MEAN> 25
 1.081240e-007 -1.858914e-008 -8.595348e-008 -8.527131e-009 -2.831007e-008 -3.666666e-008 -9.891472e-008 2.131783e-008 -3.069767e-009 6.821705e-008 -3.717829e-008 -2.387597e-009 1.175102e-002 5.213670e-002 -4.169887e-002 4.023443e-002 3.567341e-003 -4.746386e-002 1.436455e-002 2.032056e-002 9.642667e-003 3.001899e-002 -1.397761e-002 2.368205e-003 -4.110598e-002
<VARIANCE> 25
 4.609880e+001 6.693536e+001 6.272514e+001 6.732455e+001 4.431141e+001 5.731084e+001 4.301721e+001 3.878055e+001 2.747258e+001 3.577753e+001 4.324660e+001 3.058859e+001 2.010096e+000 3.780769e+000 3.113481e+000 3.466629e+000 3.227152e+000 3.939552e+000 3.029632e+000 3.001611e+000 2.104985e+000 2.180779e+000 3.160655e+000 1.931547e+000 3.474070e+000
<GCONST> 1.054027e+002
<STATE> 4
<MEAN> 25
 1.081240e-007 -1.858914e-008 -8.595348e-008 -8.527131e-009 -2.831007e-008 -3.666666e-008 -9.891472e-008 2.131783e-008 -3.069767e-009 6.821705e-008 -3.717829e-008 -2.387597e-009 1.175102e-002 5.213670e-002 -4.169887e-002 4.023443e-002 3.567341e-003 -4.746386e-002 1.436455e-002 2.032056e-002 9.642667e-003 3.001899e-002 -1.397761e-002 2.368205e-003 -4.110598e-002
<VARIANCE> 25
 4.609880e+001 6.693536e+001 6.272514e+001 6.732455e+001 4.431141e+001 5.731084e+001 4.301721e+001 3.878055e+001 2.747258e+001 3.577753e+001 4.324660e+001 3.058859e+001 2.010096e+000 3.780769e+000 3.113481e+000 3.466629e+000 3.227152e+000 3.939552e+000 3.029632e+000 3.001611e+000 2.104985e+000 2.180779e+000 3.160655e+000 1.931547e+000 3.474070e+000
<GCONST> 1.054027e+002
<TRANSP> 5
 0.000000e+000 1.000000e+000 0.000000e+000 0.000000e+000 0.000000e+000
 0.000000e+000 6.000000e-001 4.000000e-001 0.000000e+000 0.000000e+000
 0.000000e+000 0.000000e+000 6.000000e-001 4.000000e-001 0.000000e+000
 0.000000e+000 0.000000e+000 0.000000e+000 7.000000e-001 3.000000e-001
 0.000000e+000 0.000000e+000 0.000000e+000 0.000000e+000 0.000000e+000
<ENDHMM>
~h "t"
<BEGINHMM>
<NUMSTATES> 5
<STATE> 2
<MEAN> 25
 1.081240e-007 -1.858914e-008 -8.595348e-008 -8.527131e-009 -2.831007e-008 -3.666666e-008 -9.891472e-008 2.131783e-008 -3.069767e-009 6.821705e-008 -3.717829e-008 -2.387597e-009 1.175102e-002 5.213670e-002 -4.169887e-002 4.023443e-002 3.567341e-003 -4.746386e-002 1.436455e-002 2.032056e-002 9.642667e-003 3.001899e-002 -1.397761e-002 2.368205e-003 -4.110598e-002
<VARIANCE> 25
 4.609880e+001 6.693536e+001 6.272514e+001 6.732455e+001 4.431141e+001 5.731084e+001 4.301721e+001 3.878055e+001 2.747258e+001 3.577753e+001 4.324660e+001 3.058859e+001 2.010096e+000 3.780769e+000 3.113481e+000 3.466629e+000 3.227152e+000 3.939552e+000 3.029632e+000 3.001611e+000 2.104985e+000 2.180779e+000 3.160655e+000 1.931547e+000 3.474070e+000
<GCONST> 1.054027e+002
<STATE> 3
<MEAN> 25
 1.081240e-007 -1.858914e-008 -8.595348e-008 -8.527131e-009 -2.831007e-008 -3.666666e-008 -9.891472e-008 2.131783e-008 -3.069767e-009 6.821705e-008 -3.717829e-008 -2.387597e-009 1.175102e-002 5.213670e-002 -4.169887e-002 4.023443e-002 3.567341e-003 -4.746386e-002 1.436455e-002 2.032056e-002 9.642667e-003 3.001899e-002 -1.397761e-002 2.368205e-003 -4.110598e-002
<VARIANCE> 25
 4.609880e+001 6.693536e+001 6.272514e+001 6.732455e+001 4.431141e+001 5.731084e+001 4.301721e+001 3.878055e+001 2.747258e+001 3.577753e+001 4.324660e+001 3.058859e+001 2.010096e+000 3.780769e+000 3.113481e+000 3.466629e+000 3.227152e+000 3.939552e+000 3.029632e+000 3.001611e+000 2.104985e+000 2.180779e+000 3.160655e+000 1.931547e+000 3.474070e+000
<GCONST> 1.054027e+002
<STATE> 4
<MEAN> 25
 1.081240e-007 -1.858914e-008 -8.595348e-008 -8.527131e-009 -2.831007e-008 -3.666666e-008 -9.891472e-008 2.131783e-008 -3.069767e-009 6.821705e-008 -3.717829e-008 -2.387597e-009 1.175102e-002 5.213670e-002 -4.169887e-002 4.023443e-002 3.567341e-003 -4.746386e-002 1.436455e-002 2.032056e-002 9.642667e-003 3.001899e-002 -1.397761e-002 2.368205e-003 -4.110598e-002
<VARIANCE> 25
 4.609880e+001 6.693536e+001 6.272514e+001 6.732455e+001 4.431141e+001 5.731084e+001 4.301721e+001 3.878055e+001 2.747258e+001 3.577753e+001 4.324660e+001 3.058859e+001 2.010096e+000 3.780769e+000 3.113481e+000 3.466629e+000 3.227152e+000 3.939552e+000 3.029632e+000 3.001611e+000 2.104985e+000 2.180779e+000 3.160655e+000 1.931547e+000 3.474070e+000
<GCONST> 1.054027e+002
<TRANSP> 5
 0.000000e+000 1.000000e+000 0.000000e+000 0.000000e+000 0.000000e+000
 0.000000e+000 6.000000e-001 4.000000e-001 0.000000e+000 0.000000e+000
 0.000000e+000 0.000000e+000 6.000000e-001 4.000000e-001 0.000000e+000
 0.000000e+000 0.000000e+000 0.000000e+000 7.000000e-001 3.000000e-001
 0.000000e+000 0.000000e+000 0.000000e+000 0.000000e+000 0.000000e+000
<ENDHMM>
~h "m"
<BEGINHMM>
<NUMSTATES> 5
<STATE> 2
<MEAN> 25
 1.081240e-007 -1.858914e-008 -8.595348e-008 -8.527131e-009 -2.831007e-008 -3.666666e-008 -9.891472e-008 2.131783e-008 -3.069767e-009 6.821705e-008 -3.717829e-008 -2.387597e-009 1.175102e-002 5.213670e-002 -4.169887e-002 4.023443e-002 3.567341e-003 -4.746386e-002 1.436455e-002 2.032056e-002 9.642667e-003 3.001899e-002 -1.397761e-002 2.368205e-003 -4.110598e-002
<VARIANCE> 25
 4.609880e+001 6.693536e+001 6.272514e+001 6.732455e+001 4.431141e+001 5.731084e+001 4.301721e+001 3.878055e+001 2.747258e+001 3.577753e+001 4.324660e+001 3.058859e+001 2.010096e+000 3.780769e+000 3.113481e+000 3.466629e+000 3.227152e+000 3.939552e+000 3.029632e+000 3.001611e+000 2.104985e+000 2.180779e+000 3.160655e+000 1.931547e+000 3.474070e+000
<GCONST> 1.054027e+002
<STATE> 3
<MEAN> 25
 1.081240e-007 -1.858914e-008 -8.595348e-008 -8.527131e-009 -2.831007e-008 -3.666666e-008 -9.891472e-008 2.131783e-008 -3.069767e-009 6.821705e-008 -3.717829e-008 -2.387597e-009 1.175102e-002 5.213670e-002 -4.169887e-002 4.023443e-002 3.567341e-003 -4.746386e-002 1.436455e-002 2.032056e-002 9.642667e-003 3.001899e-002 -1.397761e-002 2.368205e-003 -4.110598e-002
<VARIANCE> 25
 4.609880e+001 6.693536e+001 6.272514e+001 6.732455e+001 4.431141e+001 5.731084e+001 4.301721e+001 3.878055e+001 2.747258e+001 3.577753e+001 4.324660e+001 3.058859e+001 2.010096e+000 3.780769e+000 3.113481e+000 3.466629e+000 3.227152e+000 3.939552e+000 3.029632e+000 3.001611e+000 2.104985e+000 2.180779e+000 3.160655e+000 1.931547e+000 3.474070e+000
<GCONST> 1.054027e+002
<STATE> 4
<MEAN> 25
 1.081240e-007 -1.858914e-008 -8.595348e-008 -8.527131e-009 -2.831007e-008 -3.666666e-008 -9.891472e-008 2.131783e-008 -3.069767e-009 6.821705e-008 -3.717829e-008 -2.387597e-009 1.175102e-002 5.213670e-002 -4.169887e-002 4.023443e-002 3.567341e-003 -4.746386e-002 1.436455e-002 2.032056e-002 9.642667e-003 3.001899e-002 -1.397761e-002 2.368205e-003 -4.110598e-002
<VARIANCE> 25
 4.609880e+001 6.693536e+001 6.272514e+001 6.732455e+001 4.431141e+001 5.731084e+001 4.301721e+001 3.878055e+001 2.747258e+001 3.577753e+001 4.324660e+001 3.058859e+001 2.010096e+000 3.780769e+000 3.113481e+000 3.466629e+000 3.227152e+000 3.939552e+000 3.029632e+000 3.001611e+000 2.104985e+000 2.180779e+000 3.160655e+000 1.931547e+000 3.474070e+000
<GCONST> 1.054027e+002
<TRANSP> 5
 0.000000e+000 1.000000e+000 0.000000e+000 0.000000e+000 0.000000e+000
 0.000000e+000 6.000000e-001 4.000000e-001 0.000000e+000 0.000000e+000
 0.000000e+000 0.000000e+000 6.000000e-001 4.000000e-001 0.000000e+000
 0.000000e+000 0.000000e+000 0.000000e+000 7.000000e-001 3.000000e-001
 0.000000e+000 0.000000e+000 0.000000e+000 0.000000e+000 0.000000e+000
<ENDHMM>
~h "p"
<BEGINHMM>
<NUMSTATES> 5
<STATE> 2
<MEAN> 25
 1.081240e-007 -1.858914e-008 -8.595348e-008 -8.527131e-009 -2.831007e-008 -3.666666e-008 -9.891472e-008 2.131783e-008 -3.069767e-009 6.821705e-008 -3.717829e-008 -2.387597e-009 1.175102e-002 5.213670e-002 -4.169887e-002 4.023443e-002 3.567341e-003 -4.746386e-002 1.436455e-002 2.032056e-002 9.642667e-003 3.001899e-002 -1.397761e-002 2.368205e-003 -4.110598e-002
<VARIANCE> 25
 4.609880e+001 6.693536e+001 6.272514e+001 6.732455e+001 4.431141e+001 5.731084e+001 4.301721e+001 3.878055e+001 2.747258e+001 3.577753e+001 4.324660e+001 3.058859e+001 2.010096e+000 3.780769e+000 3.113481e+000 3.466629e+000 3.227152e+000 3.939552e+000 3.029632e+000 3.001611e+000 2.104985e+000 2.180779e+000 3.160655e+000 1.931547e+000 3.474070e+000
<GCONST> 1.054027e+002
<STATE> 3
<MEAN> 25
 1.081240e-007 -1.858914e-008 -8.595348e-008 -8.527131e-009 -2.831007e-008 -3.666666e-008 -9.891472e-008 2.131783e-008 -3.069767e-009 6.821705e-008 -3.717829e-008 -2.387597e-009 1.175102e-002 5.213670e-002 -4.169887e-002 4.023443e-002 3.567341e-003 -4.746386e-002 1.436455e-002 2.032056e-002 9.642667e-003 3.001899e-002 -1.397761e-002 2.368205e-003 -4.110598e-002
<VARIANCE> 25
 4.609880e+001 6.693536e+001 6.272514e+001 6.732455e+001 4.431141e+001 5.731084e+001 4.301721e+001 3.878055e+001 2.747258e+001 3.577753e+001 4.324660e+001 3.058859e+001 2.010096e+000 3.780769e+000 3.113481e+000 3.466629e+000 3.227152e+000 3.939552e+000 3.029632e+000 3.001611e+000 2.104985e+000 2.180779e+000 3.160655e+000 1.931547e+000 3.474070e+000
<GCONST> 1.054027e+002
<STATE> 4
<MEAN> 25
 1.081240e-007 -1.858914e-008 -8.595348e-008 -8.527131e-009 -2.831007e-008 -3.666666e-008 -9.891472e-008 2.131783e-008 -3.069767e-009 6.821705e-008 -3.717829e-008 -2.387597e-009 1.175102e-002 5.213670e-002 -4.169887e-002 4.023443e-002 3.567341e-003 -4.746386e-002 1.436455e-002 2.032056e-002 9.642667e-003 3.001899e-002 -1.397761e-002 2.368205e-003 -4.110598e-002
<VARIANCE> 25
 4.609880e+001 6.693536e+001 6.272514e+001 6.732455e+001 4.431141e+001 5.731084e+001 4.301721e+001 3.878055e+001 2.747258e+001 3.577753e+001 4.324660e+001 3.058859e+001 2.010096e+000 3.780769e+000 3.113481e+000 3.466629e+000 3.227152e+000 3.939552e+000 3.029632e+000 3.001611e+000 2.104985e+000 2.180779e+000 3.160655e+000 1.931547e+000 3.474070e+000
<GCONST> 1.054027e+002
<TRANSP> 5
 0.000000e+000 1.000000e+000 0.000000e+000 0.000000e+000 0.000000e+000
 0.000000e+000 6.000000e-001 4.000000e-001 0.000000e+000 0.000000e+000
 0.000000e+000 0.000000e+000 6.000000e-001 4.000000e-001 0.000000e+000
 0.000000e+000 0.000000e+000 0.000000e+000 7.000000e-001 3.000000e-001
 0.000000e+000 0.000000e+000 0.000000e+000 0.000000e+000 0.000000e+000
<ENDHMM>
~h "sil"
<BEGINHMM>
<NUMSTATES> 5
<STATE> 2
<MEAN> 25
 1.081240e-007 -1.858914e-008 -8.595348e-008 -8.527131e-009 -2.831007e-008 -3.666666e-008 -9.891472e-008 2.131783e-008 -3.069767e-009 6.821705e-008 -3.717829e-008 -2.387597e-009 1.175102e-002 5.213670e-002 -4.169887e-002 4.023443e-002 3.567341e-003 -4.746386e-002 1.436455e-002 2.032056e-002 9.642667e-003 3.001899e-002 -1.397761e-002 2.368205e-003 -4.110598e-002
<VARIANCE> 25
 4.609880e+001 6.693536e+001 6.272514e+001 6.732455e+001 4.431141e+001 5.731084e+001 4.301721e+001 3.878055e+001 2.747258e+001 3.577753e+001 4.324660e+001 3.058859e+001 2.010096e+000 3.780769e+000 3.113481e+000 3.466629e+000 3.227152e+000 3.939552e+000 3.029632e+000 3.001611e+000 2.104985e+000 2.180779e+000 3.160655e+000 1.931547e+000 3.474070e+000
<GCONST> 1.054027e+002
<STATE> 3
<MEAN> 25
 1.081240e-007 -1.858914e-008 -8.595348e-008 -8.527131e-009 -2.831007e-008 -3.666666e-008 -9.891472e-008 2.131783e-008 -3.069767e-009 6.821705e-008 -3.717829e-008 -2.387597e-009 1.175102e-002 5.213670e-002 -4.169887e-002 4.023443e-002 3.567341e-003 -4.746386e-002 1.436455e-002 2.032056e-002 9.642667e-003 3.001899e-002 -1.397761e-002 2.368205e-003 -4.110598e-002
<VARIANCE> 25
 4.609880e+001 6.693536e+001 6.272514e+001 6.732455e+001 4.431141e+001 5.731084e+001 4.301721e+001 3.878055e+001 2.747258e+001 3.577753e+001 4.324660e+001 3.058859e+001 2.010096e+000 3.780769e+000 3.113481e+000 3.466629e+000 3.227152e+000 3.939552e+000 3.029632e+000 3.001611e+000 2.104985e+000 2.180779e+000 3.160655e+000 1.931547e+000 3.474070e+000
<GCONST> 1.054027e+002
<STATE> 4
<MEAN> 25
 1.081240e-007 -1.858914e-008 -8.595348e-008 -8.527131e-009 -2.831007e-008 -3.666666e-008 -9.891472e-008 2.131783e-008 -3.069767e-009 6.821705e-008 -3.717829e-008 -2.387597e-009 1.175102e-002 5.213670e-002 -4.169887e-002 4.023443e-002 3.567341e-003 -4.746386e-002 1.436455e-002 2.032056e-002 9.642667e-003 3.001899e-002 -1.397761e-002 2.368205e-003 -4.110598e-002
<VARIANCE> 25
 4.609880e+001 6.693536e+001 6.272514e+001 6.732455e+001 4.431141e+001 5.731084e+001 4.301721e+001 3.878055e+001 2.747258e+001 3.577753e+001 4.324660e+001 3.058859e+001 2.010096e+000 3.780769e+000 3.113481e+000 3.466629e+000 3.227152e+000 3.939552e+000 3.029632e+000 3.001611e+000 2.104985e+000 2.180779e+000 3.160655e+000 1.931547e+000 3.474070e+000
<GCONST> 1.054027e+002
<TRANSP> 5
 0.000000e+000 1.000000e+000 0.000000e+000 0.000000e+000 0.000000e+000
 0.000000e+000 6.000000e-001 4.000000e-001 0.000000e+000 0.000000e+000
 0.000000e+000 0.000000e+000 6.000000e-001 4.000000e-001 0.000000e+000
 0.000000e+000 0.000000e+000 0.000000e+000 7.000000e-001 3.000000e-001
 0.000000e+000 0.000000e+000 0.000000e+000 0.000000e+000 0.000000e+000
<ENDHMM>
