~o
<STREAMINFO> 1 25
<VECSIZE> 25<NULLD><MFCC_D_N_Z_0><DIAGC>
~h "a"
<BEGINHMM>
<NUMSTATES> 5
<STATE> 2
<MEAN> 25
 4.029833e+000 -4.943592e+000 -3.252553e+000 -5.904885e+000 -5.874750e+000 -3.653793e+000 4.687717e+000 1.476871e-001 2.283386e+000 -1.070509e+000 5.306404e+000 4.001601e+000 1.884474e-001 -6.468799e-001 -4.115324e-001 -4.376249e-001 -6.800855e-001 4.064519e-001 2.299630e-001 3.467916e-001 6.105717e-001 2.307910e-003 8.302664e-001 8.273725e-002 2.989204e-001
<VARIANCE> 25
 9.713049e+000 3.274957e+001 2.963061e+001 2.732349e+001 3.065826e+001 2.551110e+001 4.429777e+001 2.339908e+001 3.242403e+001 2.520298e+001 2.351875e+001 1.742853e+001 6.538436e-001 1.735535e+000 1.275070e+000 2.722986e+000 4.480446e+000 3.133029e+000 3.019234e+000 2.472641e+000 2.185913e+000 2.117966e+000 3.956948e+000 1.700889e+000 1.712602e+000
<GCONST> 9.473356e+001
<STATE> 3
<MEAN> 25
 5.163102e+000 -4.568667e+000 -6.012042e+000 -4.923179e+000 -4.871659e+000 -2.345805e+000 3.251700e+000 -1.461387e-001 2.280994e+000 -1.012311e-001 6.760631e+000 3.096437e+000 2.448054e-003 3.947693e-001 -1.236765e-001 7.960435e-001 7.541303e-001 3.074915e-001 -6.064646e-001 8.829076e-003 -3.836761e-001 -8.340968e-002 -1.102015e-001 4.811187e-002 -6.660111e-001
<VARIANCE> 25
 9.043344e+000 2.548046e+001 2.310297e+001 2.446760e+001 3.305249e+001 3.405588e+001 4.813253e+001 3.586491e+001 2.632734e+001 3.550430e+001 2.069321e+001 1.295861e+001 5.524937e-001 1.106500e+000 1.623130e+000 2.350076e+000 2.049701e+000 2.825242e+000 3.054705e+000 1.269712e+000 1.483291e+000 1.718619e+000 1.520646e+000 1.487310e+000 9.167667e-001
<GCONST> 9.025926e+001
<STATE> 4
<MEAN> 25
 2.596447e+000 7.961806e-001 -6.303106e+000 2.502949e-001 1.203651e+000 2.154754e+000 1.470389e-001 1.348307e-001 8.613117e-001 1.924744e+000 2.790793e+000 3.834458e+000 -1.530753e-001 5.251037e-001 -1.237031e-001 4.363284e-001 5.680176e-001 8.984985e-002 -1.199537e-001 1.487105e-001 -3.038076e-001 -6.595547e-002 -3.229009e-001 -7.171506e-002 -6.245275e-001
<VARIANCE> 25
 1.399989e+001 7.663457e+001 2.701034e+001 3.456323e+001 4.682994e+001 4.137634e+001 5.332219e+001 3.701701e+001 1.685619e+001 2.475711e+001 3.664792e+001 1.346574e+001 5.310005e-001 1.449336e+000 1.651386e+000 1.986864e+000 1.692963e+000 1.725663e+000 1.624165e+000 1.612488e+000 1.560655e+000 1.477158e+000 2.236804e+000 1.180106e+000 6.091331e-001
<GCONST> 9.142764e+001
<TRANSP> 5
 0.000000e+000 1.000000e+000 0.000000e+000 0.000000e+000 0.000000e+000
 0.000000e+000 7.160349e-001 2.839651e-001 0.000000e+000 0.000000e+000
 0.000000e+000 0.000000e+000 5.693493e-001 4.306507e-001 0.000000e+000
 0.000000e+000 0.000000e+000 0.000000e+000 6.649407e-001 3.350593e-001
 0.000000e+000 0.000000e+000 0.000000e+000 0.000000e+000 0.000000e+000
<ENDHMM>
~h "d"
<BEGINHMM>
<NUMSTATES> 5
<STATE> 2
<MEAN> 25
 3.270607e+000 5.883402e-001 -2.866625e+000 6.786740e+000 9.687000e+000 -6.604228e+000 5.283474e+000 1.880670e+000 -4.662960e+000 -2.534746e+000 -7.858501e-001 -8.947328e-001 1.171036e+000 -2.072214e+000 -8.399500e-001 -1.830018e+000 3.331588e-001 -4.041169e+000 -2.065371e+000 -1.009917e+000 -1.769161e+000 -2.410129e+000 1.632473e+000 2.987040e-001 3.512626e+000
<VARIANCE> 25
 1.926175e+001 4.258953e+001 2.013338e+001 2.357665e+001 4.864817e+001 9.531413e+001 6.123162e+001 4.139566e+001 2.269748e+001 3.413243e+001 2.381118e+001 1.726711e+000 4.324936e-001 4.497028e+000 3.216493e+000 3.756425e-001 6.969581e+000 9.570035e+000 8.072894e+000 6.207431e+000 2.676300e+000 1.382941e+000 2.854453e+000 8.886247e-001 4.480423e+000
<GCONST> 9.817582e+001
<STATE> 3
<MEAN> 25
 7.398210e+000 -6.435648e+000 -1.097812e+000 -2.450772e+000 -1.796732e+000 -6.926570e+000 -5.632914e+000 -3.071974e+000 -2.096731e+000 -6.780381e+000 6.466664e+000 -2.898700e-001 4.422281e-001 -4.144913e-001 -8.382894e-001 -9.837961e-001 -2.126772e+000 5.456752e-001 1.225296e-001 -7.294084e-002 8.230945e-001 5.740421e-001 8.436984e-001 7.182150e-001 -1.306799e-001
<VARIANCE> 25
 1.310143e+001 1.091282e+001 1.108495e+001 8.791040e+000 2.678682e+001 1.129954e+001 4.885485e+000 1.797855e+001 6.938658e+000 9.333536e+000 2.876572e+001 7.298861e+000 1.628536e-001 1.072836e+000 6.978239e-001 1.883599e+000 2.529170e+000 2.534074e+000 4.412354e+000 1.219556e+000 8.346729e-001 9.053773e-001 1.690273e+000 9.615036e-001 2.834507e-001
<GCONST> 7.620886e+001
<STATE> 4
<MEAN> 25
 5.855730e+000 -5.941720e-001 -7.432857e+000 -5.118878e+000 -5.781570e+000 -7.206582e+000 -2.551274e+000 4.533162e-001 -4.951757e-001 -2.628314e+000 7.334860e+000 5.539476e+000 -7.098688e-001 1.265434e+000 -2.180243e-001 -1.849061e-001 -4.489042e-001 1.050650e+000 4.704963e-001 1.343506e+000 5.783973e-001 1.342903e+000 1.571654e-001 5.243373e-001 -2.016014e+000
<VARIANCE> 25
 8.915819e+000 1.859180e+001 1.307826e+001 8.598790e+000 1.815814e+001 3.036376e+001 3.529138e+001 2.870372e+001 7.513619e+000 2.154263e+001 1.738072e+001 1.220959e+001 1.839669e+000 5.944804e-001 2.220990e+000 1.063266e+000 2.444902e+000 4.332018e+000 3.348147e+000 2.510378e+000 1.183759e+000 1.142391e+000 1.738562e+000 2.007392e+000 1.640702e+000
<GCONST> 8.694195e+001
<TRANSP> 5
 0.000000e+000 1.000000e+000 0.000000e+000 0.000000e+000 0.000000e+000
 0.000000e+000 6.997356e-001 3.002645e-001 0.000000e+000 0.000000e+000
 0.000000e+000 0.000000e+000 7.817008e-001 2.182992e-001 0.000000e+000
 0.000000e+000 0.000000e+000 0.000000e+000 8.660812e-001 1.339188e-001
 0.000000e+000 0.000000e+000 0.000000e+000 0.000000e+000 0.000000e+000
<ENDHMM>
~h "e"
<BEGINHMM>
<NUMSTATES> 5
<STATE> 2
<MEAN> 25
 3.460939e+000 -2.421729e+000 1.057293e+000 -1.453374e+000 -1.573585e+000 -9.980636e-001 -7.032951e-001 -3.831811e+000 -3.351058e+000 -1.473280e+000 5.809524e+000 3.342161e-001 -4.322949e-001 1.035291e-001 -8.168007e-002 -1.197362e-001 -1.221791e-001 1.912492e-001 4.912058e-001 3.896068e-001 1.490976e-002 -2.248543e-001 -2.809088e-001 2.999439e-001 -4.750434e-001
<VARIANCE> 25
 4.905336e+001 3.756816e+001 9.597245e+001 3.992372e+001 2.023463e+001 6.842878e+001 3.993924e+001 1.984628e+001 2.658534e+001 3.050341e+001 3.044972e+001 2.165648e+001 1.819577e+000 1.574722e+000 2.633972e+000 2.344213e+000 2.606081e+000 3.697941e+000 3.759550e+000 4.006058e+000 1.424098e+000 4.381033e+000 1.493271e+000 1.760498e+000 7.228820e-001
<GCONST> 9.913891e+001
<STATE> 3
<MEAN> 25
 2.014824e+000 -2.329062e+000 1.547707e+000 -1.163540e+000 -2.118168e+000 -8.637015e-001 2.556147e-001 -2.736515e+000 -3.136167e+000 -2.139157e+000 4.597942e+000 9.662592e-001 -6.226311e-001 -2.122248e-001 1.135817e-001 -4.261542e-001 8.582707e-002 3.638860e-001 6.167153e-001 8.379969e-001 3.459564e-001 -6.194587e-002 -9.966078e-001 2.891711e-001 -3.279825e-001
<VARIANCE> 25
 6.535727e+001 4.308568e+001 8.628725e+001 4.902885e+001 2.013732e+001 5.413797e+001 4.035872e+001 2.169336e+001 2.712407e+001 3.151125e+001 4.065799e+001 2.024294e+001 1.334945e+000 1.487001e+000 2.984813e+000 2.739006e+000 1.879613e+000 3.611157e+000 4.164787e+000 3.787366e+000 1.312827e+000 3.645197e+000 1.438805e+000 1.626231e+000 9.807137e-001
<GCONST> 9.932918e+001
<STATE> 4
<MEAN> 25
 2.311167e+000 -3.890486e+000 1.409050e+000 -2.300218e+000 -1.551957e+000 -2.336443e-001 1.287165e+000 -1.400972e+000 -1.974253e+000 -1.732334e+000 3.395195e+000 5.343543e-001 -6.669585e-001 -6.378149e-001 5.603370e-001 -8.177648e-001 1.275160e-001 6.171314e-001 5.261827e-001 9.546134e-001 9.458217e-001 -7.757477e-003 -1.713684e+000 9.450497e-002 -3.980387e-002
<VARIANCE> 25
 5.642475e+001 5.545929e+001 6.787418e+001 3.895128e+001 2.117926e+001 4.360484e+001 3.027064e+001 2.230734e+001 3.048483e+001 3.484127e+001 3.571913e+001 3.142537e+001 2.362854e+000 3.278491e+000 5.130096e+000 4.862840e+000 1.517477e+000 6.044732e+000 3.327074e+000 3.908430e+000 2.178613e+000 3.080708e+000 2.031662e+000 1.535124e+000 1.334441e+000
<GCONST> 1.025854e+002
<TRANSP> 5
 0.000000e+000 1.000000e+000 0.000000e+000 0.000000e+000 0.000000e+000
 0.000000e+000 8.593280e-002 9.140672e-001 0.000000e+000 0.000000e+000
 0.000000e+000 0.000000e+000 1.546990e-001 8.453010e-001 0.000000e+000
 0.000000e+000 0.000000e+000 0.000000e+000 3.871047e-001 6.128953e-001
 0.000000e+000 0.000000e+000 0.000000e+000 0.000000e+000 0.000000e+000
<ENDHMM>
~h "g"
<BEGINHMM>
<NUMSTATES> 5
<STATE> 2
<MEAN> 25
 3.296731e-001 3.746008e+000 8.325593e+000 6.137697e+000 6.384389e+000 -1.601150e+000 -1.777718e+000 -1.749853e+000 2.464747e+000 1.427286e+000 -4.363416e+000 -6.420454e+000 7.795631e-001 -4.459079e-001 -9.638193e-002 4.696732e-001 1.227252e+000 -1.433700e+000 -1.310126e+000 -1.444397e+000 -6.370230e-001 -6.409775e-001 7.390085e-001 -3.048087e-001 1.576047e+000
<VARIANCE> 25
 1.122504e+001 1.306467e+002 3.323072e+001 4.231815e+001 3.049670e+001 3.535412e+001 4.592412e+001 6.787976e+001 2.192282e+001 2.328268e+001 2.110572e+001 1.359611e+001 1.729831e+000 1.513103e+001 5.610139e+000 6.528174e+000 3.040412e+000 3.668010e+000 4.489149e+000 1.083743e+001 2.757245e+000 2.188408e+000 2.623284e+000 3.259275e+000 4.320168e+000
<GCONST> 1.059770e+002
<STATE> 3
<MEAN> 25
 3.944594e+000 -4.610131e+000 2.905970e+000 5.972057e+000 6.475674e+000 -8.307231e+000 -1.047018e+001 -8.696445e+000 -2.932736e+000 -2.883056e+000 3.933975e+000 -3.619476e+000 5.147335e-001 -1.517214e-001 -3.601691e-001 -2.191397e-001 -1.495611e+000 6.978952e-001 -7.917582e-001 -1.243453e-001 -4.915590e-002 2.854057e-001 1.399573e+000 6.394304e-001 -4.145164e-001
<VARIANCE> 25
 1.078390e+001 1.164616e+001 2.303307e+001 2.131513e+001 2.560385e+001 2.057793e+001 1.288937e+001 4.293531e+001 1.379416e+001 1.576137e+001 2.645070e+001 1.120090e+001 5.929645e-001 7.650652e-001 2.247441e+000 7.191097e-001 1.525788e+000 2.689415e+000 2.998576e+000 2.086969e+000 1.602878e+000 1.299808e+000 2.137773e+000 1.209718e+000 3.402387e-001
<GCONST> 8.417383e+001
<STATE> 4
<MEAN> 25
 -9.776996e-001 -5.962488e+000 1.168204e+001 -4.432559e-001 2.461408e-002 3.808021e+000 -6.658637e+000 -3.591537e+000 -1.414429e+000 2.317175e+000 6.220057e+000 -4.459484e+000 -2.778957e+000 -1.408968e+000 2.953787e+000 -3.223353e+000 -1.534986e+000 2.389897e+000 1.493138e+000 2.357899e+000 -9.345011e-002 8.343385e-001 2.850087e-001 -3.418227e-001 -7.485693e-001
<VARIANCE> 25
 7.303779e+001 1.929176e+001 1.276174e+002 4.398285e+001 1.123196e+001 5.841249e+001 1.814817e+001 3.772218e+001 9.339438e+000 2.155371e+001 1.633523e+001 1.286720e+001 5.735834e+000 2.352782e+000 5.768713e+000 5.652886e+000 1.373796e+000 3.720727e+000 2.948401e+000 4.224113e+000 8.908202e-001 1.466891e+000 1.317156e+000 5.738909e-001 4.478094e-001
<GCONST> 9.492315e+001
<TRANSP> 5
 0.000000e+000 1.000000e+000 0.000000e+000 0.000000e+000 0.000000e+000
 0.000000e+000 8.541417e-001 1.458583e-001 0.000000e+000 0.000000e+000
 0.000000e+000 0.000000e+000 8.187278e-001 1.812722e-001 0.000000e+000
 0.000000e+000 0.000000e+000 0.000000e+000 4.882149e-001 5.117850e-001
 0.000000e+000 0.000000e+000 0.000000e+000 0.000000e+000 0.000000e+000
<ENDHMM>
~h "i"
<BEGINHMM>
<NUMSTATES> 5
<STATE> 2
<MEAN> 25
 3.215124e+000 -1.270005e+000 3.460169e+000 9.749406e+000 7.954129e+000 -8.086184e+000 -9.366892e+000 -2.414213e-001 -5.069190e+000 -2.761690e+000 3.374376e+000 -8.967254e+000 -3.832070e-001 1.409088e-001 2.083172e-001 7.707876e-001 -2.159335e-001 -1.531007e-001 -4.875047e-002 8.820270e-002 4.658892e-003 2.142908e-001 -5.559037e-001 -2.694228e-001 -6.649665e-001
<VARIANCE> 25
 6.949997e+000 1.665208e+001 2.783604e+001 4.387665e+001 3.232487e+001 4.262993e+001 2.812587e+001 3.619572e+001 2.222959e+001 2.058562e+001 3.279889e+001 3.271781e+001 5.677349e-001 1.201010e+000 1.603159e+000 3.192796e+000 2.877906e+000 4.134261e+000 3.017862e+000 1.890300e+000 1.516629e+000 1.582948e+000 1.676739e+000 1.964267e+000 8.092660e-001
<GCONST> 9.238799e+001
<STATE> 3
<MEAN> 25
 8.790238e-001 1.376182e+000 4.715347e+000 1.284085e+001 5.371943e+000 -3.708467e+000 -5.079271e+000 1.917986e+000 1.287730e-001 -1.042247e+000 -1.673650e+000 -4.347448e+000 -3.849111e-001 5.733527e-001 -4.540139e-001 -9.010285e-002 -2.141908e-001 8.582792e-001 8.178817e-001 6.210434e-001 7.195330e-001 6.677485e-001 -2.404231e-001 7.250698e-001 -1.010669e+000
<VARIANCE> 25
 1.125277e+001 4.237767e+001 3.452719e+001 2.794098e+001 2.089724e+001 3.366054e+001 2.741498e+001 7.012639e+001 2.535849e+001 3.408692e+001 2.785496e+001 2.499429e+001 4.961827e-001 1.263136e+000 1.208342e+000 2.422269e+000 1.407487e+000 3.135329e+000 3.193821e+000 1.809866e+000 1.106284e+000 7.233050e-001 1.107989e+000 1.711385e+000 6.142568e-001
<GCONST> 9.018636e+001
<STATE> 4
<MEAN> 25
 -5.236009e+000 2.422268e+000 -1.983550e+000 4.803441e+000 1.242305e+000 1.767966e+000 -4.906348e-001 9.261860e-001 2.613462e+000 2.740118e+000 -3.480508e+000 1.644198e+000 -1.641035e-001 -3.433928e-002 -1.927523e-001 -3.424667e-001 -1.090451e-001 2.105323e-001 3.398529e-002 -7.201729e-002 9.301608e-002 7.037104e-002 1.036523e-002 9.854646e-002 -1.541680e-001
<VARIANCE> 25
 1.348945e+001 3.349058e+001 1.519546e+001 2.355492e+001 1.788327e+001 3.978307e+001 2.586778e+001 1.969886e+001 1.749533e+001 1.167869e+001 1.408887e+001 9.008670e+000 2.671809e-001 6.415699e-001 8.235647e-001 9.646677e-001 1.130739e+000 2.177942e+000 2.043550e+000 1.201994e+000 1.203645e+000 8.686658e-001 1.103003e+000 8.720550e-001 2.267416e-001
<GCONST> 7.923249e+001
<TRANSP> 5
 0.000000e+000 1.000000e+000 0.000000e+000 0.000000e+000 0.000000e+000
 0.000000e+000 8.123582e-001 1.876418e-001 0.000000e+000 0.000000e+000
 0.000000e+000 0.000000e+000 7.943748e-001 2.056252e-001 0.000000e+000
 0.000000e+000 0.000000e+000 0.000000e+000 9.265956e-001 7.340442e-002
 0.000000e+000 0.000000e+000 0.000000e+000 0.000000e+000 0.000000e+000
<ENDHMM>
~h "j"
<BEGINHMM>
<NUMSTATES> 5
<STATE> 2
<MEAN> 25
 -3.959456e+000 -8.745913e+000 1.483441e+001 -9.199964e-001 1.696828e+000 3.518552e+000 2.836025e+000 2.802157e+000 1.928968e+000 1.141438e+000 -2.906540e+000 -7.291450e+000 2.076481e+000 7.367415e-001 -1.193811e+000 2.047826e+000 1.956643e+000 -1.732896e+000 -1.093365e+000 -1.375613e+000 -9.309525e-001 -1.475547e+000 5.475091e-001 -1.295932e-001 3.418412e-001
<VARIANCE> 25
 2.974375e+001 1.072487e+002 6.468770e+001 8.439127e+001 3.894735e+001 3.895154e+001 4.270135e+001 4.047389e+001 1.029251e+001 1.128887e+001 1.498291e+001 9.934758e+000 6.959231e+000 2.158127e+001 1.392644e+001 1.494848e+001 1.085699e+001 6.166241e+000 3.418981e+000 3.828723e+000 2.055670e+000 3.248264e+000 2.522898e+000 1.349712e+000 5.051008e+000
<GCONST> 1.090270e+002
<STATE> 3
<MEAN> 25
 3.865456e+000 -4.687520e+000 3.617352e+000 5.580515e+000 4.302393e+000 -4.924888e+000 -3.829035e+000 -6.343177e+000 -2.302735e+000 -4.682327e+000 -1.575460e+000 -6.507456e+000 3.781185e-001 3.434361e-001 -1.063974e+000 2.563164e-001 -2.756458e-001 -2.709480e-001 -5.207834e-002 -2.729972e-001 -9.376668e-001 2.287420e-001 8.183762e-001 6.823362e-001 -6.889137e-001
<VARIANCE> 25
 2.762995e+000 2.265520e+001 1.029955e+001 7.310316e+000 3.159293e+001 1.921933e+001 2.459443e+001 2.608500e+001 1.692333e+001 1.040631e+001 2.935650e+001 8.672493e+000 1.920348e+000 3.817093e+000 3.683248e+000 3.080548e+000 3.534750e+000 3.123520e+000 2.355629e+000 1.781116e+000 2.340460e+000 2.184100e+000 2.089914e+000 1.138335e+000 2.011127e+000
<GCONST> 8.944201e+001
<STATE> 4
<MEAN> 25
 -1.190543e-002 3.116924e+000 2.866193e+000 8.507169e+000 6.071171e+000 3.212855e+000 1.691629e+000 -4.517218e-001 -3.706116e-001 2.667625e+000 -2.099878e+000 -8.293281e-001 -1.003902e+000 1.608876e-001 9.782864e-001 -6.618685e-001 -6.573922e-001 2.034389e+000 3.725719e-001 8.405635e-001 1.144827e+000 9.852937e-001 -3.115599e-002 5.779077e-001 -1.101231e+000
<VARIANCE> 25
 2.050431e+001 7.821417e+001 2.250486e+001 3.713855e+001 5.199315e+001 3.533077e+001 1.806836e+001 2.216764e+001 2.839424e+001 3.323739e+001 3.042947e+001 1.353843e+001 2.706203e+000 1.887917e+001 3.872467e+000 5.723555e+000 4.102773e+000 5.689726e+000 2.182764e+000 1.725242e+000 3.429487e+000 4.070099e+000 7.086322e+000 2.942373e+000 2.019713e+001
<GCONST> 1.066222e+002
<TRANSP> 5
 0.000000e+000 1.000000e+000 0.000000e+000 0.000000e+000 0.000000e+000
 0.000000e+000 6.790496e-001 3.209505e-001 0.000000e+000 0.000000e+000
 0.000000e+000 0.000000e+000 7.568584e-001 2.431416e-001 0.000000e+000
 0.000000e+000 0.000000e+000 0.000000e+000 7.657042e-001 2.342958e-001
 0.000000e+000 0.000000e+000 0.000000e+000 0.000000e+000 0.000000e+000
<ENDHMM>
~h "k"
<BEGINHMM>
<NUMSTATES> 5
<STATE> 2
<MEAN> 25
 -5.759477e+000 -5.166706e+000 -2.328416e-001 -2.128928e+000 -4.983175e+000 6.564666e-002 4.220145e-001 2.345899e+000 -2.661975e+000 1.810743e+000 -6.549430e-001 2.026973e+000 1.194118e+000 -3.273177e+000 2.198207e+000 -1.552740e+000 9.613896e-003 5.323190e-001 -2.138967e-002 1.258467e+000 -8.166128e-001 -1.068238e+000 1.711186e+000 -1.298270e+000 3.888655e+000
<VARIANCE> 25
 1.863630e+001 1.050825e+002 8.874770e+001 3.931109e+001 4.005491e+001 2.663256e+001 3.949923e+001 4.113639e+001 4.079220e+001 2.545160e+001 2.770141e+001 1.649278e+001 1.746012e+000 9.140338e+000 5.925230e+000 7.003693e+000 3.886528e+000 3.667323e+000 3.973850e+000 2.750416e+000 5.039073e+000 1.649303e+000 5.346392e+000 2.096906e+000 6.099178e+000
<GCONST> 1.070061e+002
<STATE> 3
<MEAN> 25
 -1.051828e+000 -8.040495e+000 8.480533e+000 -5.822287e+000 -2.125749e+000 3.821565e+000 1.118028e-001 4.038911e+000 -5.204143e+000 -1.875199e+000 5.098239e+000 -2.871450e+000 1.891580e+000 1.473113e+000 1.055630e+000 1.482110e+000 1.904751e+000 -1.858613e+000 3.339711e-002 -1.407428e+000 2.670478e-001 -7.627882e-001 7.694116e-001 -4.574864e-001 2.664048e+000
<VARIANCE> 25
 9.750788e+000 4.073766e+001 5.757591e+001 8.255207e+001 3.155429e+001 4.330891e+001 3.469433e+001 4.308518e+001 4.360041e+001 2.055963e+001 5.015421e+001 1.812425e+001 9.974548e-001 9.078610e+000 5.373363e+000 6.276505e+000 6.810229e+000 6.315937e+000 7.437076e+000 4.111837e+000 3.087210e+000 4.712996e+000 4.338911e+000 4.057488e+000 5.140366e+000
<GCONST> 1.086249e+002
<STATE> 4
<MEAN> 25
 2.396974e+000 -2.357913e+000 7.746319e+000 4.322505e+000 5.211287e+000 -9.741722e+000 -9.725362e-002 -1.762744e-001 -3.779999e+000 -5.761518e+000 2.935899e+000 -3.907096e-001 7.738546e-001 5.666983e-001 -9.462309e-001 1.147732e+000 5.692611e-001 -2.172852e+000 -5.781758e-001 -1.193415e+000 6.107728e-001 -2.667826e-001 -1.015631e-001 4.620739e-001 6.786980e-001
<VARIANCE> 25
 6.409162e+000 1.284182e+001 4.141449e+001 5.888934e+001 4.152624e+001 5.267149e+001 5.274271e+001 3.873214e+001 1.960177e+001 3.947527e+001 2.974221e+001 2.496832e+001 8.701655e-001 2.756230e+000 2.127877e+000 3.187662e+000 7.656826e+000 7.693813e+000 5.825799e+000 3.129606e+000 3.399721e+000 2.249434e+000 2.941092e+000 3.091280e+000 1.174045e+000
<GCONST> 1.009012e+002
<TRANSP> 5
 0.000000e+000 1.000000e+000 0.000000e+000 0.000000e+000 0.000000e+000
 0.000000e+000 7.177998e-001 2.822002e-001 0.000000e+000 0.000000e+000
 0.000000e+000 0.000000e+000 5.175981e-001 4.824020e-001 0.000000e+000
 0.000000e+000 0.000000e+000 0.000000e+000 5.352966e-001 4.647034e-001
 0.000000e+000 0.000000e+000 0.000000e+000 0.000000e+000 0.000000e+000
<ENDHMM>
~h "l"
<BEGINHMM>
<NUMSTATES> 5
<STATE> 2
<MEAN> 25
 6.163371e+000 2.649133e+000 -1.630857e+000 -1.750428e-001 1.786304e-001 -7.108005e+000 7.332784e-001 7.370098e-001 -3.020440e+000 -8.452442e+000 -3.276299e+000 -3.115279e+000 2.671023e-002 1.061813e-002 4.286596e-002 -7.179686e-002 -2.084510e-001 -4.522755e-002 -2.114164e-002 2.030677e-001 1.056042e-001 -8.181741e-003 1.229589e-001 -1.696134e-001 -2.920136e-002
<VARIANCE> 25
 9.741447e+000 3.214637e+001 2.187302e+001 2.927039e+001 4.079785e+001 4.219467e+001 2.545317e+001 3.187607e+001 2.816351e+001 2.906904e+001 6.013634e+001 2.621959e+001 4.490329e-001 1.460241e+000 1.231257e+000 2.471803e+000 2.942366e+000 2.746073e+000 1.519664e+000 2.412513e+000 2.339893e+000 1.454013e+000 4.943501e+000 1.902158e+000 9.054451e-001
<GCONST> 9.382153e+001
<STATE> 3
<MEAN> 25
 5.495916e+000 -1.681252e+000 -1.125627e+000 -4.442496e+000 -6.130256e+000 -6.470659e+000 2.754178e+000 5.076652e-001 -2.641872e+000 -4.661048e+000 3.159306e+000 -7.044259e-001 -1.599806e-001 -7.070571e-001 7.591540e-002 4.794190e-002 -2.804809e-001 7.072220e-001 -8.355657e-002 -8.323200e-001 5.111491e-001 1.281404e+000 4.717323e-001 4.523802e-001 1.255367e-001
<VARIANCE> 25
 1.050032e+001 2.263432e+001 2.133014e+001 2.237407e+001 3.786084e+001 2.462175e+001 1.610243e+001 4.388972e+001 2.837881e+001 4.254895e+001 3.758244e+001 1.939963e+001 2.170306e-001 1.682893e+000 7.391525e-001 2.070190e+000 2.797426e+000 1.904187e+000 1.808843e+000 3.531655e+000 2.736959e+000 2.961323e+000 3.605360e+000 1.942213e+000 5.034590e-001
<GCONST> 9.096999e+001
<STATE> 4
<MEAN> 25
 9.001184e+000 6.141798e+000 -1.731883e+000 -1.758047e+000 1.428707e+000 -7.330373e+000 -2.041229e-001 1.567668e+000 -1.816345e+000 -3.858496e-001 2.956316e+000 -3.934665e-001 -1.808655e-001 6.233343e-001 9.178581e-002 1.475109e-001 -7.119251e-002 3.336772e-001 2.143576e-001 -3.261089e-002 3.142976e-001 6.371357e-001 4.343892e-002 1.265724e-001 -5.189705e-001
<VARIANCE> 25
 3.302101e+001 1.935639e+002 9.323417e+001 3.788620e+001 5.323832e+001 4.084546e+001 6.873863e+001 2.396375e+001 2.552269e+001 4.822461e+001 3.457665e+001 1.188713e+001 3.876953e+000 3.786733e+000 5.672060e+000 4.786448e+000 6.175830e+000 5.181441e+000 4.233354e+000 3.106180e+000 2.162555e+000 3.111561e+000 3.425328e+000 2.186223e+000 3.857396e+000
<GCONST> 1.084047e+002
<TRANSP> 5
 0.000000e+000 1.000000e+000 0.000000e+000 0.000000e+000 0.000000e+000
 0.000000e+000 8.945290e-001 1.054710e-001 0.000000e+000 0.000000e+000
 0.000000e+000 0.000000e+000 7.032651e-001 2.967349e-001 0.000000e+000
 0.000000e+000 0.000000e+000 0.000000e+000 7.542284e-001 2.457717e-001
 0.000000e+000 0.000000e+000 0.000000e+000 0.000000e+000 0.000000e+000
<ENDHMM>
~h "m"
<BEGINHMM>
<NUMSTATES> 5
<STATE> 2
<MEAN> 25
 -3.662830e-001 1.279966e+001 5.696732e+000 -3.235335e+000 6.826827e+000 -2.255886e+000 6.400599e+000 1.198610e+000 -5.989172e-001 2.244113e+000 -7.716705e-001 -1.582096e+000 7.399601e-001 -2.694489e-001 -1.321438e+000 -7.013867e-001 1.430417e+000 -3.828327e+000 1.963028e-002 8.875820e-001 6.914753e-001 6.250902e-002 -1.843976e-001 -8.382691e-001 1.868153e+000
<VARIANCE> 25
 1.080674e+001 2.736318e+001 2.267166e+001 2.380158e+001 4.643439e+001 1.025725e+002 4.139751e+001 2.186137e+001 1.367638e+001 1.047892e+001 1.844615e+001 1.678195e+001 4.898368e-001 1.039905e+000 1.836918e+000 9.407385e-001 7.567726e+000 9.296092e+000 1.059015e+001 1.338360e+000 1.803726e+000 2.108399e+000 5.434038e+000 1.367459e+000 2.090255e+000
<GCONST> 9.475992e+001
<STATE> 3
<MEAN> 25
 -3.738561e+000 -1.098366e+000 -1.265090e+000 -2.830345e+000 -3.382632e+000 -1.458517e-001 -1.201801e+000 -1.309220e+000 -7.006532e-003 -2.861260e-002 -6.454362e-001 4.608436e-001 9.736885e-002 -3.407807e-001 7.989629e-002 -7.079788e-002 -3.483171e-001 1.495806e-001 -1.176238e-001 -4.238612e-002 1.703907e-002 -1.322049e-001 9.747842e-002 -4.647967e-002 1.782961e-001
<VARIANCE> 25
 2.336805e+001 1.905280e+001 8.076431e+000 1.369168e+001 2.563589e+001 2.827882e+001 1.046463e+001 1.070139e+001 7.283864e+000 1.122189e+001 1.234768e+001 1.841455e+001 5.543479e-001 6.059494e-001 6.347025e-001 1.234316e+000 2.290093e+000 1.075497e+000 1.480792e+000 1.711378e+000 6.749088e-001 7.868327e-001 1.069474e+000 1.722813e+000 3.904375e-001
<GCONST> 7.741984e+001
<STATE> 4
<MEAN> 25
 1.033053e+001 -1.459601e+000 1.563926e+000 -3.170372e+000 3.012865e+000 -4.852240e+000 7.853944e-001 1.624833e+000 1.056415e+000 -6.464227e+000 -1.499252e+000 -5.845227e+000 4.755109e-001 -2.909311e-001 -1.959425e-001 3.990725e-002 1.368162e-001 5.924467e-002 6.197412e-003 -3.064017e-001 -1.284933e-001 -3.890084e-001 -3.627074e-001 -8.372113e-002 5.455262e-001
<VARIANCE> 25
 2.927063e+001 3.342867e+001 1.975832e+001 3.043831e+001 6.618562e+001 5.772454e+001 4.046454e+001 4.349885e+001 1.195662e+001 3.598899e+001 4.715076e+001 4.732355e+001 2.470614e+000 3.042714e+000 1.941495e+000 3.342687e+000 6.402315e+000 3.802896e+000 3.666964e+000 4.437341e+000 1.318276e+000 1.509945e+000 4.204374e+000 5.495639e+000 1.148257e+000
<GCONST> 1.025644e+002
<TRANSP> 5
 0.000000e+000 1.000000e+000 0.000000e+000 0.000000e+000 0.000000e+000
 0.000000e+000 7.457232e-001 2.542768e-001 0.000000e+000 0.000000e+000
 0.000000e+000 0.000000e+000 9.584239e-001 4.157613e-002 0.000000e+000
 0.000000e+000 0.000000e+000 0.000000e+000 9.331222e-001 6.687785e-002
 0.000000e+000 0.000000e+000 0.000000e+000 0.000000e+000 0.000000e+000
<ENDHMM>
~h "n"
<BEGINHMM>
<NUMSTATES> 5
<STATE> 2
<MEAN> 25
 5.810400e+000 -4.046532e+000 -5.684526e+000 -5.245944e+000 -4.715158e+000 -3.204103e+000 3.980117e+000 4.308595e+000 -1.322259e+000 -4.411348e+000 1.031507e+001 2.149525e+000 6.744877e-003 2.105426e+000 -1.538657e-001 1.979021e+000 2.532655e+000 5.086227e-001 -1.441282e+000 5.642226e-001 -6.236365e-001 -3.474592e-001 -1.719965e+000 -8.932291e-001 -2.071540e+000
<VARIANCE> 25
 4.355866e+000 1.955843e+001 3.121476e+001 2.902505e+001 2.623590e+001 2.586188e+001 4.887187e+001 7.157064e+001 1.480467e+001 2.647830e+001 4.004386e+001 1.009216e+001 5.085685e-001 2.151442e+000 3.137185e+000 2.806909e+000 3.335626e+000 2.625993e+000 2.622620e+000 5.058242e+000 2.330611e+000 2.368299e+000 7.097554e+000 1.959810e+000 1.494025e+000
<GCONST> 9.561678e+001
<STATE> 3
<MEAN> 25
 4.638495e+000 5.391713e+000 -5.049679e+000 5.922207e+000 6.064590e+000 -1.741484e-001 -7.630507e-001 4.474292e+000 8.581546e-002 -3.204692e+000 -4.668343e+000 -2.867053e+000 -5.597031e-001 1.913386e+000 1.121622e+000 3.315581e+000 2.329933e+000 1.288622e+000 -1.090967e+000 -2.430946e-001 9.133067e-001 3.714151e-001 -4.512333e+000 -2.027728e+000 -2.314187e+000
<VARIANCE> 25
 4.492166e+000 1.365094e+001 3.364151e+001 2.691266e+001 2.944831e+001 2.093567e+001 1.826587e+001 2.602221e+001 2.123248e+001 2.014345e+001 5.825119e+001 1.497858e+001 3.523516e-001 9.736756e-001 2.319403e+000 2.218213e+000 2.906896e+000 4.350670e+000 3.533853e+000 5.347080e+000 2.022674e+000 2.221081e+000 5.370124e+000 8.435777e-001 7.355340e-001
<GCONST> 9.103987e+001
<STATE> 4
<MEAN> 25
 3.151237e+000 8.110030e+000 -2.400780e+000 1.184134e+001 6.793436e+000 8.633578e-001 2.147784e+000 3.563143e+000 4.448762e-001 -6.956967e-001 -9.141183e+000 -5.434188e+000 -2.232247e-001 1.280374e-001 1.264412e-001 1.705198e-001 -4.429148e-001 -2.056904e-001 9.094766e-001 -1.295118e-001 -2.721640e-001 6.734113e-001 4.974653e-001 3.192583e-001 -1.747183e-001
<VARIANCE> 25
 3.174489e+000 2.055852e+001 1.152192e+001 1.502572e+001 2.014725e+001 1.807358e+001 3.389704e+001 1.577764e+001 2.759709e+001 3.320955e+001 2.212079e+001 1.139338e+001 2.670334e-001 7.539055e-001 7.438272e-001 2.401504e+000 2.375665e+000 2.506696e+000 2.278147e+000 7.168988e-001 1.602380e+000 1.315407e+000 2.372065e+000 1.628580e+000 8.377436e-001
<GCONST> 8.298103e+001
<TRANSP> 5
 0.000000e+000 1.000000e+000 0.000000e+000 0.000000e+000 0.000000e+000
 0.000000e+000 6.851677e-001 3.148323e-001 0.000000e+000 0.000000e+000
 0.000000e+000 0.000000e+000 5.916968e-001 4.083032e-001 0.000000e+000
 0.000000e+000 0.000000e+000 0.000000e+000 8.378937e-001 1.621062e-001
 0.000000e+000 0.000000e+000 0.000000e+000 0.000000e+000 0.000000e+000
<ENDHMM>
~h "p"
<BEGINHMM>
<NUMSTATES> 5
<STATE> 2
<MEAN> 25
 5.326126e+000 5.537813e-001 8.928599e-001 -4.150696e+000 -2.012768e+000 -4.079649e+000 3.190764e+000 -2.294967e+000 -2.027478e+000 -2.188847e+000 -1.544780e+000 -6.338678e+000 2.445190e-001 5.508157e-001 4.266933e-001 2.053712e-001 -1.738809e-001 -1.822639e-001 8.816617e-002 2.002208e-002 -6.076835e-001 -6.573926e-001 -1.483470e-001 -4.194122e-001 -8.638933e-002
<VARIANCE> 25
 8.729150e+000 4.818220e+001 1.277662e+001 1.564786e+001 2.356429e+001 9.261618e+001 4.550404e+001 2.828020e+001 3.079042e+001 2.134574e+001 3.452916e+001 1.689993e+001 7.264748e-001 5.152427e+000 1.143099e+000 2.020039e+000 2.941077e+000 1.012082e+001 4.815415e+000 1.799392e+000 1.875316e+000 1.637188e+000 4.074291e+000 1.012951e+000 1.870090e+000
<GCONST> 9.586659e+001
<STATE> 3
<MEAN> 25
 -3.740339e-001 5.088124e+000 4.353656e+000 1.421808e-002 -1.826213e+000 4.102345e+000 2.807177e+000 1.041350e+000 -1.607427e+000 -4.963303e-001 -3.344823e+000 -3.352124e+000 -2.994423e+000 2.049818e+000 -2.368318e-001 1.614489e+000 3.746061e-001 1.448037e+000 3.209481e-001 6.216990e-001 6.912386e-001 1.767943e+000 -1.431741e+000 1.785377e+000 -4.915743e+000
<VARIANCE> 25
 2.962601e+001 6.684597e+001 1.815461e+001 3.236496e+001 2.778675e+001 2.632091e+001 5.619356e+001 3.105727e+001 2.464453e+001 4.152428e+001 3.286161e+001 2.315276e+001 1.026219e+000 7.662704e+000 1.931154e+000 3.751820e+000 5.323672e+000 6.171061e+000 5.528133e+000 6.521775e+000 6.215488e+000 2.507110e+000 3.034803e+000 1.871049e+000 3.487617e+000
<GCONST> 1.043905e+002
<STATE> 4
<MEAN> 25
 -8.061027e+000 4.497276e+000 5.722641e-002 -5.453658e-002 -3.335791e+000 4.362975e+000 2.717386e-001 -8.971605e-001 -2.105433e+000 1.369417e+000 -5.979970e+000 4.452601e-001 1.828266e-001 -1.259524e+000 1.188604e-001 -8.733983e-001 -6.064796e-002 2.218427e-001 -5.596201e-001 -2.421587e-001 8.781967e-002 3.097498e-001 6.694828e-001 -2.831732e-002 1.052282e+000
<VARIANCE> 25
 9.356363e+000 4.360125e+001 1.531713e+001 1.191048e+001 1.261260e+001 3.010771e+001 2.332240e+001 1.738379e+001 1.555396e+001 1.136224e+001 1.329263e+001 1.184674e+001 1.750554e+000 4.724855e+000 2.819277e+000 2.276346e+000 2.183038e+000 3.012666e+000 1.765495e+000 2.171782e+000 1.612542e+000 1.546565e+000 2.133204e+000 1.052749e+000 6.924387e+000
<GCONST> 9.020004e+001
<TRANSP> 5
 0.000000e+000 1.000000e+000 0.000000e+000 0.000000e+000 0.000000e+000
 0.000000e+000 8.812920e-001 1.187080e-001 0.000000e+000 0.000000e+000
 0.000000e+000 0.000000e+000 7.230443e-001 2.769556e-001 0.000000e+000
 0.000000e+000 0.000000e+000 0.000000e+000 8.842849e-001 1.157152e-001
 0.000000e+000 0.000000e+000 0.000000e+000 0.000000e+000 0.000000e+000
<ENDHMM>
~h "r"
<BEGINHMM>
<NUMSTATES> 5
<STATE> 2
<MEAN> 25
 5.979982e+000 1.549904e+000 -7.613140e+000 -1.062817e+000 3.206566e+000 2.059716e+000 -5.645577e-001 -1.611163e+000 -1.203010e-001 -3.374452e+000 7.744050e-002 4.356613e+000 -5.742864e-001 1.201618e+000 -8.336918e-002 5.473797e-001 3.743378e-001 8.875901e-001 8.965198e-001 4.178414e-001 -7.393995e-001 4.770858e-001 -2.100957e-001 3.376450e-002 -1.572599e+000
<VARIANCE> 25
 1.355618e+001 3.510562e+001 3.768878e+001 2.710005e+001 2.397087e+001 3.275455e+001 3.139861e+001 4.100055e+001 2.442693e+001 4.174042e+001 2.142508e+001 2.941558e+001 3.033065e+000 3.513705e+000 3.495494e+000 2.101905e+000 3.458769e+000 3.507538e+000 3.022653e+000 4.182106e+000 2.652724e+000 4.079758e+000 3.409490e+000 2.767317e+000 3.809256e+000
<GCONST> 1.015973e+002
<STATE> 3
<MEAN> 25
 -1.726938e-001 3.308937e+000 -4.401222e+000 2.463932e+000 2.746928e+000 4.792026e+000 3.463003e+000 2.706324e+000 -3.197972e+000 5.424890e-001 1.822942e+000 3.627727e+000 -1.576860e+000 -9.324245e-002 4.422031e-002 4.213120e-001 -4.347159e-001 -3.287355e-001 5.407076e-002 2.025726e-001 -9.688659e-002 1.064922e+000 2.048975e-001 -1.544229e-001 -1.579140e+000
<VARIANCE> 25
 2.978576e+001 5.460081e+001 3.780638e+001 2.759610e+001 3.930576e+001 3.523729e+001 3.100901e+001 3.645634e+001 2.411854e+001 3.302399e+001 3.027339e+001 2.154441e+001 3.424330e+000 4.345599e+000 3.589512e+000 3.912007e+000 4.704265e+000 3.958713e+000 6.045769e+000 4.474778e+000 2.695602e+000 4.444650e+000 3.245775e+000 3.264965e+000 3.271585e+000
<GCONST> 1.053092e+002
<STATE> 4
<MEAN> 25
 -5.469499e+000 6.015459e+000 -6.317005e+000 1.231028e+000 -3.516251e-001 2.854753e+000 1.177881e+000 5.643859e-001 -8.299325e-001 3.492847e+000 -3.102379e+000 4.734783e+000 -3.034710e-001 1.577018e-001 6.212091e-002 -7.658250e-002 -1.748854e-001 -4.936371e-001 -2.351685e-001 -3.362060e-001 1.112715e-002 2.970587e-002 -5.926649e-001 -2.318748e-001 -2.274225e-001
<VARIANCE> 25
 1.726862e+001 1.911999e+001 3.207309e+001 1.462684e+001 2.953058e+001 2.167055e+001 3.697807e+001 3.862627e+001 1.746781e+001 2.301272e+001 2.125488e+001 2.718723e+001 4.788651e-001 1.537957e+000 1.765542e+000 1.975205e+000 1.703559e+000 2.046018e+000 1.978395e+000 3.239000e+000 2.100969e+000 1.477479e+000 1.940760e+000 2.447459e+000 9.001818e-001
<GCONST> 9.061393e+001
<TRANSP> 5
 0.000000e+000 1.000000e+000 0.000000e+000 0.000000e+000 0.000000e+000
 0.000000e+000 7.290810e-001 2.709190e-001 0.000000e+000 0.000000e+000
 0.000000e+000 0.000000e+000 6.502610e-001 3.497390e-001 0.000000e+000
 0.000000e+000 0.000000e+000 0.000000e+000 8.150635e-001 1.849364e-001
 0.000000e+000 0.000000e+000 0.000000e+000 0.000000e+000 0.000000e+000
<ENDHMM>
~h "s"
<BEGINHMM>
<NUMSTATES> 5
<STATE> 2
<MEAN> 25
 -1.135505e+001 -1.144963e+001 1.850604e+001 -1.643685e+001 -2.010354e+000 1.037557e+001 3.199314e-001 1.547207e+000 2.449805e+000 5.062135e+000 1.897102e-001 -1.134236e+000 -1.033970e+000 -9.995833e-001 1.244515e+000 -8.648838e-001 -1.471633e-001 4.892458e-001 -2.533395e-001 2.259300e-001 -4.377998e-003 -5.522551e-002 -2.601448e-001 -2.720716e-002 3.451073e-001
<VARIANCE> 25
 5.293513e+001 4.036308e+001 8.300054e+001 4.680246e+001 2.708572e+001 2.325540e+001 1.984020e+001 3.745105e+001 1.657007e+001 2.570360e+001 1.584342e+001 1.644844e+001 6.382213e+000 4.558861e+000 1.168622e+001 5.949465e+000 2.649592e+000 3.897193e+000 2.135777e+000 3.242227e+000 1.676438e+000 1.608046e+000 1.102965e+000 1.154585e+000 6.940191e-001
<GCONST> 9.930243e+001
<STATE> 3
<MEAN> 25
 -4.874340e+000 -7.650352e+000 1.158613e+001 -1.156942e+001 -1.122157e+000 6.524984e+000 -2.312162e-001 -2.981396e+000 2.664616e-001 3.605034e+000 -6.117755e-001 -3.990227e-001 3.613502e+000 3.173383e+000 -4.150658e+000 2.454307e+000 6.580360e-001 -2.488361e+000 4.075981e-001 -2.050915e+000 -1.056973e+000 -1.117918e+000 4.221272e-001 9.574814e-001 5.349573e-002
<VARIANCE> 25
 3.474161e+001 6.048715e+001 6.343301e+001 5.076715e+001 2.828300e+001 1.987617e+001 3.959705e+001 3.989694e+001 1.380389e+001 2.377496e+001 2.173176e+001 1.434255e+001 2.339713e+000 2.633370e+000 3.712553e+000 4.694210e+000 2.424465e+000 3.432240e+000 3.034299e+000 4.209898e+000 1.734017e+000 2.678445e+000 1.948347e+000 1.211847e+000 1.618766e+000
<GCONST> 9.912601e+001
<STATE> 4
<MEAN> 25
 6.115160e+000 -2.999868e+000 -3.540523e+000 -3.156326e+000 -2.553834e+000 -4.423908e+000 -1.466082e+000 -9.558946e+000 -2.859689e+000 -1.787946e+000 5.397975e+000 4.959046e+000 8.888943e-001 -1.956883e-001 -1.568784e+000 3.962222e-001 -7.796644e-001 -8.584633e-001 -8.848520e-002 2.797374e-001 -6.188204e-002 -7.492996e-001 9.929516e-001 4.116639e-001 2.019764e-001
<VARIANCE> 25
 8.358312e+000 1.345817e+001 3.233722e+001 2.131232e+001 2.600438e+001 2.154776e+001 4.873295e+001 2.344442e+001 1.477141e+001 1.513996e+001 2.000520e+001 1.234062e+001 1.237342e+000 1.687854e+000 2.307661e+000 2.115355e+000 2.328350e+000 5.331294e+000 1.268150e+000 3.420856e+000 2.059317e+000 3.194008e+000 1.399792e+000 1.359070e+000 5.229117e-001
<GCONST> 8.968024e+001
<TRANSP> 5
 0.000000e+000 1.000000e+000 0.000000e+000 0.000000e+000 0.000000e+000
 0.000000e+000 8.520872e-001 1.479128e-001 0.000000e+000 0.000000e+000
 0.000000e+000 0.000000e+000 6.960335e-001 3.039665e-001 0.000000e+000
 0.000000e+000 0.000000e+000 0.000000e+000 7.902600e-001 2.097400e-001
 0.000000e+000 0.000000e+000 0.000000e+000 0.000000e+000 0.000000e+000
<ENDHMM>
~h "t"
<BEGINHMM>
<NUMSTATES> 5
<STATE> 2
<MEAN> 25
 6.136425e-001 -6.999380e+000 3.953313e+000 -4.989009e+000 -1.725164e+000 -1.178767e+000 -1.920829e+000 -1.599042e+000 -1.092746e+000 -4.394577e-001 7.630577e+000 5.831714e-002 9.839304e-001 1.879599e+000 -1.950360e+000 1.131210e-001 1.000132e+000 -5.916780e-001 7.051054e-002 -2.117400e+000 -1.458132e-001 3.676142e-003 -9.072695e-001 8.048005e-002 -5.585412e-002
<VARIANCE> 25
 3.090693e+001 4.927469e+001 6.114755e+001 5.103881e+001 7.176331e+001 1.415839e+001 3.597672e+001 7.125598e+001 4.720840e+001 2.183121e+001 5.072577e+001 2.429656e+001 2.459726e+000 8.755685e+000 4.007967e+000 1.473222e+000 5.252528e+000 1.190046e+000 1.481003e+000 1.461571e+001 1.920764e+000 1.941222e+000 6.139744e+000 1.548055e+000 4.131153e-001
<GCONST> 1.025855e+002
<STATE> 3
<MEAN> 25
 2.357792e+000 -6.902826e+000 2.715009e-001 -9.880749e+000 -5.201199e+000 -1.465848e+000 -1.257510e+000 -2.637179e+000 2.389771e+000 9.774251e-001 7.882941e+000 1.866294e+000 -6.918557e-002 4.540817e-001 -3.720453e-001 1.551694e-002 3.079649e-002 2.144019e-001 4.196124e-001 3.094554e-002 -7.694876e-002 -8.695675e-002 -7.029406e-001 6.560330e-001 -6.888129e-001
<VARIANCE> 25
 8.795922e+000 1.560074e+001 1.113591e+001 3.448918e+001 2.354019e+001 1.450061e+001 2.455824e+001 3.583173e+001 4.513240e+001 2.822174e+001 3.646298e+001 1.235017e+001 6.732870e-001 1.155404e+000 1.368072e+000 7.312393e-001 2.426006e+000 1.051621e+000 1.111547e+000 1.039971e+000 1.211241e+000 1.518402e+000 2.645658e+000 1.676577e+000 1.356321e+000
<GCONST> 8.592633e+001
<STATE> 4
<MEAN> 25
 1.859459e+000 -7.013207e+000 1.828302e+000 -6.072862e+000 -3.301104e+000 -2.344050e+000 -3.523328e+000 -1.987341e+000 5.107394e+000 5.173484e-001 3.237903e+000 7.466725e-001 -2.627722e-003 5.545921e-001 -3.579000e-001 3.948696e-001 2.908403e-001 2.387043e-001 2.190664e-001 1.109365e-001 -2.819298e-001 -4.371803e-002 -4.209179e-001 1.313115e-001 -7.728028e-001
<VARIANCE> 25
 8.787753e+000 1.529747e+001 3.310857e+001 1.468676e+001 1.117436e+001 1.398097e+001 2.087582e+001 9.761121e+000 1.966615e+001 1.465446e+001 1.751558e+001 1.323982e+001 4.728789e-001 1.306304e+000 7.340459e-001 8.955415e-001 9.453321e-001 6.425313e-001 8.811213e-001 1.121972e+000 1.172285e+000 1.264443e+000 1.523480e+000 9.779692e-001 2.037986e+000
<GCONST> 7.860600e+001
<TRANSP> 5
 0.000000e+000 1.000000e+000 0.000000e+000 0.000000e+000 0.000000e+000
 0.000000e+000 2.809260e-001 7.190741e-001 0.000000e+000 0.000000e+000
 0.000000e+000 0.000000e+000 6.749108e-001 3.250892e-001 0.000000e+000
 0.000000e+000 0.000000e+000 0.000000e+000 8.081603e-001 1.918397e-001
 0.000000e+000 0.000000e+000 0.000000e+000 0.000000e+000 0.000000e+000
<ENDHMM>
~h "u"
<BEGINHMM>
<NUMSTATES> 5
<STATE> 2
<MEAN> 25
 8.235275e-001 -6.652370e+000 6.536226e+000 -4.690602e+000 -2.191506e+000 3.317708e+000 -2.293370e+000 -2.031085e+000 2.206999e-001 1.644572e+000 2.025482e+000 -1.965580e+000 1.415301e+000 -1.585199e+000 4.835244e-001 -1.133186e+000 -4.381984e-001 -9.533608e-001 -5.508936e-001 -7.304292e-001 3.529787e-001 -1.435838e+000 1.795461e+000 6.015516e-001 3.433099e+000
<VARIANCE> 25
 2.592440e+001 2.395176e+001 4.675867e+001 2.293492e+001 5.104107e+001 3.940285e+001 4.694218e+001 3.900363e+001 8.671504e+000 3.955878e+001 2.253228e+001 2.154894e+001 5.443337e+000 6.645350e+000 4.661084e+000 3.350281e+000 2.708067e+000 6.091591e+000 4.017277e+000 4.557930e+000 1.613152e+000 2.511303e+000 5.466731e+000 2.339613e+000 9.453123e+000
<GCONST> 1.047392e+002
<STATE> 3
<MEAN> 25
 2.586389e+000 -6.703001e+000 3.300607e+000 -4.880149e+000 -3.038003e+000 -4.982634e-001 -5.966345e-001 -3.043763e+000 5.192676e-001 -2.233571e+000 2.817563e+000 -1.286613e-001 4.182780e-001 -1.221197e+000 -7.731277e-001 -7.731499e-001 -8.392974e-001 -8.183568e-001 -1.202105e-001 3.037541e-001 5.797907e-001 -7.660039e-001 1.377006e+000 8.918555e-001 1.368127e+000
<VARIANCE> 25
 3.674997e+001 3.388670e+001 2.353326e+001 3.539984e+001 2.545223e+001 2.527568e+001 1.539681e+001 2.934391e+001 1.391009e+001 3.491328e+001 3.109661e+001 2.058393e+001 1.990952e+000 2.118295e+000 2.029266e+000 1.575472e+000 2.134926e+000 3.954595e+000 3.218331e+000 2.004332e+000 1.875961e+000 2.847958e+000 3.857002e+000 1.396126e+000 2.718385e+000
<GCONST> 9.598448e+001
<STATE> 4
<MEAN> 25
 3.971344e+000 -1.000284e+001 1.260928e+000 -5.983451e+000 -4.940757e+000 -1.665305e+000 -2.258264e+000 -2.471563e+000 3.524649e+000 -1.142655e+000 5.587455e+000 8.996778e-001 2.105586e-001 -2.131722e-001 -4.797374e-001 -8.321226e-002 -2.332436e-001 -2.616157e-001 -1.423170e-001 3.304435e-001 3.910922e-001 1.394969e-001 6.223399e-001 -4.270717e-003 1.629199e-001
<VARIANCE> 25
 3.975256e+001 2.340739e+001 1.917842e+001 1.708785e+001 9.200482e+000 2.179679e+001 2.902759e+001 3.770672e+001 2.777149e+001 2.894303e+001 3.597605e+001 2.403983e+001 6.006764e-001 1.268384e+000 1.010954e+000 6.586707e-001 1.714419e+000 2.040321e+000 2.088451e+000 1.106586e+000 1.412475e+000 1.785321e+000 1.906497e+000 1.321468e+000 6.555473e-001
<GCONST> 8.716377e+001
<TRANSP> 5
 0.000000e+000 1.000000e+000 0.000000e+000 0.000000e+000 0.000000e+000
 0.000000e+000 3.265526e-001 6.734474e-001 0.000000e+000 0.000000e+000
 0.000000e+000 0.000000e+000 2.865791e-001 7.134209e-001 0.000000e+000
 0.000000e+000 0.000000e+000 0.000000e+000 6.361214e-001 3.638786e-001
 0.000000e+000 0.000000e+000 0.000000e+000 0.000000e+000 0.000000e+000
<ENDHMM>
~h "sil"
<BEGINHMM>
<NUMSTATES> 5
<STATE> 2
<MEAN> 25
 -7.539165e+000 2.929850e+000 1.880659e-001 9.606264e-001 -5.731924e-001 7.727560e+000 6.590823e-001 6.385963e-001 1.492931e+000 3.269865e+000 -2.572777e+000 2.090904e+000 -1.560425e-001 -1.558878e-002 2.195323e-002 -2.288211e-001 -2.380958e-001 -1.967791e-001 7.791397e-002 4.142546e-002 6.463417e-002 1.537502e-001 5.888533e-002 -3.596217e-002 -3.859280e-003
<VARIANCE> 25
 1.852560e+001 2.852063e+001 3.942662e+001 3.504032e+001 2.649669e+001 2.668563e+001 2.456329e+001 2.346407e+001 1.956921e+001 2.198530e+001 1.274701e+001 1.404842e+001 5.465999e-001 1.083956e+000 1.279637e+000 1.628371e+000 1.419200e+000 1.453482e+000 1.474930e+000 1.432106e+000 1.153301e+000 1.106709e+000 1.134531e+000 1.024798e+000 1.530243e+000
<GCONST> 8.612036e+001
<STATE> 3
<MEAN> 25
 -4.246657e+000 1.998442e+000 -5.463235e-001 -1.968901e-002 -2.872165e-002 3.234717e+000 2.840480e+000 1.549685e+000 1.324608e+000 3.572690e+000 -2.095812e+000 3.610716e-001 9.795591e-001 -5.230162e-001 3.529857e-001 -1.027151e+000 -1.190243e-001 -1.507410e+000 1.681141e-001 -1.542715e-001 -2.001993e-001 -4.767078e-001 -2.453368e-001 -5.816476e-001 2.244620e+000
<VARIANCE> 25
 3.997450e+001 7.903215e+001 5.398197e+001 8.056007e+001 4.205613e+001 5.128700e+001 4.370093e+001 3.433400e+001 2.511428e+001 2.595918e+001 2.073291e+001 2.299880e+001 4.412616e+000 1.033670e+001 3.838348e+000 6.230938e+000 4.137096e+000 4.699450e+000 5.027118e+000 4.293875e+000 3.335985e+000 2.606516e+000 2.735317e+000 1.902573e+000 9.533351e+000
<GCONST> 1.091210e+002
<STATE> 4
<MEAN> 25
 -2.656269e+000 5.471197e+000 -1.992999e-002 -7.153980e-001 -2.658202e+000 2.356008e+000 7.827341e-001 -2.803875e-001 1.847905e+000 3.173547e+000 -3.124745e+000 6.070435e-001 6.987524e-003 3.456322e-002 2.256786e-001 -2.695903e-002 -5.358114e-002 -1.099646e-001 1.593204e-001 1.830784e-002 5.200189e-002 1.848346e-002 -2.694693e-002 -5.408645e-002 1.368735e-001
<VARIANCE> 25
 2.804373e+001 9.598457e+001 4.293834e+001 4.568979e+001 2.962637e+001 4.727930e+001 4.108080e+001 3.783678e+001 1.933329e+001 2.575483e+001 2.272078e+001 1.385086e+001 1.008147e+000 1.798531e+000 1.896654e+000 1.961840e+000 1.805461e+000 1.962465e+000 1.624584e+000 1.464422e+000 1.616244e+000 1.327050e+000 1.025297e+000 1.165735e+000 1.551449e+000
<GCONST> 9.340353e+001
<TRANSP> 5
 0.000000e+000 1.000000e+000 0.000000e+000 0.000000e+000 0.000000e+000
 0.000000e+000 7.121158e-001 2.878842e-001 0.000000e+000 0.000000e+000
 0.000000e+000 0.000000e+000 4.472491e-001 5.527509e-001 0.000000e+000
 0.000000e+000 0.000000e+000 0.000000e+000 6.298925e-001 3.701074e-001
 0.000000e+000 0.000000e+000 0.000000e+000 0.000000e+000 0.000000e+000
<ENDHMM>
