~o
<STREAMINFO> 1 25
<VECSIZE> 25<NULLD><MFCC_D_N_Z_0><DIAGC>
~s "silst"
<MEAN> 25
 -3.114012e+000 1.067131e+000 -9.352657e-001 -3.963573e-001 2.112373e+000 2.891768e+000 3.983145e+000 8.931813e-001 9.803891e-001 3.930783e+000 -2.290203e+000 6.180478e-001 1.153718e+000 -5.204136e-001 5.258242e-001 -1.057634e+000 5.849653e-001 -2.064893e+000 1.116082e-001 9.508646e-003 -1.923372e-001 -3.562452e-001 -1.797459e-001 -6.881549e-001 2.779597e+000
<VARIANCE> 25
 3.961995e+001 6.820869e+001 5.615618e+001 8.450943e+001 5.053306e+001 6.458591e+001 3.940879e+001 3.735735e+001 3.165863e+001 3.534533e+001 2.321320e+001 2.301826e+001 6.895246e+000 1.426419e+001 6.245726e+000 8.915449e+000 4.992924e+000 5.749847e+000 5.871238e+000 6.344994e+000 4.058051e+000 3.767786e+000 3.871770e+000 2.491897e+000 1.439618e+001
<GCONST> 1.142443e+002
~h "a"
<BEGINHMM>
<NUMSTATES> 5
<STATE> 2
<MEAN> 25
 3.856288e+000 -4.155082e+000 -2.768135e+000 -6.024441e+000 -4.918874e+000 -3.831901e+000 3.932010e+000 7.803785e-001 1.904959e+000 -1.999338e+000 4.327910e+000 3.947877e+000 2.787591e-001 -1.009630e+000 -4.356432e-001 -6.247395e-001 -1.154728e+000 6.241765e-001 2.337987e-001 5.449143e-001 8.594313e-001 -1.917088e-001 1.247235e+000 1.348735e-001 5.157350e-001
<VARIANCE> 25
 8.656133e+000 3.773233e+001 2.299677e+001 3.183496e+001 3.757413e+001 2.528804e+001 4.710276e+001 2.669630e+001 3.499143e+001 2.865536e+001 3.406510e+001 1.655148e+001 7.204218e-001 1.611161e+000 1.611157e+000 3.714985e+000 4.370063e+000 3.030831e+000 3.608988e+000 2.759892e+000 2.203856e+000 2.193305e+000 4.411534e+000 2.066058e+000 2.250751e+000
<GCONST> 9.698767e+001
<STATE> 3
<MEAN> 25
 5.125381e+000 -5.942697e+000 -5.475049e+000 -5.255559e+000 -6.554879e+000 -2.103910e+000 4.307991e+000 3.305193e-001 3.475253e+000 -9.858317e-001 6.499841e+000 3.295951e+000 -6.742033e-002 3.476111e-001 -2.657212e-001 4.697436e-001 7.827693e-001 3.022385e-002 -2.313917e-001 -2.468426e-002 -3.560202e-001 1.645510e-001 -5.465292e-002 1.354490e-001 -4.724014e-001
<VARIANCE> 25
 9.572074e+000 2.358177e+001 2.590779e+001 2.027067e+001 2.253463e+001 2.685030e+001 4.587514e+001 3.012951e+001 2.337409e+001 3.265310e+001 1.910583e+001 1.377077e+001 4.774429e-001 1.022918e+000 1.132722e+000 1.597572e+000 1.960619e+000 2.605563e+000 2.842837e+000 8.982921e-001 1.400415e+000 1.556521e+000 1.404215e+000 1.546059e+000 7.886582e-001
<GCONST> 8.723873e+001
<STATE> 4
<MEAN> 25
 2.667851e+000 5.109984e-001 -6.558605e+000 2.240803e-003 1.686689e+000 1.855804e+000 -9.683066e-002 -1.751630e-001 8.866309e-001 2.021456e+000 2.753826e+000 3.702074e+000 -5.563864e-002 6.270643e-001 -2.177050e-001 4.790859e-001 5.694001e-001 2.502835e-002 -1.042640e-001 9.211234e-002 -3.481615e-001 4.750354e-003 -2.997247e-001 -1.403735e-001 -6.325539e-001
<VARIANCE> 25
 1.380504e+001 6.890783e+001 2.487924e+001 3.237873e+001 4.366615e+001 4.671900e+001 4.741204e+001 3.425688e+001 1.714393e+001 2.284185e+001 3.515713e+001 1.219053e+001 5.687484e-001 1.429027e+000 1.743077e+000 2.159675e+000 1.751803e+000 2.080234e+000 1.904353e+000 1.567594e+000 1.577323e+000 1.703418e+000 2.247741e+000 1.148733e+000 6.030571e-001
<GCONST> 9.147678e+001
<TRANSP> 5
 0.000000e+000 1.000000e+000 0.000000e+000 0.000000e+000 0.000000e+000
 0.000000e+000 6.631611e-001 3.368390e-001 0.000000e+000 0.000000e+000
 0.000000e+000 0.000000e+000 6.954076e-001 3.045924e-001 0.000000e+000
 0.000000e+000 0.000000e+000 0.000000e+000 6.871544e-001 3.128457e-001
 0.000000e+000 0.000000e+000 0.000000e+000 0.000000e+000 0.000000e+000
<ENDHMM>
~h "d"
<BEGINHMM>
<NUMSTATES> 5
<STATE> 2
<MEAN> 25
 2.482338e+000 5.087827e-001 -2.643467e+000 7.348158e+000 8.741246e+000 -5.421512e+000 6.624703e+000 1.741372e+000 -4.268703e+000 -1.370938e+000 -2.237900e+000 -1.106172e+000 1.175606e+000 -2.247482e+000 -1.075852e+000 -1.849431e+000 8.569903e-001 -4.767017e+000 -1.804147e+000 -1.214572e+000 -2.159989e+000 -2.653016e+000 1.381492e+000 3.899744e-001 3.939074e+000
<VARIANCE> 25
 1.606477e+001 4.813831e+001 2.205416e+001 2.365539e+001 4.560458e+001 9.582228e+001 5.065813e+001 4.609154e+001 2.408801e+001 2.671566e+001 6.817426e+000 1.377062e+000 4.818124e-001 4.831484e+000 3.035839e+000 4.161799e-001 5.031732e+000 5.773209e+000 8.544023e+000 6.495479e+000 1.538813e+000 9.738757e-001 2.610672e+000 9.073985e-001 3.256877e+000
<GCONST> 9.461124e+001
<STATE> 3
<MEAN> 25
 7.166300e+000 -5.274545e+000 -1.641771e+000 -2.544391e+000 -9.105492e-002 -7.979646e+000 -6.010526e+000 -2.651819e+000 -2.779577e+000 -7.379339e+000 6.581512e+000 8.333758e-002 5.340283e-001 -4.270010e-001 -6.598834e-001 -1.139033e+000 -2.201737e+000 1.000827e+000 -5.465922e-001 1.795271e-001 1.022341e+000 3.844842e-001 1.192260e+000 3.948025e-001 -1.244321e-001
<VARIANCE> 25
 1.128887e+001 1.597223e+001 1.389093e+001 9.416080e+000 4.640941e+001 1.557545e+001 3.239780e+000 1.855796e+001 7.235044e+000 8.645719e+000 2.639411e+001 8.085793e+000 1.492973e-001 9.744675e-001 8.639321e-001 1.724294e+000 2.650591e+000 1.463659e+000 3.622708e+000 1.538655e+000 6.797753e-001 8.300520e-001 1.574370e+000 7.725785e-001 2.318395e-001
<GCONST> 7.590070e+001
<STATE> 4
<MEAN> 25
 6.093691e+000 -9.321004e-001 -7.353174e+000 -4.974738e+000 -6.136596e+000 -7.007522e+000 -2.361501e+000 3.668495e-001 -2.640489e-001 -2.465483e+000 7.439541e+000 5.541632e+000 -7.463050e-001 1.306436e+000 -2.589967e-001 -1.098288e-001 -5.166355e-001 7.523440e-001 7.460546e-001 1.268154e+000 4.584051e-001 1.415867e+000 6.419577e-002 7.099302e-001 -2.054141e+000
<VARIANCE> 25
 1.072472e+001 2.134983e+001 1.314021e+001 9.945484e+000 1.693038e+001 3.009588e+001 3.497449e+001 2.794109e+001 7.628242e+000 2.092587e+001 1.844633e+001 1.309555e+001 1.790998e+000 5.658632e-001 2.292858e+000 9.250086e-001 2.446398e+000 4.918650e+000 3.999633e+000 2.619297e+000 1.196513e+000 1.000999e+000 1.897425e+000 2.133830e+000 1.633773e+000
<GCONST> 8.760321e+001
<TRANSP> 5
 0.000000e+000 1.000000e+000 0.000000e+000 0.000000e+000 0.000000e+000
 0.000000e+000 6.666734e-001 3.333267e-001 0.000000e+000 0.000000e+000
 0.000000e+000 0.000000e+000 8.023283e-001 1.976717e-001 0.000000e+000
 0.000000e+000 0.000000e+000 0.000000e+000 8.620058e-001 1.379942e-001
 0.000000e+000 0.000000e+000 0.000000e+000 0.000000e+000 0.000000e+000
<ENDHMM>
~h "e"
<BEGINHMM>
<NUMSTATES> 5
<STATE> 2
<MEAN> 25
 4.046364e+000 -2.147717e+000 9.094461e-001 -1.820565e+000 -2.579265e+000 -2.665900e+000 -2.655706e-002 -3.516301e+000 -4.295512e+000 -1.185019e+000 6.784977e+000 1.199805e-001 -2.928841e-001 1.166044e-001 5.890602e-002 -2.506407e-001 -3.358612e-001 4.584349e-001 3.108943e-001 3.827067e-001 3.464272e-001 -1.607290e-001 -5.051641e-001 1.892748e-001 -3.526351e-001
<VARIANCE> 25
 3.840561e+001 3.564431e+001 8.168683e+001 2.954356e+001 1.918400e+001 6.089933e+001 3.774792e+001 2.205539e+001 2.649056e+001 3.223772e+001 3.170632e+001 2.439749e+001 1.386428e+000 8.372617e-001 1.241560e+000 2.004482e+000 2.102809e+000 2.293046e+000 4.009859e+000 2.917164e+000 7.991020e-001 3.380290e+000 1.283567e+000 1.518240e+000 4.789964e-001
<GCONST> 9.416441e+001
<STATE> 3
<MEAN> 25
 1.506415e+000 -2.936504e+000 2.080727e+000 -6.982819e-001 -3.189669e+000 -9.625442e-001 -2.177736e-001 -2.948583e+000 -2.620590e+000 -2.310023e+000 3.711940e+000 8.464766e-001 -5.680900e-001 -1.402071e-001 3.784299e-002 -3.226392e-001 3.600006e-001 4.749840e-001 4.248511e-001 8.323660e-001 5.070390e-001 -3.801050e-001 -1.254206e+000 2.092305e-001 -3.817917e-001
<VARIANCE> 25
 6.744042e+001 3.150300e+001 8.188490e+001 4.984684e+001 2.005812e+001 4.121358e+001 3.098130e+001 1.892555e+001 1.745759e+001 2.940766e+001 3.205405e+001 1.703841e+001 1.016172e+000 1.152508e+000 2.002473e+000 2.365348e+000 1.504569e+000 2.457915e+000 4.184381e+000 2.714386e+000 1.572121e+000 3.307254e+000 1.119364e+000 1.208582e+000 9.586184e-001
<GCONST> 9.491727e+001
<STATE> 4
<MEAN> 25
 2.633134e+000 -4.506349e+000 1.022741e+000 -3.326242e+000 -7.514865e-001 1.881038e+000 1.236868e+000 -1.280769e+000 -3.031899e-002 -2.053122e+000 2.562507e+000 1.308655e+000 -1.306554e+000 -1.087039e+000 1.330684e+000 -1.402719e+000 2.896472e-001 9.623356e-001 5.006364e-001 1.362248e+000 1.008061e+000 3.070436e-001 -1.683881e+000 3.346070e-002 -5.445721e-003
<VARIANCE> 25
 5.930638e+001 6.420877e+001 7.512769e+001 4.151881e+001 2.011142e+001 3.989167e+001 2.604571e+001 2.306910e+001 2.228579e+001 3.729474e+001 2.999512e+001 2.539052e+001 3.956834e+000 3.731936e+000 7.825266e+000 7.677157e+000 1.596292e+000 7.698713e+000 3.281010e+000 5.129396e+000 2.582733e+000 3.964755e+000 2.619328e+000 2.245544e+000 1.519489e+000
<GCONST> 1.053175e+002
<TRANSP> 5
 0.000000e+000 1.000000e+000 0.000000e+000 0.000000e+000 0.000000e+000
 0.000000e+000 2.613082e-001 7.386918e-001 0.000000e+000 0.000000e+000
 0.000000e+000 0.000000e+000 2.748848e-001 7.251152e-001 0.000000e+000
 0.000000e+000 0.000000e+000 0.000000e+000 3.344687e-001 6.655313e-001
 0.000000e+000 0.000000e+000 0.000000e+000 0.000000e+000 0.000000e+000
<ENDHMM>
~h "g"
<BEGINHMM>
<NUMSTATES> 5
<STATE> 2
<MEAN> 25
 3.100678e-001 4.848656e+000 8.242511e+000 6.651778e+000 6.367012e+000 -1.211795e+000 -1.491596e+000 -1.763183e+000 2.363655e+000 1.464799e+000 -4.199035e+000 -6.049238e+000 7.250112e-001 -4.496787e-001 -2.530535e-001 2.925130e-001 1.293815e+000 -1.440901e+000 -1.139548e+000 -1.320594e+000 -6.919596e-001 -5.867106e-001 6.143913e-001 -3.805290e-001 1.521070e+000
<VARIANCE> 25
 1.132553e+001 1.178369e+002 3.483907e+001 3.393298e+001 3.546688e+001 4.171358e+001 5.029251e+001 6.494288e+001 2.206580e+001 2.365887e+001 2.164427e+001 1.271587e+001 1.704704e+000 1.575872e+001 5.118405e+000 5.804663e+000 2.929358e+000 3.764076e+000 4.250057e+000 1.064266e+001 2.807487e+000 2.234927e+000 2.863909e+000 3.450280e+000 4.458244e+000
<GCONST> 1.060008e+002
<STATE> 3
<MEAN> 25
 4.232348e+000 -4.681740e+000 2.564450e+000 5.761455e+000 6.398386e+000 -8.304367e+000 -1.062605e+001 -8.445699e+000 -2.935339e+000 -3.058958e+000 4.154932e+000 -3.723416e+000 5.791386e-001 -2.642942e-001 -5.200339e-001 -1.441917e-001 -1.507023e+000 4.911207e-001 -9.324697e-001 -2.611974e-001 -4.120558e-002 2.343799e-001 1.439451e+000 7.376313e-001 -3.114454e-001
<VARIANCE> 25
 9.761071e+000 1.216172e+001 2.243611e+001 2.144194e+001 2.093798e+001 1.948925e+001 1.260023e+001 4.344083e+001 1.379711e+001 1.536218e+001 2.923878e+001 1.077075e+001 5.617605e-001 5.768278e-001 1.824570e+000 6.808525e-001 1.450386e+000 1.585560e+000 3.018332e+000 1.255318e+000 1.540344e+000 1.227521e+000 2.221380e+000 1.037106e+000 2.341223e-001
<GCONST> 8.159944e+001
<STATE> 4
<MEAN> 25
 2.231862e-001 -5.298429e+000 1.001446e+001 1.435265e+000 9.145709e-001 2.239410e+000 -7.143198e+000 -5.427135e+000 -1.518616e+000 1.879806e+000 5.726592e+000 -3.953557e+000 -2.384476e+000 -1.056195e+000 2.988023e+000 -2.922176e+000 -1.547787e+000 2.900141e+000 1.474401e+000 2.488982e+000 -7.364099e-002 9.372492e-001 3.604497e-001 -5.036142e-001 -9.064707e-001
<VARIANCE> 25
 5.933685e+001 1.297389e+001 1.104075e+002 4.094819e+001 1.328787e+001 6.058848e+001 1.436304e+001 4.104203e+001 1.035323e+001 2.009100e+001 1.569719e+001 1.312199e+001 5.528331e+000 2.774473e+000 4.920069e+000 5.372759e+000 1.570455e+000 3.551416e+000 2.568902e+000 3.749591e+000 7.530499e-001 1.451423e+000 1.099465e+000 5.130410e-001 4.878880e-001
<GCONST> 9.353266e+001
<TRANSP> 5
 0.000000e+000 1.000000e+000 0.000000e+000 0.000000e+000 0.000000e+000
 0.000000e+000 8.520773e-001 1.479227e-001 0.000000e+000 0.000000e+000
 0.000000e+000 0.000000e+000 8.139201e-001 1.860799e-001 0.000000e+000
 0.000000e+000 0.000000e+000 0.000000e+000 5.393983e-001 4.606017e-001
 0.000000e+000 0.000000e+000 0.000000e+000 0.000000e+000 0.000000e+000
<ENDHMM>
~h "i"
<BEGINHMM>
<NUMSTATES> 5
<STATE> 2
<MEAN> 25
 3.254405e+000 -1.479784e+000 3.291953e+000 1.000643e+001 7.447071e+000 -7.720761e+000 -8.789217e+000 1.302784e-001 -5.056796e+000 -2.660306e+000 3.395768e+000 -8.902240e+000 -3.629324e-001 1.169330e-001 4.028183e-001 9.865747e-001 -2.956040e-001 -1.420363e-002 -8.814266e-002 2.404630e-001 8.574544e-002 1.425225e-001 -5.277699e-001 -2.936513e-001 -7.154734e-001
<VARIANCE> 25
 6.824104e+000 1.776875e+001 2.671359e+001 4.277930e+001 3.243779e+001 3.929501e+001 3.047467e+001 3.926752e+001 2.200312e+001 2.207394e+001 3.093331e+001 3.224718e+001 5.127982e-001 1.092359e+000 1.438721e+000 2.774175e+000 2.424349e+000 3.973155e+000 3.044559e+000 1.812059e+000 1.449474e+000 1.510356e+000 1.643130e+000 1.910960e+000 6.855115e-001
<GCONST> 9.144230e+001
<STATE> 3
<MEAN> 25
 6.628823e-001 3.371359e+000 3.491932e+000 1.206357e+001 4.548864e+000 -2.697793e+000 -3.678866e+000 2.563846e+000 1.884642e+000 -5.821350e-002 -2.554880e+000 -1.670526e+000 -3.884443e-001 4.386075e-001 -6.553531e-001 -4.252038e-001 -9.851436e-002 8.620772e-001 7.569762e-001 4.572452e-001 6.779482e-001 5.286283e-001 -3.100430e-001 6.660907e-001 -8.553068e-001
<VARIANCE> 25
 1.211139e+001 4.978038e+001 4.081898e+001 2.583710e+001 2.247966e+001 4.714310e+001 3.023819e+001 6.096160e+001 2.435920e+001 3.103913e+001 2.849612e+001 2.462820e+001 5.963304e-001 1.322382e+000 1.079963e+000 2.257686e+000 1.612303e+000 3.233370e+000 2.992177e+000 1.685354e+000 1.209009e+000 1.008912e+000 1.283960e+000 1.565121e+000 6.380373e-001
<GCONST> 9.134676e+001
<STATE> 4
<MEAN> 25
 -6.120423e+000 1.630725e+000 -2.417410e+000 3.839623e+000 9.836033e-001 2.167911e+000 -4.940172e-001 3.923177e-001 2.336120e+000 2.815610e+000 -3.498079e+000 1.502402e+000 -1.271610e-001 -4.120097e-002 -1.218137e-001 -2.821212e-001 -1.598488e-001 9.073167e-002 -6.303939e-002 -1.336211e-001 3.666287e-003 7.153196e-002 8.784902e-002 5.482211e-002 -1.107789e-001
<VARIANCE> 25
 7.655353e+000 2.802628e+001 8.919231e+000 1.817532e+001 1.724907e+001 3.405887e+001 2.650184e+001 1.682023e+001 1.685716e+001 1.163632e+001 1.190601e+001 8.797408e+000 1.999727e-001 5.855494e-001 7.606633e-001 8.480552e-001 1.064529e+000 2.033561e+000 1.979752e+000 1.203430e+000 1.133240e+000 7.997414e-001 9.992335e-001 8.000475e-001 2.196158e-001
<GCONST> 7.602900e+001
<TRANSP> 5
 0.000000e+000 1.000000e+000 0.000000e+000 0.000000e+000 0.000000e+000
 0.000000e+000 8.314417e-001 1.685583e-001 0.000000e+000 0.000000e+000
 0.000000e+000 0.000000e+000 8.419037e-001 1.580962e-001 0.000000e+000
 0.000000e+000 0.000000e+000 0.000000e+000 9.140006e-001 8.599943e-002
 0.000000e+000 0.000000e+000 0.000000e+000 0.000000e+000 0.000000e+000
<ENDHMM>
~h "j"
<BEGINHMM>
<NUMSTATES> 5
<STATE> 2
<MEAN> 25
 -6.423021e+000 -1.084906e+001 1.460750e+001 -4.376798e+000 -1.005365e+000 4.876362e+000 3.620858e+000 3.436536e+000 2.340882e+000 1.971469e+000 -2.800500e+000 -6.749587e+000 1.189282e+000 -6.070639e-001 -1.237057e-001 1.201012e+000 1.552496e+000 -1.350944e+000 -2.537304e-001 -9.318404e-001 -9.896505e-001 -1.038024e+000 6.707950e-001 -3.065030e-001 1.455983e+000
<VARIANCE> 25
 3.794437e+001 1.297666e+002 6.288065e+001 9.307626e+001 4.358246e+001 3.133359e+001 3.867554e+001 2.464290e+001 9.341883e+000 1.043889e+001 1.261710e+001 1.109414e+001 7.915826e+000 2.558731e+001 1.288979e+001 1.487107e+001 9.516170e+000 5.473226e+000 5.075794e+000 4.005232e+000 1.912930e+000 3.397490e+000 1.944210e+000 1.379296e+000 7.770579e+000
<GCONST> 1.091642e+002
<STATE> 3
<MEAN> 25
 3.991241e+000 -4.678939e+000 3.694164e+000 5.655503e+000 4.550889e+000 -4.868143e+000 -3.440723e+000 -6.222237e+000 -2.824869e+000 -4.741832e+000 -1.063798e+000 -6.385584e+000 4.886803e-001 3.620813e-001 -1.100403e+000 4.418452e-001 -4.856322e-001 -1.539145e-001 -4.204212e-002 -3.235433e-001 -7.230182e-001 1.709869e-001 4.591994e-001 5.838894e-001 -8.207117e-001
<VARIANCE> 25
 3.711184e+000 2.037592e+001 9.670512e+000 7.301984e+000 3.081631e+001 1.963975e+001 2.350590e+001 2.613244e+001 2.067401e+001 9.793326e+000 3.606805e+001 8.460550e+000 2.111289e+000 3.643732e+000 4.136727e+000 3.064042e+000 3.694999e+000 4.245070e+000 2.204937e+000 1.785346e+000 2.818542e+000 2.380979e+000 3.047708e+000 1.274045e+000 1.996474e+000
<GCONST> 9.104198e+001
<STATE> 4
<MEAN> 25
 -2.847035e-001 3.974385e+000 2.913958e+000 9.387306e+000 6.167015e+000 4.280881e+000 1.305465e+000 -5.037668e-001 4.010002e-001 2.965424e+000 -3.191852e+000 -4.362486e-001 -1.088315e+000 4.929659e-001 7.142792e-001 -6.359269e-001 -5.055977e-001 1.949279e+000 4.599386e-001 1.072130e+000 1.202263e+000 1.104402e+000 6.079212e-002 6.002960e-001 -1.415819e+000
<VARIANCE> 25
 1.496391e+001 8.100372e+001 2.460929e+001 2.959630e+001 5.558392e+001 2.764599e+001 1.175417e+001 2.314150e+001 2.026791e+001 2.352434e+001 2.120694e+001 1.279136e+001 2.931515e+000 1.821817e+001 3.278279e+000 5.174628e+000 3.958011e+000 6.249202e+000 2.029054e+000 1.303233e+000 3.343511e+000 4.063794e+000 6.388534e+000 3.190729e+000 1.955642e+001
<GCONST> 1.039381e+002
<TRANSP> 5
 0.000000e+000 1.000000e+000 0.000000e+000 0.000000e+000 0.000000e+000
 0.000000e+000 7.428756e-001 2.571245e-001 0.000000e+000 0.000000e+000
 0.000000e+000 0.000000e+000 7.865635e-001 2.134365e-001 0.000000e+000
 0.000000e+000 0.000000e+000 0.000000e+000 7.379273e-001 2.620728e-001
 0.000000e+000 0.000000e+000 0.000000e+000 0.000000e+000 0.000000e+000
<ENDHMM>
~h "k"
<BEGINHMM>
<NUMSTATES> 5
<STATE> 2
<MEAN> 25
 -5.930341e+000 -4.163478e+000 -7.081907e-001 -1.533438e+000 -5.100821e+000 -3.527295e-001 5.006003e-001 2.224395e+000 -2.011385e+000 2.240139e+000 -1.310905e+000 2.434554e+000 1.096592e+000 -3.412973e+000 2.182795e+000 -1.449081e+000 -1.884261e-001 5.203033e-001 -7.610691e-002 1.315529e+000 -8.551773e-001 -1.046865e+000 1.626358e+000 -1.266337e+000 3.713319e+000
<VARIANCE> 25
 1.857335e+001 1.045470e+002 8.812403e+001 3.256758e+001 4.190865e+001 2.395318e+001 4.234889e+001 4.283149e+001 3.532724e+001 2.515156e+001 1.922331e+001 1.495286e+001 1.745381e+000 7.951108e+000 5.508910e+000 6.790098e+000 3.501827e+000 3.630487e+000 4.033915e+000 2.589620e+000 4.876667e+000 1.509656e+000 5.228426e+000 2.107769e+000 5.742572e+000
<GCONST> 1.056308e+002
<STATE> 3
<MEAN> 25
 -1.726538e+000 -9.658156e+000 7.818610e+000 -7.457532e+000 -2.856638e+000 5.460698e+000 -3.130878e-001 4.376260e+000 -6.218220e+000 -2.161421e+000 5.510523e+000 -2.856352e+000 1.978784e+000 8.923666e-001 1.615824e+000 9.387835e-001 1.935251e+000 -1.147889e+000 -1.541847e-001 -9.146026e-001 1.605053e-001 -1.138027e+000 1.220195e+000 -7.119297e-001 3.158140e+000
<VARIANCE> 25
 1.033948e+001 4.110873e+001 5.906752e+001 7.379037e+001 2.492915e+001 3.503229e+001 2.738431e+001 3.912253e+001 4.968527e+001 1.722859e+001 5.714425e+001 1.703856e+001 9.986189e-001 1.116453e+001 5.307306e+000 8.089691e+000 6.376296e+000 4.419712e+000 5.535983e+000 4.362728e+000 3.222614e+000 3.805847e+000 4.168800e+000 3.497726e+000 6.571349e+000
<GCONST> 1.075246e+002
<STATE> 4
<MEAN> 25
 2.015585e+000 -2.167052e+000 8.072592e+000 3.842540e+000 5.189187e+000 -9.370126e+000 4.315601e-001 -5.920426e-001 -4.243488e+000 -4.404998e+000 3.437602e+000 -1.169568e+000 9.228851e-001 9.345001e-001 -1.303070e+000 1.168306e+000 8.236131e-001 -2.683787e+000 -6.662743e-002 -1.595596e+000 5.327144e-001 5.203159e-002 -1.797970e-001 5.844212e-001 8.272642e-001
<VARIANCE> 25
 5.647657e+000 1.139101e+001 4.556141e+001 6.448299e+001 3.776051e+001 4.983572e+001 6.300330e+001 3.309872e+001 2.089048e+001 4.132959e+001 3.030446e+001 2.885684e+001 8.306939e-001 3.551775e+000 1.708828e+000 3.651725e+000 7.633998e+000 7.353399e+000 6.821868e+000 2.741411e+000 3.464824e+000 2.658551e+000 2.945741e+000 3.173293e+000 1.059808e+000
<GCONST> 1.011966e+002
<TRANSP> 5
 0.000000e+000 1.000000e+000 0.000000e+000 0.000000e+000 0.000000e+000
 0.000000e+000 7.074483e-001 2.925518e-001 0.000000e+000 0.000000e+000
 0.000000e+000 0.000000e+000 5.026444e-001 4.973556e-001 0.000000e+000
 0.000000e+000 0.000000e+000 0.000000e+000 6.180682e-001 3.819318e-001
 0.000000e+000 0.000000e+000 0.000000e+000 0.000000e+000 0.000000e+000
<ENDHMM>
~h "l"
<BEGINHMM>
<NUMSTATES> 5
<STATE> 2
<MEAN> 25
 6.425066e+000 2.952257e+000 -2.150388e+000 2.771375e-001 1.286428e+000 -6.770716e+000 4.095020e-001 2.712905e-001 -2.537215e+000 -8.473446e+000 -4.690010e+000 -3.354801e+000 3.465191e-002 1.406825e-001 8.669330e-002 -1.860276e-002 -2.138252e-001 -4.103059e-002 -1.228308e-001 3.405662e-001 1.382549e-001 -3.476473e-002 3.036460e-002 -4.193377e-001 -1.078496e-001
<VARIANCE> 25
 8.702652e+000 3.315445e+001 1.930022e+001 2.677744e+001 3.807520e+001 4.561461e+001 2.663920e+001 3.354481e+001 2.867961e+001 2.942593e+001 6.149851e+001 2.134700e+001 4.479375e-001 1.391839e+000 1.307574e+000 2.508256e+000 3.341412e+000 3.051724e+000 1.421494e+000 2.292322e+000 2.471349e+000 1.312139e+000 5.120905e+000 1.609701e+000 8.745843e-001
<GCONST> 9.340291e+001
<STATE> 3
<MEAN> 25
 4.662862e+000 -1.623935e+000 2.031448e-001 -4.213131e+000 -5.522180e+000 -5.968290e+000 1.499370e+000 1.341276e+000 -2.421463e+000 -5.400732e+000 1.928434e+000 -2.904764e+000 -2.140901e-001 -5.945125e-001 9.586585e-002 -3.112425e-001 -2.841306e-001 3.633124e-001 2.288683e-001 -7.381594e-001 2.108435e-001 9.508202e-001 4.776503e-001 8.212829e-001 2.242820e-001
<VARIANCE> 25
 9.870978e+000 2.101167e+001 1.819337e+001 2.062380e+001 2.868352e+001 2.576920e+001 1.584864e+001 3.368578e+001 1.901583e+001 3.290082e+001 3.380240e+001 2.903821e+001 2.250166e-001 1.287063e+000 7.296395e-001 2.099107e+000 2.063757e+000 1.842324e+000 1.587727e+000 2.813545e+000 1.870261e+000 2.270287e+000 2.719906e+000 1.641009e+000 5.195436e-001
<GCONST> 8.772916e+001
<STATE> 4
<MEAN> 25
 9.101153e+000 6.231791e+000 -1.574352e+000 -1.731213e+000 1.445145e+000 -7.333499e+000 -3.119016e-001 1.360330e+000 -2.015789e+000 -5.325749e-001 2.770006e+000 -3.758878e-001 -1.739183e-001 5.492455e-001 1.014831e-001 1.515421e-001 -1.010466e-001 3.084929e-001 1.689602e-001 2.274140e-002 3.260427e-001 5.589293e-001 1.150918e-001 1.006405e-001 -5.056270e-001
<VARIANCE> 25
 3.215248e+001 1.907180e+002 9.446701e+001 3.915630e+001 5.256457e+001 4.037569e+001 6.972995e+001 2.484163e+001 2.600500e+001 5.076226e+001 3.614129e+001 1.210247e+001 3.848327e+000 3.955228e+000 5.571861e+000 4.743696e+000 6.169526e+000 5.102844e+000 4.087710e+000 3.203789e+000 2.125263e+000 3.109576e+000 3.604139e+000 2.121975e+000 3.863959e+000
<GCONST> 1.085612e+002
<TRANSP> 5
 0.000000e+000 1.000000e+000 0.000000e+000 0.000000e+000 0.000000e+000
 0.000000e+000 8.785190e-001 1.214810e-001 0.000000e+000 0.000000e+000
 0.000000e+000 0.000000e+000 8.058120e-001 1.941880e-001 0.000000e+000
 0.000000e+000 0.000000e+000 0.000000e+000 7.557369e-001 2.442631e-001
 0.000000e+000 0.000000e+000 0.000000e+000 0.000000e+000 0.000000e+000
<ENDHMM>
~h "m"
<BEGINHMM>
<NUMSTATES> 5
<STATE> 2
<MEAN> 25
 4.075584e-001 1.164317e+001 4.556619e+000 -2.494918e+000 7.301651e+000 -4.250602e+000 4.572494e+000 8.064499e-001 1.797140e-001 1.525889e+000 -1.062221e+000 -6.864319e-001 7.001624e-001 -7.462216e-001 -8.790579e-001 -8.067445e-001 3.730765e-002 -2.545930e+000 -6.408798e-001 -2.106874e-001 2.853339e-001 -3.185706e-001 4.538522e-001 -1.055148e-001 1.588304e+000
<VARIANCE> 25
 9.101330e+000 2.855178e+001 2.124173e+001 1.946290e+001 4.652661e+001 9.461911e+001 4.754911e+001 3.646117e+001 1.310639e+001 1.124626e+001 2.560697e+001 2.653096e+001 4.025577e-001 1.457456e+000 2.006222e+000 6.121750e-001 1.107051e+001 1.293041e+001 9.871823e+000 5.969653e+000 2.208827e+000 2.186155e+000 6.057011e+000 3.504968e+000 1.867274e+000
<GCONST> 9.886076e+001
<STATE> 3
<MEAN> 25
 -5.764153e+000 -2.081127e+000 -1.799834e+000 -2.340631e+000 -4.503754e+000 2.039227e+000 -1.404871e+000 -1.718175e+000 -2.156505e-001 6.820931e-001 -1.048031e+000 1.347518e+000 7.039304e-002 -7.003113e-002 8.695453e-002 -8.070265e-002 -5.340759e-002 -8.365243e-003 2.632501e-002 6.055964e-002 3.411268e-002 1.267313e-003 8.550611e-002 3.202336e-002 1.370676e-001
<VARIANCE> 25
 1.073971e+001 6.524479e+000 6.467429e+000 1.323909e+001 1.291529e+001 7.919648e+000 8.141834e+000 5.527947e+000 7.286321e+000 9.352706e+000 7.819337e+000 1.048653e+001 6.995354e-001 2.189022e-001 6.017911e-001 1.288585e+000 1.551445e+000 6.201972e-001 9.810241e-001 6.158383e-001 6.614451e-001 7.256507e-001 5.028194e-001 1.058708e+000 4.494219e-001
<GCONST> 6.687183e+001
<STATE> 4
<MEAN> 25
 1.082164e+001 4.771000e-001 2.991500e+000 -3.843391e+000 3.088468e+000 -6.783044e+000 1.371831e+000 3.373816e+000 1.555099e+000 -5.485157e+000 7.461093e-001 -6.052827e+000 5.605177e-001 -3.252203e-001 -2.864617e-001 1.454220e-001 2.791949e-001 -8.331985e-003 2.110955e-001 -1.462198e-001 -1.118018e-001 -4.839026e-001 -5.716376e-001 -1.946187e-001 6.305544e-001
<VARIANCE> 25
 3.128039e+001 4.231564e+001 1.486799e+001 3.632567e+001 6.799931e+001 5.472499e+001 4.663573e+001 3.898111e+001 1.232557e+001 4.003030e+001 3.993007e+001 5.524551e+001 2.757447e+000 3.260300e+000 2.123706e+000 3.769520e+000 6.881907e+000 3.978709e+000 4.017567e+000 5.196666e+000 1.358803e+000 1.606294e+000 4.459612e+000 6.444081e+000 1.155473e+000
<GCONST> 1.039623e+002
<TRANSP> 5
 0.000000e+000 1.000000e+000 0.000000e+000 0.000000e+000 0.000000e+000
 0.000000e+000 8.126771e-001 1.873229e-001 0.000000e+000 0.000000e+000
 0.000000e+000 0.000000e+000 9.482744e-001 5.172564e-002 0.000000e+000
 0.000000e+000 0.000000e+000 0.000000e+000 9.200240e-001 7.997596e-002
 0.000000e+000 0.000000e+000 0.000000e+000 0.000000e+000 0.000000e+000
<ENDHMM>
~h "n"
<BEGINHMM>
<NUMSTATES> 5
<STATE> 2
<MEAN> 25
 6.035097e+000 -3.861450e+000 -5.810669e+000 -5.185619e+000 -4.753776e+000 -3.296353e+000 3.388912e+000 4.529998e+000 -1.372636e+000 -4.420833e+000 1.062765e+001 1.832592e+000 -2.294227e-002 2.215533e+000 2.532054e-002 2.273037e+000 2.600779e+000 7.644023e-001 -1.501112e+000 1.618277e-001 -6.464295e-001 -2.355587e-001 -2.111355e+000 -1.021250e+000 -2.213283e+000
<VARIANCE> 25
 3.855271e+000 2.131639e+001 3.415840e+001 2.743551e+001 2.529412e+001 2.021286e+001 4.620834e+001 7.247855e+001 1.542832e+001 2.326863e+001 3.815041e+001 9.819692e+000 5.449549e-001 1.931921e+000 3.382138e+000 3.158701e+000 3.207192e+000 2.621413e+000 2.739318e+000 5.258915e+000 2.236456e+000 2.530908e+000 7.609102e+000 2.274987e+000 1.410194e+000
<GCONST> 9.550666e+001
<STATE> 3
<MEAN> 25
 4.267781e+000 5.710478e+000 -4.523747e+000 6.892536e+000 6.845246e+000 4.630922e-001 -1.280345e+000 3.387756e+000 2.683449e-001 -2.664775e+000 -6.041668e+000 -3.152839e+000 -5.569172e-001 1.891770e+000 1.006748e+000 3.120195e+000 2.277727e+000 1.166718e+000 -9.632049e-001 1.140416e-001 1.008823e+000 2.135348e-001 -4.367851e+000 -1.902429e+000 -2.240381e+000
<VARIANCE> 25
 4.319577e+000 1.200144e+001 3.041056e+001 1.910333e+001 2.461399e+001 2.535202e+001 2.012160e+001 2.534587e+001 2.082499e+001 1.903900e+001 4.215892e+001 1.416995e+001 3.601189e-001 1.019272e+000 2.323128e+000 2.080766e+000 3.152988e+000 4.254900e+000 3.722332e+000 6.339555e+000 2.047851e+000 2.185100e+000 5.362081e+000 6.991394e-001 7.577623e-001
<GCONST> 9.017907e+001
<STATE> 4
<MEAN> 25
 3.138913e+000 8.208354e+000 -2.276727e+000 1.201732e+001 6.605069e+000 1.058980e+000 2.258213e+000 3.394962e+000 3.832065e-001 -4.490755e-001 -9.051559e+000 -5.570748e+000 -2.178081e-001 1.665793e-001 1.395003e-001 2.657528e-001 -3.850121e-001 -1.585343e-001 7.821963e-001 -1.109906e-001 -2.587207e-001 6.607128e-001 4.567656e-001 2.239759e-001 -2.482818e-001
<VARIANCE> 25
 2.887054e+000 2.035156e+001 1.189979e+001 1.387364e+001 1.844355e+001 1.639427e+001 3.463661e+001 1.720211e+001 2.816009e+001 3.348466e+001 2.232887e+001 1.098727e+001 2.368463e-001 6.316149e-001 6.861786e-001 1.829993e+000 2.077200e+000 2.287262e+000 1.872886e+000 6.930045e-001 1.556365e+000 1.252368e+000 1.711711e+000 1.185663e+000 5.203967e-001
<GCONST> 8.044907e+001
<TRANSP> 5
 0.000000e+000 1.000000e+000 0.000000e+000 0.000000e+000 0.000000e+000
 0.000000e+000 6.768891e-001 3.231109e-001 0.000000e+000 0.000000e+000
 0.000000e+000 0.000000e+000 5.833074e-001 4.166926e-001 0.000000e+000
 0.000000e+000 0.000000e+000 0.000000e+000 8.310679e-001 1.689322e-001
 0.000000e+000 0.000000e+000 0.000000e+000 0.000000e+000 0.000000e+000
<ENDHMM>
~h "p"
<BEGINHMM>
<NUMSTATES> 5
<STATE> 2
<MEAN> 25
 5.178361e+000 7.105970e-001 7.592652e-001 -4.016493e+000 -1.747429e+000 -3.982343e+000 3.181779e+000 -2.276638e+000 -1.922936e+000 -1.991022e+000 -1.285807e+000 -6.021712e+000 2.614874e-001 4.911022e-001 5.243056e-001 2.172358e-001 -3.574793e-001 -1.114021e-001 -4.318214e-003 -3.832300e-002 -4.429242e-001 -6.225074e-001 -1.757571e-001 -4.017325e-001 -8.072700e-002
<VARIANCE> 25
 8.878815e+000 4.453301e+001 1.446456e+001 1.633514e+001 2.337858e+001 8.929906e+001 4.407779e+001 2.635226e+001 3.108292e+001 2.143655e+001 3.496558e+001 1.886685e+001 7.607942e-001 4.977716e+000 1.436831e+000 1.989853e+000 3.545166e+000 1.017691e+001 4.760700e+000 1.685119e+000 2.199273e+000 1.831837e+000 3.979487e+000 9.674331e-001 1.559309e+000
<GCONST> 9.632244e+001
<STATE> 3
<MEAN> 25
 -4.481092e-001 3.984894e+000 4.743384e+000 -7.379373e-001 -3.025926e+000 4.593253e+000 2.114887e+000 5.552859e-002 -1.054121e+000 -1.425819e-001 -3.498114e+000 -3.220707e+000 -3.044731e+000 2.332974e+000 -4.481855e-001 1.767635e+000 5.753725e-001 1.282445e+000 6.145104e-001 8.942176e-001 6.900043e-001 1.787421e+000 -1.617701e+000 1.892829e+000 -5.127290e+000
<VARIANCE> 25
 3.054881e+001 6.758437e+001 1.922832e+001 3.070630e+001 3.801103e+001 2.156251e+001 5.448483e+001 3.250720e+001 2.431221e+001 4.295709e+001 2.646471e+001 2.170400e+001 9.635739e-001 7.138473e+000 1.713529e+000 3.535095e+000 4.981047e+000 5.173186e+000 4.937819e+000 6.181830e+000 6.109290e+000 2.393969e+000 2.882835e+000 1.767416e+000 2.804213e+000
<GCONST> 1.031927e+002
<STATE> 4
<MEAN> 25
 -7.963793e+000 6.030197e+000 -2.996042e-001 2.899549e-001 -3.161044e+000 3.735650e+000 4.732323e-001 -8.588877e-001 -1.827655e+000 1.094476e+000 -6.438810e+000 6.772810e-001 -3.840948e-002 -9.906830e-001 -1.331594e-001 -7.621249e-001 -1.334330e-001 1.294114e-001 -5.134376e-001 -3.897448e-001 -6.339637e-002 2.643760e-001 4.928737e-001 1.901164e-002 5.702090e-001
<VARIANCE> 25
 9.385477e+000 2.601484e+001 1.300680e+001 1.364491e+001 1.003059e+001 2.617088e+001 2.367844e+001 1.695332e+001 1.153479e+001 1.028474e+001 1.209700e+001 1.104329e+001 1.245419e+000 3.818788e+000 1.862043e+000 2.265141e+000 1.996187e+000 2.924404e+000 1.671812e+000 1.984083e+000 1.501671e+000 1.604087e+000 1.356235e+000 8.574876e-001 4.244790e+000
<GCONST> 8.629762e+001
<TRANSP> 5
 0.000000e+000 1.000000e+000 0.000000e+000 0.000000e+000 0.000000e+000
 0.000000e+000 8.894578e-001 1.105422e-001 0.000000e+000 0.000000e+000
 0.000000e+000 0.000000e+000 7.152990e-001 2.847010e-001 0.000000e+000
 0.000000e+000 0.000000e+000 0.000000e+000 8.751130e-001 1.248871e-001
 0.000000e+000 0.000000e+000 0.000000e+000 0.000000e+000 0.000000e+000
<ENDHMM>
~h "r"
<BEGINHMM>
<NUMSTATES> 5
<STATE> 2
<MEAN> 25
 6.377576e+000 1.664611e+000 -8.363614e+000 -1.751323e+000 2.955848e+000 1.661940e+000 -3.139901e-001 -1.560852e+000 3.806298e-001 -3.408499e+000 -1.414421e-001 4.783246e+000 -5.861269e-001 1.245072e+000 -2.378849e-002 6.795355e-001 4.163304e-001 8.779648e-001 7.300791e-001 3.967453e-001 -7.708756e-001 3.613553e-001 -3.379086e-001 5.085093e-002 -1.654077e+000
<VARIANCE> 25
 1.232531e+001 3.607171e+001 3.371597e+001 2.546925e+001 2.564518e+001 3.231098e+001 3.189510e+001 4.118808e+001 2.489092e+001 4.435108e+001 2.189669e+001 3.068220e+001 3.013567e+000 3.242948e+000 3.413910e+000 1.926169e+000 3.452921e+000 3.634665e+000 2.818914e+000 4.256887e+000 2.647908e+000 3.808019e+000 2.986143e+000 2.764453e+000 3.757025e+000
<GCONST> 1.011395e+002
<STATE> 3
<MEAN> 25
 -3.879288e-001 2.862401e+000 -3.863623e+000 2.796239e+000 2.649330e+000 4.961561e+000 3.001990e+000 3.390601e+000 -3.456911e+000 -1.875506e-001 1.918358e+000 3.240442e+000 -1.483334e+000 -1.020806e-001 2.182944e-002 2.478591e-001 -4.248707e-001 -2.871682e-001 1.380003e-001 1.791660e-001 -1.167959e-001 1.137673e+000 3.399810e-001 -2.253603e-001 -1.398943e+000
<VARIANCE> 25
 2.738315e+001 5.313792e+001 3.540607e+001 2.863329e+001 3.938026e+001 3.040067e+001 3.025441e+001 3.879830e+001 2.108375e+001 2.971505e+001 2.762723e+001 2.300184e+001 3.332268e+000 4.725078e+000 3.343385e+000 4.274096e+000 4.596481e+000 3.506194e+000 6.716106e+000 4.999068e+000 2.570365e+000 4.534139e+000 3.245125e+000 3.278375e+000 3.316289e+000
<GCONST> 1.049302e+002
<STATE> 4
<MEAN> 25
 -5.551811e+000 6.234154e+000 -6.410790e+000 1.262068e+000 -2.016819e-001 2.966955e+000 1.200232e+000 1.845904e-001 -6.829537e-001 3.920924e+000 -3.243509e+000 4.833455e+000 -2.944598e-001 2.265106e-001 4.137460e-002 -5.959379e-002 -1.609733e-001 -4.650444e-001 -2.419201e-001 -3.696926e-001 4.010249e-002 5.954219e-003 -6.396782e-001 -1.738371e-001 -2.785046e-001
<VARIANCE> 25
 1.663141e+001 1.760729e+001 3.231482e+001 1.402367e+001 2.894828e+001 2.295690e+001 3.715106e+001 3.351619e+001 1.825424e+001 2.164152e+001 2.138305e+001 2.649448e+001 3.924200e-001 1.152182e+000 1.853707e+000 1.694059e+000 1.606658e+000 2.128380e+000 1.656514e+000 2.822416e+000 2.071861e+000 1.331667e+000 1.968448e+000 2.414953e+000 6.919115e-001
<GCONST> 8.901538e+001
<TRANSP> 5
 0.000000e+000 1.000000e+000 0.000000e+000 0.000000e+000 0.000000e+000
 0.000000e+000 7.338759e-001 2.661242e-001 0.000000e+000 0.000000e+000
 0.000000e+000 0.000000e+000 6.827353e-001 3.172647e-001 0.000000e+000
 0.000000e+000 0.000000e+000 0.000000e+000 8.073203e-001 1.926797e-001
 0.000000e+000 0.000000e+000 0.000000e+000 0.000000e+000 0.000000e+000
<ENDHMM>
~h "s"
<BEGINHMM>
<NUMSTATES> 5
<STATE> 2
<MEAN> 25
 -1.193041e+001 -1.197357e+001 1.951729e+001 -1.718978e+001 -2.439154e+000 1.067950e+001 6.743696e-002 1.349073e+000 2.033492e+000 4.818228e+000 6.116248e-002 -1.244950e+000 -6.264931e-001 -7.102175e-001 7.876777e-001 -5.527222e-001 -1.710711e-001 2.730712e-001 -3.163754e-001 -1.155900e-001 -1.792632e-002 -7.963430e-002 -3.048865e-001 -5.074109e-002 3.162151e-001
<VARIANCE> 25
 4.712473e+001 3.616603e+001 7.130785e+001 4.132095e+001 2.618048e+001 2.046318e+001 2.089132e+001 3.693005e+001 1.615477e+001 2.343781e+001 1.501158e+001 1.699815e+001 6.118499e+000 4.086655e+000 1.140705e+001 4.899626e+000 2.481590e+000 3.715056e+000 1.976372e+000 2.219508e+000 1.672892e+000 1.473998e+000 9.396995e-001 9.627518e-001 6.319329e-001
<GCONST> 9.707240e+001
<STATE> 3
<MEAN> 25
 -3.220433e+000 -6.348101e+000 9.203712e+000 -1.007425e+001 -5.364897e-001 6.056843e+000 -4.038843e-002 -3.816800e+000 -2.750414e-001 3.160441e+000 1.275402e-001 9.365271e-002 3.763609e+000 3.273489e+000 -4.416676e+000 2.942229e+000 5.914675e-001 -2.825325e+000 5.366046e-001 -2.232489e+000 -1.270123e+000 -1.256065e+000 5.289127e-001 1.171022e+000 1.894233e-002
<VARIANCE> 25
 4.267163e+001 6.354764e+001 7.364372e+001 5.326337e+001 2.650557e+001 1.932607e+001 4.178785e+001 3.800746e+001 1.264456e+001 2.859270e+001 2.032994e+001 1.503283e+001 2.184488e+000 2.708706e+000 3.182417e+000 2.990558e+000 2.574009e+000 3.424478e+000 2.819846e+000 4.439486e+000 1.925341e+000 2.926569e+000 2.250264e+000 1.299520e+000 1.775917e+000
<GCONST> 9.945953e+001
<STATE> 4
<MEAN> 25
 5.780988e+000 -3.192507e+000 -3.159931e+000 -2.802940e+000 -2.502359e+000 -5.209382e+000 -1.410137e+000 -9.774256e+000 -3.469426e+000 -2.080335e+000 5.351484e+000 5.044065e+000 8.156010e-001 -3.037305e-001 -1.445720e+000 1.932305e-001 -9.769529e-001 -8.396609e-001 -7.236937e-002 3.928810e-001 -1.136683e-003 -7.455800e-001 9.788579e-001 3.228489e-001 2.031368e-001
<VARIANCE> 25
 7.774357e+000 1.189541e+001 3.150295e+001 1.854270e+001 2.660172e+001 2.131944e+001 5.087650e+001 1.984249e+001 1.851095e+001 1.507697e+001 2.158037e+001 1.319863e+001 1.013778e+000 1.614074e+000 1.861413e+000 1.665087e+000 2.178720e+000 4.803798e+000 1.400333e+000 2.826330e+000 1.809893e+000 3.064080e+000 1.222147e+000 1.141578e+000 4.543188e-001
<GCONST> 8.798989e+001
<TRANSP> 5
 0.000000e+000 1.000000e+000 0.000000e+000 0.000000e+000 0.000000e+000
 0.000000e+000 8.512473e-001 1.487528e-001 0.000000e+000 0.000000e+000
 0.000000e+000 0.000000e+000 6.748632e-001 3.251368e-001 0.000000e+000
 0.000000e+000 0.000000e+000 0.000000e+000 7.841783e-001 2.158218e-001
 0.000000e+000 0.000000e+000 0.000000e+000 0.000000e+000 0.000000e+000
<ENDHMM>
~h "t"
<BEGINHMM>
<NUMSTATES> 5
<STATE> 2
<MEAN> 25
 7.648309e-001 -6.699995e+000 3.347413e+000 -4.593544e+000 -1.395248e+000 -8.714089e-001 -2.704431e+000 -2.616591e+000 -1.150268e+000 -5.430753e-001 7.062323e+000 -3.497744e-001 9.488277e-001 1.785244e+000 -1.846150e+000 -1.142848e-001 7.701024e-001 -7.011827e-001 1.927981e-001 -2.271282e+000 -6.074818e-002 2.120885e-001 -1.244729e+000 1.059091e-001 -4.576612e-002
<VARIANCE> 25
 3.016303e+001 5.023855e+001 6.573857e+001 4.789605e+001 7.811400e+001 1.481565e+001 3.021774e+001 8.501241e+001 4.577827e+001 1.893896e+001 5.918511e+001 2.175447e+001 2.512378e+000 8.622151e+000 3.933100e+000 1.726487e+000 7.205788e+000 1.033668e+000 1.261788e+000 1.303257e+001 1.926547e+000 2.215249e+000 4.814826e+000 1.556827e+000 3.820654e-001
<GCONST> 1.024580e+002
<STATE> 3
<MEAN> 25
 1.682110e+000 -7.584993e+000 2.445050e-001 -1.112320e+001 -5.725126e+000 -2.415462e+000 -8.718281e-001 -1.836617e+000 3.671615e+000 2.612866e+000 8.330458e+000 2.271917e+000 -2.524817e-002 5.144694e-001 -4.126986e-001 1.340471e-001 2.939722e-001 -4.232070e-002 3.714754e-001 -1.035622e-001 -1.257359e-001 -9.137095e-002 -6.778640e-001 5.468404e-001 -4.994799e-001
<VARIANCE> 25
 7.451558e+000 1.309157e+001 9.877323e+000 2.606870e+001 1.211450e+001 1.009517e+001 2.103098e+001 2.191837e+001 3.085745e+001 2.164318e+001 2.891813e+001 1.175780e+001 2.536575e-001 1.143599e+000 1.163351e+000 7.051569e-001 1.811091e+000 6.286956e-001 8.525470e-001 7.708151e-001 1.278181e+000 1.553006e+000 3.048302e+000 1.505859e+000 8.166901e-001
<GCONST> 7.963258e+001
<STATE> 4
<MEAN> 25
 1.327072e+000 -7.948239e+000 3.898181e+000 -6.534396e+000 -3.816173e+000 -3.374388e+000 -4.177454e+000 -2.645531e+000 4.723273e+000 1.395529e+000 4.484311e+000 -3.359009e-001 -1.143789e-002 4.180177e-001 -2.669407e-001 1.590549e-001 2.309487e-001 2.176092e-001 1.797979e-001 1.432818e-001 -1.280681e-001 -1.744896e-001 -4.589425e-001 2.360901e-001 -6.094809e-001
<VARIANCE> 25
 4.815869e+000 9.774878e+000 1.606079e+001 1.118160e+001 4.920943e+000 7.298454e+000 1.996410e+001 1.198221e+001 1.871983e+001 1.097892e+001 1.197087e+001 1.160213e+001 1.992248e-001 1.193102e+000 6.569054e-001 3.366154e-001 7.028226e-001 6.150491e-001 6.372762e-001 8.020140e-001 1.024224e+000 8.628968e-001 1.523846e+000 1.036190e+000 1.336864e+000
<GCONST> 7.047497e+001
<TRANSP> 5
 0.000000e+000 1.000000e+000 0.000000e+000 0.000000e+000 0.000000e+000
 0.000000e+000 3.078777e-001 6.921224e-001 0.000000e+000 0.000000e+000
 0.000000e+000 0.000000e+000 6.134732e-001 3.865268e-001 0.000000e+000
 0.000000e+000 0.000000e+000 0.000000e+000 7.571037e-001 2.428963e-001
 0.000000e+000 0.000000e+000 0.000000e+000 0.000000e+000 0.000000e+000
<ENDHMM>
~h "u"
<BEGINHMM>
<NUMSTATES> 5
<STATE> 2
<MEAN> 25
 -1.447379e+000 -6.281582e+000 5.390249e+000 -5.280254e+000 -1.899902e+000 3.898169e+000 -2.897088e-001 -1.174102e+000 -2.280459e-001 3.636226e+000 8.907815e-001 -9.685940e-001 1.621648e+000 -2.470090e+000 1.247181e+000 -1.456762e+000 -1.480929e-002 -5.117640e-001 -6.491455e-001 -5.233196e-001 3.353569e-001 -1.091797e+000 2.055915e+000 1.842526e-001 4.374696e+000
<VARIANCE> 25
 3.269219e+001 3.400420e+001 4.497344e+001 2.677832e+001 4.389143e+001 5.601978e+001 6.128061e+001 4.266505e+001 1.911880e+001 3.244283e+001 2.001332e+001 2.371697e+001 5.099578e+000 7.707162e+000 5.367640e+000 3.662131e+000 2.487481e+000 6.774540e+000 4.772188e+000 4.734918e+000 1.886424e+000 2.624438e+000 5.194777e+000 2.967741e+000 9.021723e+000
<GCONST> 1.074498e+002
<STATE> 3
<MEAN> 25
 3.800421e+000 -5.528442e+000 3.512232e+000 -4.464344e+000 -2.146745e+000 -4.037027e-001 9.225599e-002 -3.006814e+000 -1.578985e+000 -3.803786e+000 3.550591e+000 7.929906e-003 6.747029e-001 -9.632198e-001 -1.079251e+000 -3.984570e-001 -6.996278e-001 -7.731588e-001 -9.659638e-002 -5.883600e-002 3.954416e-003 -1.187710e+000 1.549446e+000 6.712344e-001 1.307049e+000
<VARIANCE> 25
 4.690271e+001 3.706556e+001 2.770438e+001 3.356053e+001 3.269702e+001 2.995189e+001 1.717055e+001 3.151886e+001 1.673195e+001 3.495053e+001 4.356971e+001 2.320762e+001 1.689551e+000 3.437125e+000 2.278818e+000 1.473165e+000 3.083163e+000 4.615337e+000 3.706512e+000 3.447771e+000 2.599531e+000 2.800253e+000 5.811687e+000 1.802605e+000 1.757596e+000
<GCONST> 9.978481e+001
<STATE> 4
<MEAN> 25
 3.716301e+000 -9.810633e+000 1.524805e+000 -5.266525e+000 -4.473106e+000 -1.829728e+000 -2.222871e+000 -2.940900e+000 2.945121e+000 -7.442569e-001 5.659916e+000 1.877933e-001 2.145533e-001 -4.922875e-001 -5.085511e-001 -5.044265e-003 -5.509820e-001 -4.393035e-002 -5.306752e-001 2.937776e-001 5.705238e-001 7.570780e-002 5.604723e-001 -1.599059e-001 7.757659e-002
<VARIANCE> 25
 3.910029e+001 2.195444e+001 1.846622e+001 1.485360e+001 1.102995e+001 1.658739e+001 2.583319e+001 3.503370e+001 2.735524e+001 2.475368e+001 3.473470e+001 1.760087e+001 5.175380e-001 7.399192e-001 1.065341e+000 6.559330e-001 1.397024e+000 1.691815e+000 1.312322e+000 8.519140e-001 1.058610e+000 1.571764e+000 1.261762e+000 9.834524e-001 5.232702e-001
<GCONST> 8.299772e+001
<TRANSP> 5
 0.000000e+000 1.000000e+000 0.000000e+000 0.000000e+000 0.000000e+000
 0.000000e+000 4.282406e-001 5.717594e-001 0.000000e+000 0.000000e+000
 0.000000e+000 0.000000e+000 2.412601e-001 7.587399e-001 0.000000e+000
 0.000000e+000 0.000000e+000 0.000000e+000 6.281170e-001 3.718830e-001
 0.000000e+000 0.000000e+000 0.000000e+000 0.000000e+000 0.000000e+000
<ENDHMM>
~h "sp"
<BEGINHMM>
<NUMSTATES> 3
<STATE> 2
~s "silst"
<TRANSP> 3
 0.000000e+000 8.821759e-002 9.117824e-001
 0.000000e+000 6.812808e-001 3.187192e-001
 0.000000e+000 0.000000e+000 0.000000e+000
<ENDHMM>
~h "sil"
<BEGINHMM>
<NUMSTATES> 5
<STATE> 2
<MEAN> 25
 -7.405022e+000 3.916837e+000 1.399714e-001 7.743013e-001 -1.234798e+000 7.407126e+000 8.875455e-001 6.114338e-001 1.703456e+000 3.292896e+000 -2.959537e+000 2.152401e+000 -1.482891e-001 -4.737923e-002 1.065683e-001 -2.209442e-001 -2.215988e-001 -9.883098e-002 1.643672e-001 1.362840e-001 1.120180e-001 5.013952e-002 -2.668585e-002 -7.240492e-002 4.244589e-002
<VARIANCE> 25
 1.629076e+001 3.108618e+001 3.519257e+001 3.236684e+001 2.547029e+001 2.903846e+001 2.472831e+001 2.411904e+001 1.822915e+001 2.116593e+001 1.248775e+001 1.316670e+001 4.040807e-001 8.165828e-001 1.012544e+000 1.423499e+000 1.457067e+000 1.321259e+000 1.447547e+000 1.331677e+000 1.091782e+000 1.062593e+000 1.017228e+000 1.005925e+000 8.995476e-001
<GCONST> 8.390098e+001
<STATE> 3
~s "silst"
<STATE> 4
<MEAN> 25
 -2.014688e+000 5.167246e+000 -3.545288e-001 -2.931273e-001 -2.124526e+000 1.292267e+000 -1.227816e-002 3.256900e-001 1.569792e+000 3.180100e+000 -2.454673e+000 -1.117705e-001 1.056178e-001 1.334561e-001 9.095780e-002 -1.592068e-001 -2.675935e-001 -1.460723e-001 3.486446e-002 -1.802262e-001 -1.192800e-001 -1.870647e-002 6.061050e-002 6.844744e-002 1.014666e-001
<VARIANCE> 25
 3.091076e+001 1.019916e+002 5.004898e+001 5.664984e+001 3.158692e+001 4.171003e+001 4.624823e+001 4.304008e+001 2.335625e+001 2.787719e+001 2.437285e+001 1.706249e+001 1.180173e+000 1.395598e+000 1.775885e+000 2.388611e+000 1.516286e+000 1.795220e+000 2.039415e+000 2.013148e+000 1.730408e+000 1.382545e+000 1.003630e+000 1.211280e+000 1.333693e+000
<GCONST> 9.495477e+001
<TRANSP> 5
 0.000000e+000 1.000000e+000 0.000000e+000 0.000000e+000 0.000000e+000
 0.000000e+000 7.555875e-001 7.901319e-002 1.653993e-001 0.000000e+000
 0.000000e+000 0.000000e+000 6.782953e-001 3.217048e-001 0.000000e+000
 0.000000e+000 2.092288e-002 0.000000e+000 5.429532e-001 4.361240e-001
 0.000000e+000 0.000000e+000 0.000000e+000 0.000000e+000 0.000000e+000
<ENDHMM>
