~o
<STREAMINFO> 1 25
<VECSIZE> 25<NULLD><MFCC_D_N_Z_0><DIAGC>
~h "a"
<BEGINHMM>
<NUMSTATES> 5
<STATE> 2
<MEAN> 25
 4.251267e+000 -4.125669e+000 -4.134494e+000 -5.070713e+000 -4.549747e+000 -3.370497e+000 2.924584e+000 -5.060871e-001 1.762164e+000 -1.344450e-001 5.501684e+000 3.633033e+000 8.553232e-002 -2.361924e-001 -2.832060e-001 -2.004932e-002 -1.942527e-001 2.893539e-001 6.090141e-002 2.079922e-001 2.764478e-001 1.576724e-001 5.541004e-001 8.881316e-002 -4.295425e-002
<VARIANCE> 25
 1.135616e+001 3.655479e+001 3.072891e+001 2.830548e+001 3.273486e+001 3.337738e+001 4.150130e+001 2.570450e+001 2.798642e+001 2.801834e+001 2.931631e+001 1.882298e+001 7.476805e-001 1.962536e+000 1.431078e+000 2.751355e+000 4.452465e+000 3.138006e+000 3.070436e+000 2.465008e+000 2.514391e+000 1.946558e+000 3.404413e+000 1.768767e+000 1.777513e+000
<GCONST> 9.606397e+001
<STATE> 3
<MEAN> 25
 4.463283e+000 -3.221930e+000 -4.812671e+000 -3.623413e+000 -3.399300e+000 -1.889715e+000 2.235751e+000 -2.059172e-001 1.572824e+000 1.497998e-001 5.683218e+000 3.289378e+000 -5.819662e-002 3.647434e-001 1.534116e-002 6.516798e-001 4.952635e-001 4.334937e-001 -2.509678e-001 9.119301e-002 -3.009585e-001 -6.835334e-002 -1.154344e-001 -3.839207e-002 -6.298677e-001
<VARIANCE> 25
 1.119673e+001 3.830642e+001 3.011461e+001 2.994857e+001 3.943456e+001 3.899342e+001 4.945391e+001 3.408754e+001 2.538626e+001 3.096291e+001 2.859630e+001 1.335970e+001 6.472332e-001 1.533542e+000 1.681794e+000 3.111603e+000 2.589437e+000 2.505495e+000 2.865511e+000 2.190386e+000 1.714496e+000 1.758446e+000 2.348120e+000 1.415702e+000 1.402745e+000
<GCONST> 9.419069e+001
<STATE> 4
<MEAN> 25
 2.509080e+000 9.079781e-001 -5.080323e+000 2.500665e-002 3.986630e-001 1.673582e+000 1.169094e+000 2.519790e-002 9.666660e-001 1.847567e+000 2.857941e+000 3.472153e+000 -2.487440e-001 4.195703e-001 -7.768814e-003 3.960755e-001 3.156722e-001 1.689517e-001 -3.551926e-002 2.263580e-001 -2.220312e-001 -1.040137e-002 -2.549045e-001 -9.673803e-002 -6.639871e-001
<VARIANCE> 25
 1.352801e+001 7.577013e+001 3.425266e+001 3.489530e+001 5.122284e+001 3.992894e+001 5.182944e+001 3.479176e+001 2.127273e+001 2.487899e+001 3.337014e+001 1.268545e+001 7.201425e-001 1.504346e+000 1.741524e+000 2.435086e+000 2.001842e+000 1.900792e+000 1.858732e+000 1.706561e+000 1.460770e+000 1.488509e+000 2.256793e+000 1.299351e+000 9.670222e-001
<GCONST> 9.324023e+001
<TRANSP> 5
 0.000000e+000 1.000000e+000 0.000000e+000 0.000000e+000 0.000000e+000
 0.000000e+000 6.192517e-001 3.807483e-001 0.000000e+000 0.000000e+000
 0.000000e+000 0.000000e+000 5.394003e-001 4.605996e-001 0.000000e+000
 0.000000e+000 0.000000e+000 0.000000e+000 7.102427e-001 2.897572e-001
 0.000000e+000 0.000000e+000 0.000000e+000 0.000000e+000 0.000000e+000
<ENDHMM>
~h "d"
<BEGINHMM>
<NUMSTATES> 5
<STATE> 2
<MEAN> 25
 4.435891e+000 -1.175309e+000 -2.798473e+000 4.765949e+000 8.125119e+000 -7.578132e+000 2.552778e+000 1.201100e+000 -4.821584e+000 -4.341484e+000 7.331240e-001 -1.124806e+000 1.003218e+000 -1.819974e+000 -4.502842e-001 -1.837584e+000 -4.995888e-001 -2.965277e+000 -1.781374e+000 -8.501409e-001 -1.187087e+000 -1.830525e+000 1.535210e+000 2.430558e-001 2.850096e+000
<VARIANCE> 25
 2.282625e+001 4.210852e+001 1.725538e+001 2.462990e+001 6.051680e+001 6.203463e+001 7.306438e+001 4.067054e+001 1.559902e+001 3.038618e+001 3.710110e+001 2.722593e+000 4.375298e-001 3.862513e+000 2.022740e+000 4.541751e-001 8.366508e+000 1.395176e+001 7.406837e+000 4.942735e+000 3.917601e+000 3.055249e+000 2.676102e+000 8.481635e-001 5.607035e+000
<GCONST> 9.969715e+001
<STATE> 3
<MEAN> 25
 7.666459e+000 -5.947028e+000 -1.830091e+000 -1.835069e+000 -1.463766e+000 -7.683653e+000 -4.117407e+000 -2.928897e+000 -2.416040e+000 -5.969432e+000 6.432942e+000 1.430854e-001 3.381230e-001 -2.620268e-001 -8.072934e-001 -1.059435e+000 -2.146776e+000 2.997216e-001 -9.642450e-002 -3.812882e-001 7.054781e-001 6.260513e-001 8.968451e-001 9.799175e-001 -2.149015e-001
<VARIANCE> 25
 1.429963e+001 1.256465e+001 1.489787e+001 1.054064e+001 3.561257e+001 1.698454e+001 1.924997e+001 1.957429e+001 9.137965e+000 1.478281e+001 2.767523e+001 1.066376e+001 6.004683e-001 1.555695e+000 7.415750e-001 1.664105e+000 1.900279e+000 2.946875e+000 6.652357e+000 2.140264e+000 9.040625e-001 1.098358e+000 2.006662e+000 1.406097e+000 1.535747e+000
<GCONST> 8.510462e+001
<STATE> 4
<MEAN> 25
 5.492262e+000 -9.106801e-001 -6.739145e+000 -4.279110e+000 -5.130534e+000 -6.692830e+000 -3.089604e+000 -4.974865e-001 -6.877523e-001 -2.666257e+000 6.621940e+000 4.585899e+000 -4.787169e-001 1.013826e+000 -3.043840e-001 -1.036381e-001 -3.616338e-001 9.834597e-001 3.564740e-001 1.013081e+000 5.111356e-001 9.827444e-001 7.881758e-002 3.734080e-001 -1.617329e+000
<VARIANCE> 25
 1.027737e+001 2.398046e+001 1.521118e+001 1.097723e+001 1.873751e+001 2.707016e+001 2.840237e+001 2.839494e+001 7.385377e+000 2.451715e+001 2.453957e+001 1.290297e+001 1.648709e+000 7.104411e-001 2.045522e+000 1.369361e+000 2.712995e+000 3.994924e+000 3.196208e+000 2.515721e+000 1.157660e+000 1.632565e+000 2.186901e+000 1.834556e+000 1.701493e+000
<GCONST> 8.866329e+001
<TRANSP> 5
 0.000000e+000 1.000000e+000 0.000000e+000 0.000000e+000 0.000000e+000
 0.000000e+000 7.258422e-001 2.741577e-001 0.000000e+000 0.000000e+000
 0.000000e+000 0.000000e+000 6.452611e-001 3.547388e-001 0.000000e+000
 0.000000e+000 0.000000e+000 0.000000e+000 8.918118e-001 1.081882e-001
 0.000000e+000 0.000000e+000 0.000000e+000 0.000000e+000 0.000000e+000
<ENDHMM>
~h "e"
<BEGINHMM>
<NUMSTATES> 5
<STATE> 2
<MEAN> 25
 2.177041e+000 -3.323494e+000 2.435405e+000 -2.357612e+000 -7.894061e-001 -1.234343e-001 -1.458301e+000 -3.039953e+000 -3.182378e+000 -1.880481e+000 4.604111e+000 5.025729e-003 -2.946194e-002 2.297397e-001 -1.556853e-001 1.142377e-001 -1.704228e-001 -2.668498e-001 4.280652e-001 2.877484e-001 -4.336845e-002 -3.015391e-001 -1.475745e-001 2.245450e-001 -1.607033e-001
<VARIANCE> 25
 5.676268e+001 4.773121e+001 9.148337e+001 6.531888e+001 2.658233e+001 6.639303e+001 3.622451e+001 3.234294e+001 2.088549e+001 2.620542e+001 3.537655e+001 2.337679e+001 3.072704e+000 3.267297e+000 3.291698e+000 3.912908e+000 2.755471e+000 5.885507e+000 3.303151e+000 4.805669e+000 2.508429e+000 5.309590e+000 2.871480e+000 1.872833e+000 1.529940e+000
<GCONST> 1.052213e+002
<STATE> 3
<MEAN> 25
 2.285563e+000 -3.120468e+000 1.892840e+000 -1.743987e+000 -1.008700e+000 -6.708099e-001 -8.340257e-001 -2.150548e+000 -2.931010e+000 -2.268241e+000 4.188013e+000 3.757914e-001 -2.195149e-001 3.984483e-002 -1.552087e-001 -1.070278e-001 -1.194117e-001 -1.734526e-001 4.771420e-001 4.388466e-001 1.041588e-001 -8.032499e-002 -4.203735e-001 1.979338e-001 -2.075170e-001
<VARIANCE> 25
 6.154504e+001 4.934327e+001 8.713241e+001 6.047279e+001 2.210839e+001 5.850838e+001 4.328238e+001 3.001105e+001 2.595469e+001 3.155254e+001 4.158811e+001 2.381467e+001 2.423037e+000 3.269995e+000 4.201068e+000 3.774273e+000 1.683336e+000 7.298084e+000 3.335978e+000 4.722415e+000 2.316032e+000 3.950812e+000 2.281557e+000 1.662803e+000 1.317364e+000
<GCONST> 1.043973e+002
<STATE> 4
<MEAN> 25
 2.994278e+000 -3.350827e+000 5.885745e-001 -2.167743e+000 -1.174019e+000 -1.083752e+000 -2.160974e-001 -1.892198e+000 -2.648010e+000 -2.341818e+000 4.452295e+000 5.749993e-001 -4.237505e-001 -2.079394e-001 2.970031e-002 -4.257467e-001 8.348423e-002 3.201961e-001 6.492005e-001 6.038967e-001 4.767726e-001 7.724148e-002 -8.875350e-001 1.253837e-001 -1.770761e-001
<VARIANCE> 25
 5.294254e+001 4.609662e+001 7.842144e+001 4.549184e+001 2.236616e+001 5.258569e+001 5.183227e+001 2.930341e+001 3.002766e+001 3.644119e+001 4.236670e+001 3.084702e+001 2.531482e+000 3.644356e+000 4.777084e+000 3.718160e+000 2.158981e+000 6.208296e+000 3.785738e+000 2.976452e+000 2.766698e+000 3.099380e+000 2.805923e+000 1.747807e+000 2.135649e+000
<GCONST> 1.051097e+002
<TRANSP> 5
 0.000000e+000 1.000000e+000 0.000000e+000 0.000000e+000 0.000000e+000
 0.000000e+000 2.495530e-001 7.504469e-001 0.000000e+000 0.000000e+000
 0.000000e+000 0.000000e+000 2.827961e-001 7.172039e-001 0.000000e+000
 0.000000e+000 0.000000e+000 0.000000e+000 5.046333e-001 4.953667e-001
 0.000000e+000 0.000000e+000 0.000000e+000 0.000000e+000 0.000000e+000
<ENDHMM>
~h "g"
<BEGINHMM>
<NUMSTATES> 5
<STATE> 2
<MEAN> 25
 1.240198e+000 1.528376e+000 6.813991e+000 6.096977e+000 6.533253e+000 -3.155356e+000 -3.577765e+000 -4.137171e+000 1.374283e+000 4.544432e-001 -3.326028e+000 -5.925990e+000 7.208179e-001 -4.152747e-001 3.305345e-002 4.185401e-001 5.244586e-001 -9.814200e-001 -1.447728e+000 -1.385212e+000 -3.790330e-001 -3.697900e-001 8.652339e-001 -6.470471e-002 1.171732e+000
<VARIANCE> 25
 1.173764e+001 1.211429e+002 3.465173e+001 4.472871e+001 2.690663e+001 3.398821e+001 5.317758e+001 7.339776e+001 2.173590e+001 2.435523e+001 2.385542e+001 1.481373e+001 1.486309e+000 1.141951e+001 5.372417e+000 5.264649e+000 3.673777e+000 3.522212e+000 4.176784e+000 8.394552e+000 2.318457e+000 2.147636e+000 2.676986e+000 3.152534e+000 4.290364e+000
<GCONST> 1.052657e+002
<STATE> 3
<MEAN> 25
 3.103024e+000 -3.415437e+000 4.718843e+000 5.616294e+000 5.686069e+000 -5.817040e+000 -9.634480e+000 -9.055504e+000 -1.021786e+000 -9.026539e-001 2.832292e+000 -3.660597e+000 1.261004e-001 -3.171959e-001 -1.300159e-001 -6.286055e-001 -7.774740e-001 8.110250e-001 -5.696354e-002 5.611660e-001 -4.363406e-001 2.864805e-001 1.446261e+000 2.181134e-001 -2.254081e-001
<VARIANCE> 25
 1.708835e+001 2.476276e+001 4.824033e+001 3.021264e+001 3.322792e+001 3.332161e+001 1.734305e+001 5.628799e+001 2.166795e+001 1.824168e+001 2.362437e+001 1.496458e+001 1.293730e+000 3.635172e+000 4.641180e+000 2.241870e+000 3.752027e+000 7.219196e+000 3.526303e+000 5.416808e+000 2.231128e+000 2.380255e+000 2.133754e+000 1.484198e+000 2.444776e+000
<GCONST> 9.887559e+001
<STATE> 4
<MEAN> 25
 -1.706110e+000 -5.331936e+000 1.094970e+001 -2.572123e+000 1.414389e+000 2.824682e+000 -5.442566e+000 -2.697811e+000 -1.160698e+000 2.058940e+000 5.402624e+000 -3.812668e+000 -2.734256e+000 -1.414886e+000 2.655787e+000 -3.125473e+000 -1.212000e+000 1.659316e+000 1.146953e+000 2.389566e+000 -4.617299e-001 5.533990e-001 5.331498e-001 -1.971901e-001 -5.252468e-001
<VARIANCE> 25
 7.529530e+001 2.727072e+001 1.231465e+002 7.999303e+001 3.645794e+001 8.291928e+001 2.441953e+001 6.349592e+001 1.736701e+001 2.092672e+001 1.600369e+001 1.686829e+001 7.400129e+000 3.073391e+000 8.986616e+000 6.234185e+000 2.167008e+000 4.960223e+000 3.367988e+000 6.441773e+000 1.437321e+000 1.649028e+000 1.725071e+000 1.273297e+000 7.948603e-001
<GCONST> 1.036460e+002
<TRANSP> 5
 0.000000e+000 1.000000e+000 0.000000e+000 0.000000e+000 0.000000e+000
 0.000000e+000 8.827533e-001 1.172466e-001 0.000000e+000 0.000000e+000
 0.000000e+000 0.000000e+000 5.860802e-001 4.139198e-001 0.000000e+000
 0.000000e+000 0.000000e+000 0.000000e+000 6.129040e-001 3.870960e-001
 0.000000e+000 0.000000e+000 0.000000e+000 0.000000e+000 0.000000e+000
<ENDHMM>
~h "i"
<BEGINHMM>
<NUMSTATES> 5
<STATE> 2
<MEAN> 25
 2.642089e+000 -9.677414e-001 3.924531e+000 1.001151e+001 7.552781e+000 -7.599385e+000 -8.344440e+000 -5.058695e-001 -4.602878e+000 -2.490994e+000 2.375061e+000 -8.166677e+000 -3.909687e-001 2.065655e-001 2.031136e-001 6.925150e-001 -1.468241e-001 4.295445e-002 6.338358e-002 8.613414e-002 8.864433e-002 1.336431e-001 -6.375793e-001 -1.641045e-001 -6.705151e-001
<VARIANCE> 25
 8.422915e+000 2.284350e+001 3.269649e+001 3.808375e+001 2.860750e+001 4.456905e+001 3.274596e+001 3.893229e+001 2.519477e+001 2.404381e+001 3.940267e+001 3.780980e+001 5.657329e-001 1.210776e+000 1.599528e+000 3.249341e+000 2.657097e+000 4.020112e+000 3.600164e+000 1.973183e+000 1.468019e+000 1.537655e+000 1.655116e+000 1.864903e+000 7.438256e-001
<GCONST> 9.359209e+001
<STATE> 3
<MEAN> 25
 1.210771e+000 2.635808e-001 4.083366e+000 1.210547e+001 6.015808e+000 -4.451351e+000 -5.366727e+000 1.061042e+000 -1.327982e+000 -1.404714e+000 -8.862240e-001 -5.694602e+000 -3.332120e-001 3.999686e-001 -2.244589e-001 2.625844e-001 -2.376744e-001 6.382354e-001 5.663683e-001 5.444006e-001 5.686607e-001 4.495493e-001 -2.643128e-001 5.123638e-001 -8.844817e-001
<VARIANCE> 25
 1.124657e+001 3.354727e+001 3.530112e+001 3.111902e+001 2.106393e+001 4.078700e+001 3.292784e+001 6.119822e+001 2.564096e+001 3.013613e+001 3.239639e+001 3.050231e+001 5.011735e-001 1.357684e+000 1.199702e+000 2.331236e+000 1.553577e+000 3.273588e+000 3.228454e+000 1.781298e+000 1.258309e+000 9.032122e-001 1.302235e+000 1.659842e+000 6.004843e-001
<GCONST> 9.119981e+001
<STATE> 4
<MEAN> 25
 -4.654933e+000 2.420280e+000 -1.353234e+000 5.756510e+000 1.573718e+000 1.253504e+000 -9.330115e-001 1.372017e+000 2.609502e+000 2.588305e+000 -3.206696e+000 1.115741e+000 -1.746195e-001 2.216016e-002 -2.461462e-001 -3.251065e-001 -1.338444e-001 2.422494e-001 7.304875e-002 -1.078981e-002 1.750587e-001 1.258691e-001 -1.388507e-002 1.794945e-001 -2.400099e-001
<VARIANCE> 25
 1.587865e+001 3.418585e+001 1.981128e+001 3.217804e+001 1.929169e+001 4.137028e+001 2.742840e+001 2.663283e+001 1.817994e+001 1.325770e+001 1.547199e+001 1.259366e+001 2.959980e-001 6.727420e-001 8.734884e-001 1.009716e+000 1.121536e+000 2.223050e+000 2.055315e+000 1.249554e+000 1.192416e+000 8.923770e-001 1.069604e+000 9.922121e-001 3.109613e-001
<GCONST> 8.180524e+001
<TRANSP> 5
 0.000000e+000 1.000000e+000 0.000000e+000 0.000000e+000 0.000000e+000
 0.000000e+000 7.976109e-001 2.023891e-001 0.000000e+000 0.000000e+000
 0.000000e+000 0.000000e+000 7.128234e-001 2.871766e-001 0.000000e+000
 0.000000e+000 0.000000e+000 0.000000e+000 9.325875e-001 6.741248e-002
 0.000000e+000 0.000000e+000 0.000000e+000 0.000000e+000 0.000000e+000
<ENDHMM>
~h "j"
<BEGINHMM>
<NUMSTATES> 5
<STATE> 2
<MEAN> 25
 -1.470481e+000 -6.915535e+000 1.115652e+001 1.290177e+000 2.728354e+000 1.311090e+000 1.373366e+000 2.438347e-001 1.159453e+000 -6.206347e-001 -3.675851e+000 -7.546621e+000 1.689425e+000 5.435736e-001 -1.109068e+000 1.528394e+000 1.081735e+000 -1.546416e+000 -1.071048e+000 -1.106174e+000 -6.709577e-001 -9.634235e-001 4.900460e-001 -2.077752e-002 1.276028e-001
<VARIANCE> 25
 3.023516e+001 9.837944e+001 7.065560e+001 7.165157e+001 3.437401e+001 3.991229e+001 4.294005e+001 4.942028e+001 9.772017e+000 1.915570e+001 1.484638e+001 9.328812e+000 6.267762e+000 1.582381e+001 1.081551e+001 1.278555e+001 1.012099e+001 5.687891e+000 2.892814e+000 3.087083e+000 1.536020e+000 3.180919e+000 1.879382e+000 1.204740e+000 3.810443e+000
<GCONST> 1.070315e+002
<STATE> 3
<MEAN> 25
 3.546557e+000 -3.507358e+000 3.812459e+000 6.337800e+000 3.889440e+000 -4.673029e+000 -3.645695e+000 -5.104434e+000 -1.034282e+000 -3.432967e+000 -2.228643e+000 -6.062119e+000 1.304631e-001 1.154562e-001 -7.955903e-001 2.129574e-001 1.265753e-001 -1.428769e-001 4.993656e-003 -4.723287e-001 -9.009423e-001 3.085389e-001 9.204600e-001 9.818269e-001 -5.113604e-001
<VARIANCE> 25
 4.878232e+000 4.128762e+001 2.097484e+001 1.259572e+001 3.063661e+001 2.265708e+001 3.357911e+001 4.140347e+001 1.512359e+001 1.694295e+001 2.092080e+001 8.685857e+000 2.119560e+000 6.220280e+000 4.723346e+000 4.570736e+000 3.822137e+000 3.435085e+000 2.270036e+000 1.819611e+000 2.577059e+000 2.822309e+000 2.352444e+000 9.734624e-001 2.889483e+000
<GCONST> 9.487576e+001
<STATE> 4
<MEAN> 25
 -7.645773e-002 1.273899e+000 3.654054e+000 7.679442e+000 6.283834e+000 2.258837e+000 9.198750e-001 -7.289880e-001 -6.954204e-001 1.975321e+000 -1.095397e+000 -1.402916e+000 -6.644915e-001 -1.431367e-001 8.437023e-001 -6.399497e-001 -4.177023e-001 1.676950e+000 3.392880e-001 6.083155e-001 3.643811e-001 5.677221e-001 6.088238e-001 3.903044e-001 -5.521472e-001
<VARIANCE> 25
 2.031681e+001 8.911437e+001 3.330237e+001 4.555962e+001 5.276397e+001 4.487155e+001 2.279911e+001 3.329825e+001 2.587638e+001 3.377658e+001 3.122951e+001 1.468233e+001 3.334350e+000 1.919395e+001 5.699861e+000 5.446598e+000 4.528330e+000 5.496722e+000 3.069934e+000 2.903629e+000 3.986575e+000 4.756973e+000 5.794640e+000 2.935079e+000 1.886505e+001
<GCONST> 1.097859e+002
<TRANSP> 5
 0.000000e+000 1.000000e+000 0.000000e+000 0.000000e+000 0.000000e+000
 0.000000e+000 7.504559e-001 2.495441e-001 0.000000e+000 0.000000e+000
 0.000000e+000 0.000000e+000 6.178761e-001 3.821239e-001 0.000000e+000
 0.000000e+000 0.000000e+000 0.000000e+000 7.913763e-001 2.086237e-001
 0.000000e+000 0.000000e+000 0.000000e+000 0.000000e+000 0.000000e+000
<ENDHMM>
~h "k"
<BEGINHMM>
<NUMSTATES> 5
<STATE> 2
<MEAN> 25
 -4.968825e+000 -3.709452e+000 2.203868e-001 -2.091383e+000 -4.111200e+000 5.232608e-001 7.430385e-001 1.630243e+000 -3.831963e+000 1.307801e+000 2.312015e-001 1.973786e+000 1.360193e+000 -2.146459e+000 1.759609e+000 -9.010549e-001 5.045039e-001 8.018344e-002 8.645273e-002 6.689695e-001 -6.380525e-001 -9.074496e-001 1.433660e+000 -1.060675e+000 3.499929e+000
<VARIANCE> 25
 1.885621e+001 9.277135e+001 9.799414e+001 4.315911e+001 3.916909e+001 3.339077e+001 4.863200e+001 4.046340e+001 3.409538e+001 2.897683e+001 3.489140e+001 2.242342e+001 1.400611e+000 1.233335e+001 6.143822e+000 7.512941e+000 4.388201e+000 4.956137e+000 4.958416e+000 3.353231e+000 4.731838e+000 2.327118e+000 5.133969e+000 2.516744e+000 6.686087e+000
<GCONST> 1.095122e+002
<STATE> 3
<MEAN> 25
 -6.918116e-001 -6.456996e+000 6.103513e+000 -2.789876e+000 -2.078694e+000 -2.816484e-002 -6.731157e-002 1.974344e+000 -4.132654e+000 -1.624725e+000 3.547687e+000 -8.897410e-001 1.407456e+000 1.142595e-001 9.165687e-001 5.542511e-001 1.185719e+000 -1.297890e+000 -1.421424e-001 -7.341090e-001 2.080589e-002 -9.938670e-001 8.315141e-001 -4.283983e-001 2.537586e+000
<VARIANCE> 25
 1.496631e+001 4.514775e+001 7.141500e+001 7.127559e+001 4.326156e+001 4.802322e+001 4.759150e+001 5.058331e+001 2.997229e+001 2.995394e+001 3.759662e+001 2.103749e+001 1.298744e+000 1.020946e+001 5.741230e+000 7.971727e+000 8.039257e+000 6.332099e+000 6.138410e+000 4.641232e+000 4.606175e+000 2.758513e+000 4.977235e+000 4.083153e+000 5.919767e+000
<GCONST> 1.109160e+002
<STATE> 4
<MEAN> 25
 2.920583e+000 -3.588555e+000 5.212058e+000 1.838490e+000 2.898024e+000 -6.121624e+000 -1.605777e+000 7.169473e-001 -2.502881e+000 -6.054002e+000 2.175547e+000 -9.995589e-001 5.888517e-001 4.364033e-002 -5.170164e-001 4.380822e-001 4.186944e-001 -8.121248e-001 -3.523083e-001 -5.396548e-001 4.101615e-001 -2.590180e-001 4.428636e-002 -9.056702e-002 6.639140e-001
<VARIANCE> 25
 1.296209e+001 2.766867e+001 4.513226e+001 6.956735e+001 5.436452e+001 7.156653e+001 5.181316e+001 4.010494e+001 3.077624e+001 3.194753e+001 6.345421e+001 3.100410e+001 1.123615e+000 3.315024e+000 2.735099e+000 4.800142e+000 6.600409e+000 7.128725e+000 4.028636e+000 4.204051e+000 4.400151e+000 1.774896e+000 3.764546e+000 2.739840e+000 2.848894e+000
<GCONST> 1.062683e+002
<TRANSP> 5
 0.000000e+000 1.000000e+000 0.000000e+000 0.000000e+000 0.000000e+000
 0.000000e+000 7.251324e-001 2.748676e-001 0.000000e+000 0.000000e+000
 0.000000e+000 0.000000e+000 4.958642e-001 5.041358e-001 0.000000e+000
 0.000000e+000 0.000000e+000 0.000000e+000 6.525032e-001 3.474969e-001
 0.000000e+000 0.000000e+000 0.000000e+000 0.000000e+000 0.000000e+000
<ENDHMM>
~h "l"
<BEGINHMM>
<NUMSTATES> 5
<STATE> 2
<MEAN> 25
 6.297336e+000 2.141687e+000 -1.998193e+000 -1.431676e+000 -3.603110e-001 -7.583982e+000 1.098848e+000 2.620213e-001 -3.365890e+000 -7.949238e+000 -1.673666e+000 -2.142421e+000 4.878861e-002 -1.718469e-001 -3.180929e-002 -5.266655e-002 -2.742576e-001 2.334797e-002 -3.052543e-002 3.174711e-002 1.876254e-001 5.240526e-002 1.141054e-001 -1.673431e-002 4.953385e-002
<VARIANCE> 25
 9.457362e+000 3.550331e+001 2.138263e+001 3.277266e+001 4.494058e+001 3.974069e+001 2.599734e+001 3.231857e+001 3.156087e+001 3.249643e+001 5.793847e+001 2.874074e+001 5.000118e-001 1.678212e+000 1.365484e+000 2.356119e+000 2.992622e+000 2.963708e+000 1.646612e+000 2.569035e+000 2.457037e+000 1.975202e+000 4.551983e+000 1.796500e+000 1.017099e+000
<GCONST> 9.520358e+001
<STATE> 3
<MEAN> 25
 5.710980e+000 -2.488494e+000 -1.937045e+000 -3.930374e+000 -5.177558e+000 -6.287441e+000 3.173356e+000 -2.386080e-001 -2.639008e+000 -4.385744e+000 3.334898e+000 -7.127553e-001 -1.207778e-001 -6.012149e-001 1.684593e-001 4.514713e-002 -5.825937e-001 4.375436e-001 -1.716185e-001 -1.450050e-001 3.854333e-001 8.837895e-001 9.636486e-001 1.931347e-001 6.766458e-002
<VARIANCE> 25
 1.303065e+001 3.410633e+001 2.409411e+001 2.777339e+001 5.309156e+001 2.858095e+001 1.980843e+001 4.342555e+001 3.239702e+001 4.228653e+001 4.098317e+001 2.255835e+001 3.781573e-001 1.806044e+000 1.023820e+000 2.419502e+000 3.654275e+000 2.310473e+000 1.967734e+000 3.023647e+000 2.866441e+000 2.683305e+000 3.829001e+000 1.908618e+000 6.715102e-001
<GCONST> 9.475684e+001
<STATE> 4
<MEAN> 25
 8.457938e+000 4.301387e+000 -1.410475e+000 -1.709911e+000 6.233169e-002 -6.575966e+000 -7.711630e-002 1.019956e+000 -1.653705e+000 -5.083598e-001 3.666751e+000 -3.143083e-001 -1.945885e-001 5.314952e-001 1.066532e-001 2.344011e-001 -3.470602e-002 2.952602e-001 7.367183e-002 -1.293346e-001 2.355883e-001 7.201434e-001 5.903492e-002 7.718708e-002 -5.364944e-001
<VARIANCE> 25
 3.450988e+001 1.896794e+002 8.459609e+001 3.840561e+001 5.998360e+001 4.113739e+001 6.295485e+001 3.016596e+001 2.410997e+001 4.095663e+001 3.610950e+001 1.440911e+001 3.440052e+000 3.195020e+000 4.963398e+000 4.290566e+000 5.349188e+000 5.074800e+000 3.998987e+000 3.208174e+000 1.894967e+000 3.163962e+000 3.144545e+000 1.939206e+000 3.289921e+000
<GCONST> 1.074277e+002
<TRANSP> 5
 0.000000e+000 1.000000e+000 0.000000e+000 0.000000e+000 0.000000e+000
 0.000000e+000 9.018641e-001 9.813597e-002 0.000000e+000 0.000000e+000
 0.000000e+000 0.000000e+000 6.467770e-001 3.532230e-001 0.000000e+000
 0.000000e+000 0.000000e+000 0.000000e+000 7.891756e-001 2.108244e-001
 0.000000e+000 0.000000e+000 0.000000e+000 0.000000e+000 0.000000e+000
<ENDHMM>
~h "m"
<BEGINHMM>
<NUMSTATES> 5
<STATE> 2
<MEAN> 25
 -2.356419e+000 5.222191e+000 1.127738e+000 -3.786004e+000 1.581064e-001 -2.466778e-001 1.705598e+000 -1.714739e-001 -1.220617e+000 -1.101371e-001 -1.629767e+000 -1.397455e+000 4.899773e-001 1.286450e-002 -6.303402e-001 -3.986321e-001 5.188601e-001 -1.871555e+000 -3.819170e-002 2.963457e-001 2.496284e-001 4.605485e-002 -1.599111e-001 -4.907202e-001 9.093204e-001
<VARIANCE> 25
 1.540855e+001 6.701762e+001 2.814223e+001 1.991817e+001 6.826843e+001 4.950705e+001 4.692062e+001 1.539520e+001 1.034796e+001 1.333098e+001 1.531001e+001 1.177668e+001 8.124498e-001 7.261335e-001 1.847195e+000 1.559487e+000 5.124514e+000 8.324093e+000 5.321784e+000 1.099233e+000 9.761353e-001 1.359061e+000 2.580695e+000 1.045887e+000 1.841461e+000
<GCONST> 9.198133e+001
<STATE> 3
<MEAN> 25
 -2.162656e+000 5.232956e-001 -9.239010e-001 -2.999693e+000 -2.187261e+000 -1.697793e+000 -9.535447e-001 -7.970434e-001 5.148472e-001 -4.456235e-001 -5.188668e-001 4.246515e-001 7.389360e-002 -7.201771e-001 -8.822087e-002 6.224109e-002 -2.518339e-001 3.235669e-001 -1.669858e-001 -2.304834e-001 -1.923823e-003 -2.665873e-001 -4.816686e-002 7.703524e-002 2.509427e-001
<VARIANCE> 25
 3.122307e+001 2.445143e+001 1.000829e+001 1.401621e+001 3.659822e+001 3.375314e+001 1.200094e+001 1.869213e+001 7.101053e+000 1.936860e+001 1.698853e+001 1.855997e+001 5.242584e-001 1.033825e+000 9.160345e-001 1.302029e+000 3.003365e+000 1.581839e+000 1.934541e+000 2.910923e+000 7.238564e-001 9.754362e-001 2.241231e+000 2.151381e+000 4.666185e-001
<GCONST> 8.405124e+001
<STATE> 4
<MEAN> 25
 9.463738e+000 -2.433878e+000 1.323931e+000 -3.241919e+000 2.319938e+000 -4.514877e+000 5.296544e-001 9.818401e-001 9.577861e-001 -5.899541e+000 -1.350773e+000 -5.786733e+000 4.281617e-001 -1.875334e-001 6.980425e-002 -9.468240e-002 -1.290768e-001 -2.883704e-002 -5.646709e-002 -9.110774e-002 -6.166895e-002 -2.964590e-001 -1.247919e-002 -1.327990e-001 5.247891e-001
<VARIANCE> 25
 3.922826e+001 3.004042e+001 1.826802e+001 2.891551e+001 6.813404e+001 5.689868e+001 3.860375e+001 3.949675e+001 1.154865e+001 3.676680e+001 4.462303e+001 4.713784e+001 2.372564e+000 2.512353e+000 1.666066e+000 3.158024e+000 6.176258e+000 3.518724e+000 3.551499e+000 3.710449e+000 1.247435e+000 1.347804e+000 3.534071e+000 5.314170e+000 1.168092e+000
<GCONST> 1.012939e+002
<TRANSP> 5
 0.000000e+000 1.000000e+000 0.000000e+000 0.000000e+000 0.000000e+000
 0.000000e+000 8.709017e-001 1.290983e-001 0.000000e+000 0.000000e+000
 0.000000e+000 0.000000e+000 9.380804e-001 6.191967e-002 0.000000e+000
 0.000000e+000 0.000000e+000 0.000000e+000 9.378992e-001 6.210081e-002
 0.000000e+000 0.000000e+000 0.000000e+000 0.000000e+000 0.000000e+000
<ENDHMM>
~h "n"
<BEGINHMM>
<NUMSTATES> 5
<STATE> 2
<MEAN> 25
 5.375260e+000 -3.179384e+000 -5.372048e+000 -4.451370e+000 -3.709025e+000 -2.791384e+000 4.456217e+000 4.986259e+000 -4.699760e-001 -4.527136e+000 8.029737e+000 1.814415e+000 3.898120e-002 1.645090e+000 -3.464174e-001 1.531844e+000 2.041747e+000 3.534338e-001 -1.022637e+000 9.010225e-001 -1.313621e-001 -4.280773e-001 -1.623319e+000 -8.683688e-001 -1.650182e+000
<VARIANCE> 25
 4.990419e+000 2.865458e+001 2.975540e+001 3.838893e+001 4.164201e+001 2.422604e+001 4.924859e+001 5.104766e+001 2.256382e+001 2.681682e+001 5.793617e+001 1.290107e+001 4.319685e-001 2.927598e+000 2.658714e+000 4.542572e+000 4.164093e+000 3.393357e+000 3.241484e+000 4.235521e+000 2.793961e+000 2.238987e+000 8.745154e+000 2.013184e+000 2.389925e+000
<GCONST> 9.928568e+001
<STATE> 3
<MEAN> 25
 4.915786e+000 3.939101e+000 -5.493968e+000 4.693386e+000 4.475681e+000 -1.108975e+000 5.995081e-001 5.529897e+000 4.707892e-001 -3.997449e+000 -3.391492e+000 -2.558702e+000 -3.110056e-001 1.507591e+000 5.322526e-001 2.573141e+000 1.783998e+000 7.745425e-001 -6.578151e-001 -7.036462e-002 5.707082e-001 2.106570e-001 -3.344398e+000 -1.425572e+000 -1.777991e+000
<VARIANCE> 25
 4.220297e+000 2.373818e+001 2.924652e+001 4.734778e+001 3.641767e+001 2.521596e+001 2.954992e+001 2.347942e+001 2.198478e+001 1.912015e+001 8.102330e+001 1.904544e+001 4.224613e-001 1.659721e+000 2.481134e+000 4.055247e+000 4.303591e+000 4.202723e+000 3.556637e+000 3.685439e+000 2.000983e+000 2.086750e+000 7.485689e+000 1.935665e+000 1.822786e+000
<GCONST> 9.665975e+001
<STATE> 4
<MEAN> 25
 3.348230e+000 7.666826e+000 -2.925179e+000 1.126563e+001 6.538438e+000 9.142662e-001 2.509387e+000 3.847956e+000 3.182364e-001 -1.177364e+000 -8.869421e+000 -5.152903e+000 -2.806714e-001 1.385106e-001 2.546983e-001 2.848743e-001 -3.082091e-001 -5.975371e-002 8.912842e-001 -2.164941e-001 -1.956802e-001 7.211252e-001 3.367135e-001 2.444172e-001 -1.992066e-001
<VARIANCE> 25
 3.961076e+000 2.301810e+001 1.288747e+001 2.317070e+001 2.759211e+001 1.956789e+001 3.678073e+001 1.349776e+001 2.695075e+001 3.317263e+001 2.705358e+001 1.443008e+001 2.896846e-001 1.195535e+000 1.001201e+000 3.247751e+000 3.316366e+000 2.588145e+000 2.731956e+000 8.879960e-001 1.619660e+000 1.358674e+000 4.944378e+000 2.043185e+000 1.405834e+000
<GCONST> 8.801761e+001
<TRANSP> 5
 0.000000e+000 1.000000e+000 0.000000e+000 0.000000e+000 0.000000e+000
 0.000000e+000 7.297000e-001 2.703000e-001 0.000000e+000 0.000000e+000
 0.000000e+000 0.000000e+000 5.758227e-001 4.241773e-001 0.000000e+000
 0.000000e+000 0.000000e+000 0.000000e+000 8.320367e-001 1.679633e-001
 0.000000e+000 0.000000e+000 0.000000e+000 0.000000e+000 0.000000e+000
<ENDHMM>
~h "p"
<BEGINHMM>
<NUMSTATES> 5
<STATE> 2
<MEAN> 25
 4.939232e+000 4.479716e-001 1.052648e+000 -4.342741e+000 -2.280447e+000 -3.964132e+000 3.489689e+000 -1.752067e+000 -1.687838e+000 -2.055396e+000 -2.381159e+000 -6.368773e+000 6.048471e-002 9.281448e-001 3.255303e-001 3.090636e-001 1.271640e-001 -3.505665e-001 4.421065e-001 3.167371e-001 -5.442110e-001 -4.430441e-001 -3.625766e-001 -1.945486e-001 -3.864461e-001
<VARIANCE> 25
 1.066670e+001 5.963359e+001 1.473639e+001 1.852913e+001 2.750061e+001 1.014837e+002 5.308002e+001 2.911160e+001 3.133510e+001 2.322388e+001 3.697569e+001 1.797264e+001 1.399388e+000 6.491770e+000 1.149366e+000 2.766266e+000 3.438552e+000 1.120966e+001 5.182272e+000 2.622353e+000 2.410598e+000 2.365893e+000 4.291289e+000 1.375244e+000 4.686695e+000
<GCONST> 1.010634e+002
<STATE> 3
<MEAN> 25
 -3.595845e-001 5.638824e+000 2.815785e+000 -1.456082e-001 -1.412308e+000 2.258047e+000 3.575862e+000 7.121307e-001 -2.477158e+000 -9.102405e-001 -3.556128e+000 -3.181985e+000 -2.293137e+000 1.170524e+000 -9.812895e-002 1.047567e+000 1.504509e-001 1.290568e+000 -2.614433e-001 8.638870e-002 1.731214e-001 9.888503e-001 -7.601474e-001 1.194877e+000 -3.572712e+000
<VARIANCE> 25
 4.210359e+001 6.127452e+001 1.832139e+001 2.960408e+001 2.209626e+001 4.881243e+001 4.823657e+001 2.969875e+001 3.114808e+001 3.952026e+001 3.715149e+001 2.017327e+001 2.310764e+000 7.586357e+000 2.133876e+000 3.803258e+000 3.630959e+000 6.522523e+000 5.728502e+000 5.006946e+000 5.209960e+000 3.307703e+000 3.619827e+000 2.374875e+000 6.608268e+000
<GCONST> 1.064492e+002
<STATE> 4
<MEAN> 25
 -7.382244e+000 3.218111e+000 1.123497e+000 -5.845976e-001 -3.326536e+000 4.707177e+000 -1.944150e-001 -5.987217e-001 -1.695362e+000 1.704567e+000 -4.976470e+000 1.459408e-001 3.521852e-001 -1.227851e+000 1.901151e-001 -7.927598e-001 -2.721361e-002 1.380230e-001 -4.440656e-001 -2.713460e-001 2.566266e-001 2.871096e-001 7.391723e-001 1.028233e-001 1.333746e+000
<VARIANCE> 25
 1.389971e+001 5.258376e+001 2.278102e+001 1.640702e+001 1.614170e+001 3.170593e+001 3.283964e+001 1.812797e+001 1.587224e+001 1.360256e+001 2.029960e+001 1.352655e+001 2.848609e+000 5.232114e+000 2.838218e+000 2.298877e+000 2.451802e+000 4.106213e+000 2.059940e+000 2.275236e+000 1.980822e+000 1.926501e+000 3.072137e+000 1.328949e+000 1.022279e+001
<GCONST> 9.558385e+001
<TRANSP> 5
 0.000000e+000 1.000000e+000 0.000000e+000 0.000000e+000 0.000000e+000
 0.000000e+000 8.599711e-001 1.400289e-001 0.000000e+000 0.000000e+000
 0.000000e+000 0.000000e+000 7.429995e-001 2.570005e-001 0.000000e+000
 0.000000e+000 0.000000e+000 0.000000e+000 8.855307e-001 1.144694e-001
 0.000000e+000 0.000000e+000 0.000000e+000 0.000000e+000 0.000000e+000
<ENDHMM>
~h "r"
<BEGINHMM>
<NUMSTATES> 5
<STATE> 2
<MEAN> 25
 3.619760e+000 7.326630e-001 -5.083869e+000 2.432275e-001 2.962377e+000 1.660777e+000 -9.429723e-001 -1.146909e+000 -1.161661e+000 -2.153901e+000 1.216103e+000 3.375112e+000 -7.405071e-001 6.500277e-001 -2.109844e-001 2.103577e-001 -1.123776e-001 4.588813e-001 6.863159e-001 4.836366e-001 -4.270404e-001 4.864149e-001 -6.142932e-002 1.308566e-001 -1.393935e+000
<VARIANCE> 25
 2.390974e+001 4.364890e+001 3.846598e+001 2.825537e+001 3.015954e+001 4.263542e+001 4.586438e+001 4.523598e+001 2.260839e+001 4.296121e+001 2.677202e+001 2.591096e+001 2.697491e+000 4.106912e+000 2.966044e+000 1.962221e+000 3.171535e+000 3.698297e+000 3.556689e+000 3.688913e+000 2.135240e+000 4.187316e+000 3.484332e+000 2.806714e+000 3.492108e+000
<GCONST> 1.030298e+002
<STATE> 3
<MEAN> 25
 -5.075064e-001 2.567133e+000 -5.302465e+000 1.582287e+000 1.836152e+000 3.276052e+000 1.654541e+000 1.352494e+000 -2.138833e+000 6.512911e-001 6.262319e-001 3.745748e+000 -1.120854e+000 1.437019e-001 -4.372553e-002 2.704566e-001 -4.817067e-001 -3.047621e-001 1.366850e-001 1.450362e-001 -1.115198e-001 7.060941e-001 -1.348112e-001 -3.264667e-003 -1.301188e+000
<VARIANCE> 25
 3.386365e+001 4.802136e+001 3.678965e+001 2.455647e+001 4.083910e+001 4.098969e+001 4.124844e+001 3.580697e+001 2.631983e+001 3.841319e+001 2.839807e+001 2.711885e+001 2.785424e+000 4.331978e+000 3.574537e+000 2.442155e+000 3.592840e+000 4.219043e+000 4.833103e+000 4.054225e+000 2.213492e+000 3.850706e+000 3.017118e+000 3.061315e+000 3.533552e+000
<GCONST> 1.044123e+002
<STATE> 4
<MEAN> 25
 -5.204589e+000 4.894655e+000 -5.276322e+000 1.590965e+000 -3.505557e-001 2.416646e+000 6.557388e-001 1.316829e+000 -9.570971e-001 2.566924e+000 -2.656710e+000 4.025248e+000 -3.677437e-001 8.170346e-002 1.210224e-001 -2.463399e-002 -1.624569e-001 -3.857415e-001 -2.146950e-001 -1.984724e-001 1.983758e-002 6.381775e-002 -4.784252e-001 -3.159912e-001 -2.651858e-001
<VARIANCE> 25
 2.434295e+001 3.682489e+001 4.082297e+001 1.788421e+001 3.765471e+001 2.656766e+001 4.088205e+001 4.091718e+001 2.070760e+001 2.414646e+001 2.666123e+001 3.242809e+001 9.092699e-001 2.461354e+000 2.028906e+000 2.486087e+000 2.381685e+000 2.492089e+000 2.757016e+000 3.680471e+000 2.292005e+000 1.830753e+000 2.277436e+000 2.786399e+000 1.484699e+000
<GCONST> 9.684486e+001
<TRANSP> 5
 0.000000e+000 1.000000e+000 0.000000e+000 0.000000e+000 0.000000e+000
 0.000000e+000 6.869164e-001 3.130836e-001 0.000000e+000 0.000000e+000
 0.000000e+000 0.000000e+000 6.366369e-001 3.633631e-001 0.000000e+000
 0.000000e+000 0.000000e+000 0.000000e+000 7.925941e-001 2.074059e-001
 0.000000e+000 0.000000e+000 0.000000e+000 0.000000e+000 0.000000e+000
<ENDHMM>
~h "s"
<BEGINHMM>
<NUMSTATES> 5
<STATE> 2
<MEAN> 25
 -9.789641e+000 -1.071998e+001 1.632807e+001 -1.529922e+001 -1.990929e+000 9.214009e+000 5.466058e-001 6.534566e-001 2.535253e+000 5.486254e+000 3.602819e-001 -1.097479e+000 -3.667885e-001 -4.923134e-001 6.863804e-001 -5.626058e-001 5.810216e-002 1.685477e-001 -7.057082e-002 -1.581767e-001 -9.567206e-002 -3.148949e-002 -2.319182e-001 7.154897e-002 4.967593e-001
<VARIANCE> 25
 6.685905e+001 5.506673e+001 1.353231e+002 5.223950e+001 2.804360e+001 3.319332e+001 2.594779e+001 3.687720e+001 1.665856e+001 2.899119e+001 1.588344e+001 1.691192e+001 8.674627e+000 6.267966e+000 1.388638e+001 6.814247e+000 2.728536e+000 4.690964e+000 2.449097e+000 4.148064e+000 1.739740e+000 1.750774e+000 1.291366e+000 1.191920e+000 1.536088e+000
<GCONST> 1.038824e+002
<STATE> 3
<MEAN> 25
 -5.356390e+000 -7.551669e+000 1.106650e+001 -1.165682e+001 -9.705880e-001 6.137305e+000 -1.066812e-001 -2.806092e+000 2.260049e-001 3.098613e+000 -1.020109e+000 -4.298522e-002 2.949046e+000 2.309871e+000 -3.433448e+000 1.825049e+000 2.806892e-001 -2.062410e+000 4.239575e-001 -1.648402e+000 -7.570966e-001 -7.523387e-001 3.423998e-001 7.272235e-001 2.695320e-001
<VARIANCE> 25
 4.862950e+001 5.757838e+001 8.630490e+001 5.586640e+001 2.800673e+001 3.345894e+001 3.190014e+001 4.914965e+001 1.619522e+001 2.352579e+001 2.105910e+001 1.471566e+001 3.216121e+000 4.384737e+000 5.357909e+000 4.646077e+000 2.757889e+000 4.047333e+000 2.908748e+000 4.203797e+000 1.909621e+000 2.380853e+000 1.754620e+000 1.249350e+000 1.381594e+000
<GCONST> 1.016441e+002
<STATE> 4
<MEAN> 25
 5.277759e+000 -2.625220e+000 -2.750692e+000 -4.881254e+000 -2.376164e+000 -2.616031e+000 -2.242774e-001 -8.443926e+000 -1.857998e+000 -1.089067e+000 4.175271e+000 4.645247e+000 1.272267e+000 2.243226e-001 -1.917217e+000 8.240529e-001 -5.758136e-001 -9.746108e-001 -4.688813e-002 1.166955e-001 -1.184100e-001 -8.769778e-001 9.111502e-001 5.490073e-001 5.609748e-002
<VARIANCE> 25
 1.815481e+001 1.768569e+001 4.764597e+001 2.735373e+001 2.707721e+001 3.295343e+001 4.222858e+001 3.908471e+001 1.769405e+001 2.473008e+001 2.915010e+001 1.607635e+001 2.334361e+000 3.035553e+000 3.447077e+000 3.248309e+000 2.843137e+000 5.617649e+000 1.429003e+000 4.706579e+000 2.032017e+000 3.561240e+000 2.089236e+000 1.700966e+000 8.307257e-001
<GCONST> 9.743717e+001
<TRANSP> 5
 0.000000e+000 1.000000e+000 0.000000e+000 0.000000e+000 0.000000e+000
 0.000000e+000 8.621293e-001 1.378707e-001 0.000000e+000 0.000000e+000
 0.000000e+000 0.000000e+000 6.147277e-001 3.852722e-001 0.000000e+000
 0.000000e+000 0.000000e+000 0.000000e+000 7.390884e-001 2.609116e-001
 0.000000e+000 0.000000e+000 0.000000e+000 0.000000e+000 0.000000e+000
<ENDHMM>
~h "t"
<BEGINHMM>
<NUMSTATES> 5
<STATE> 2
<MEAN> 25
 2.036141e+000 -7.316216e+000 2.806361e+000 -7.479075e+000 -4.510716e+000 -1.150436e+000 -7.538179e-001 -1.093156e+000 1.359323e+000 -2.751203e-001 7.548943e+000 5.576652e-001 4.855689e-001 1.053818e+000 -1.194279e+000 1.694391e-001 4.922696e-001 -3.698629e-002 -1.031688e-001 -9.114218e-001 3.361111e-001 -1.140075e-001 -5.296689e-001 1.649689e-001 -2.607828e-001
<VARIANCE> 25
 2.157410e+001 2.538642e+001 4.786801e+001 5.085094e+001 4.571058e+001 1.492271e+001 4.476937e+001 3.585092e+001 4.715052e+001 2.776143e+001 3.918137e+001 2.169508e+001 2.113799e+000 6.714696e+000 2.991310e+000 1.039735e+000 4.272882e+000 1.952145e+000 1.402585e+000 1.027941e+001 2.510457e+000 2.065216e+000 5.681736e+000 1.324635e+000 1.419965e+000
<GCONST> 1.004702e+002
<STATE> 3
<MEAN> 25
 2.848854e+000 -6.350949e+000 -1.943516e-001 -8.591359e+000 -4.911817e+000 -9.564889e-001 -7.206042e-001 -2.645436e+000 3.047177e+000 -1.146118e-001 6.408044e+000 2.071125e+000 2.188793e-003 5.029275e-001 -6.462430e-001 6.389075e-002 1.149244e-001 3.048813e-001 1.438695e-001 -1.152940e-001 4.413101e-002 -1.008113e-001 -6.086439e-001 5.907540e-001 -7.508521e-001
<VARIANCE> 25
 1.090759e+001 1.978105e+001 2.776490e+001 3.800472e+001 4.607441e+001 1.844403e+001 3.843733e+001 3.590211e+001 4.326713e+001 2.516274e+001 3.735483e+001 1.659081e+001 9.944019e-001 1.655356e+000 1.913077e+000 9.817261e-001 2.617675e+000 1.339884e+000 1.518605e+000 2.457399e+000 1.616695e+000 1.633075e+000 3.162255e+000 1.539568e+000 1.837606e+000
<GCONST> 9.254202e+001
<STATE> 4
<MEAN> 25
 3.090679e+000 -5.391261e+000 -1.718319e+000 -6.253149e+000 -3.056001e+000 -1.017597e+000 -1.684333e+000 -2.667073e+000 4.101898e+000 -3.231565e-001 3.170682e+000 2.652478e+000 1.261077e-002 6.799213e-001 -4.896771e-001 4.840924e-001 4.880550e-001 2.727008e-001 2.353381e-002 8.901115e-003 -3.380773e-001 1.015705e-001 -3.757636e-001 1.214190e-001 -8.689306e-001
<VARIANCE> 25
 1.488845e+001 2.531275e+001 6.333823e+001 2.121482e+001 2.649926e+001 1.748657e+001 2.799662e+001 1.720659e+001 2.905400e+001 1.924853e+001 2.349774e+001 2.628917e+001 1.006650e+000 1.376230e+000 1.348976e+000 1.126512e+000 2.170106e+000 1.047557e+000 1.352959e+000 1.571666e+000 1.332675e+000 1.883944e+000 1.808180e+000 1.282269e+000 2.378515e+000
<GCONST> 8.909869e+001
<TRANSP> 5
 0.000000e+000 1.000000e+000 0.000000e+000 0.000000e+000 0.000000e+000
 0.000000e+000 4.863745e-001 5.136256e-001 0.000000e+000 0.000000e+000
 0.000000e+000 0.000000e+000 6.171581e-001 3.828419e-001 0.000000e+000
 0.000000e+000 0.000000e+000 0.000000e+000 8.698528e-001 1.301471e-001
 0.000000e+000 0.000000e+000 0.000000e+000 0.000000e+000 0.000000e+000
<ENDHMM>
~h "u"
<BEGINHMM>
<NUMSTATES> 5
<STATE> 2
<MEAN> 25
 1.591550e+000 -5.051427e+000 3.721073e+000 -3.526367e+000 -2.420869e+000 7.146257e-001 -8.538001e-001 -2.638766e+000 -3.601842e-001 1.062384e-001 2.063277e+000 -1.243736e+000 6.084567e-001 -1.121964e+000 1.266892e-001 -9.799571e-001 -4.936346e-001 -3.646301e-001 -4.756576e-001 -3.493917e-001 5.089878e-001 -5.971197e-001 1.173593e+000 7.893155e-001 1.818908e+000
<VARIANCE> 25
 3.471181e+001 3.430946e+001 3.941385e+001 2.153973e+001 3.789247e+001 3.853180e+001 2.195521e+001 3.304398e+001 1.581963e+001 4.059674e+001 3.315794e+001 1.958964e+001 3.984325e+000 4.711028e+000 3.329215e+000 2.787297e+000 3.405312e+000 4.684978e+000 3.114172e+000 3.302292e+000 1.526240e+000 3.142182e+000 4.969001e+000 2.052902e+000 7.183589e+000
<GCONST> 1.027101e+002
<STATE> 3
<MEAN> 25
 2.207023e+000 -7.004211e+000 2.735358e+000 -4.883069e+000 -3.599782e+000 -6.159508e-001 -1.426576e+000 -2.906161e+000 1.169184e+000 -5.767459e-001 3.489488e+000 2.940306e-001 3.719999e-001 -8.461992e-001 -4.073097e-001 -6.827872e-001 -6.458609e-001 -4.412458e-001 -2.912167e-001 7.446340e-002 7.237009e-001 -3.769810e-001 8.558689e-001 7.595858e-001 1.077982e+000
<VARIANCE> 25
 3.221240e+001 3.455365e+001 2.718090e+001 3.025105e+001 2.578419e+001 2.864953e+001 2.076802e+001 3.236415e+001 2.069585e+001 3.731251e+001 3.173843e+001 2.314478e+001 2.017469e+000 2.108514e+000 1.762494e+000 1.897452e+000 2.667234e+000 4.040996e+000 2.925048e+000 2.397118e+000 1.583153e+000 2.920897e+000 4.036827e+000 2.034914e+000 3.855514e+000
<GCONST> 9.800467e+001
<STATE> 4
<MEAN> 25
 4.106823e+000 -9.017148e+000 1.194485e+000 -6.296988e+000 -4.927636e+000 -1.186480e+000 -1.545465e+000 -2.987777e+000 2.958772e+000 -8.604256e-001 5.433348e+000 1.714134e+000 2.687799e-001 -8.191715e-002 -4.868383e-001 -8.819672e-002 -9.511152e-002 -1.809433e-001 -1.742275e-002 2.251358e-001 4.175185e-001 -1.649316e-002 3.799097e-001 1.027386e-001 1.968230e-001
<VARIANCE> 25
 3.637222e+001 2.979610e+001 2.596587e+001 2.879490e+001 1.415037e+001 2.558038e+001 4.120442e+001 3.924005e+001 2.994118e+001 3.042249e+001 3.531969e+001 3.019022e+001 1.031201e+000 2.176208e+000 1.216262e+000 9.682004e-001 2.530775e+000 2.960665e+000 2.658868e+000 1.873648e+000 1.656702e+000 2.266768e+000 2.719254e+000 1.983336e+000 1.451730e+000
<GCONST> 9.459086e+001
<TRANSP> 5
 0.000000e+000 1.000000e+000 0.000000e+000 0.000000e+000 0.000000e+000
 0.000000e+000 3.014086e-001 6.985914e-001 0.000000e+000 0.000000e+000
 0.000000e+000 0.000000e+000 4.107178e-001 5.892822e-001 0.000000e+000
 0.000000e+000 0.000000e+000 0.000000e+000 5.590405e-001 4.409595e-001
 0.000000e+000 0.000000e+000 0.000000e+000 0.000000e+000 0.000000e+000
<ENDHMM>
~h "sil"
<BEGINHMM>
<NUMSTATES> 5
<STATE> 2
<MEAN> 25
 -7.071726e+000 3.078254e+000 -2.417646e-002 1.005556e+000 -5.170581e-001 7.503653e+000 8.574179e-001 5.606735e-001 1.411350e+000 2.997113e+000 -2.769253e+000 2.109600e+000 -1.212092e-001 -9.447981e-002 4.128396e-002 -2.176606e-001 -1.912845e-001 -2.433553e-001 6.328034e-002 -4.422505e-002 2.488407e-002 1.429498e-001 2.561354e-002 -1.201168e-001 1.213904e-001
<VARIANCE> 25
 1.994844e+001 3.222713e+001 3.706518e+001 3.619532e+001 2.613354e+001 2.799258e+001 2.362690e+001 2.478569e+001 1.839697e+001 2.101093e+001 1.307655e+001 1.349124e+001 7.608979e-001 1.448931e+000 1.445605e+000 1.854200e+000 1.450016e+000 1.765962e+000 1.605974e+000 1.783663e+000 1.370019e+000 1.243073e+000 1.087248e+000 1.059390e+000 2.176146e+000
<GCONST> 8.823993e+001
<STATE> 3
<MEAN> 25
 -4.572676e+000 2.451086e+000 -2.021124e-001 2.692848e-001 -5.140151e-001 3.811015e+000 2.469349e+000 1.429982e+000 1.092093e+000 3.217926e+000 -2.247565e+000 3.339402e-001 6.497986e-001 -3.859617e-001 4.114543e-001 -8.873776e-001 -2.846588e-001 -1.111001e+000 1.560740e-001 -3.597657e-002 -1.115217e-001 -3.693908e-001 -1.490023e-001 -4.447713e-001 1.656144e+000
<VARIANCE> 25
 3.558424e+001 7.933009e+001 4.825795e+001 7.146176e+001 3.576817e+001 4.733776e+001 4.505684e+001 3.327174e+001 2.234817e+001 2.042325e+001 1.903780e+001 2.094720e+001 3.019635e+000 8.558112e+000 2.875237e+000 5.287562e+000 3.503630e+000 3.937290e+000 4.352522e+000 3.116037e+000 3.052056e+000 2.258153e+000 2.422923e+000 1.731585e+000 7.891098e+000
<GCONST> 1.055322e+002
<STATE> 4
<MEAN> 25
 -2.856985e+000 4.651291e+000 2.738135e-001 -4.324566e-001 -2.526879e+000 2.130979e+000 8.627221e-001 -1.653483e-001 1.727922e+000 3.188476e+000 -2.773341e+000 3.295068e-001 1.439770e-001 6.411625e-002 1.393662e-001 -1.557821e-001 -9.327407e-002 -2.321819e-001 7.417472e-002 3.087766e-002 2.256805e-002 -5.507650e-002 -2.454744e-002 -9.212391e-002 2.341885e-001
<VARIANCE> 25
 3.117101e+001 9.561963e+001 4.269973e+001 4.385269e+001 2.781020e+001 4.166082e+001 3.600514e+001 3.410623e+001 1.977118e+001 2.534815e+001 2.225508e+001 1.699134e+001 1.244453e+000 2.443743e+000 1.560514e+000 2.057945e+000 2.103957e+000 2.223821e+000 1.775338e+000 1.520532e+000 1.622030e+000 1.445875e+000 1.326118e+000 1.264405e+000 1.963149e+000
<GCONST> 9.466098e+001
<TRANSP> 5
 0.000000e+000 1.000000e+000 0.000000e+000 0.000000e+000 0.000000e+000
 0.000000e+000 7.358760e-001 2.641240e-001 0.000000e+000 0.000000e+000
 0.000000e+000 0.000000e+000 4.316674e-001 5.683326e-001 0.000000e+000
 0.000000e+000 0.000000e+000 0.000000e+000 6.496359e-001 3.503641e-001
 0.000000e+000 0.000000e+000 0.000000e+000 0.000000e+000 0.000000e+000
<ENDHMM>
